0.491721 0.585438 0.235755 0.877878 -0.426681 0.781939 -0.423184 0.660272 -0.20711 -0.552819 0.32822 -0.0232844 -0.639593 0.98308 0.75372 -0.494616 0.0920434 0.099882 -0.213785 -0.281019 -0.108907 -0.303868 -0.857947 0.435379 -0.101202 -0.205168 -0.836179 -0.878091 0.656549 -0.811281 -0.468924 0.99548 0.751947 -0.765022 -0.253859 0.506862 -0.953554 0.828325 0.680947 0.0579928 0.253637 -0.23096 -0.785434 -0.704515 -0.170809 0.677722 -0.625245 -0.0827966 0.164404 0.53844 0.0607314 0.47264 -0.306182 -0.821044 0.189434 -0.29622 -0.522037 0.547213 -0.289164 0.373638 0.567786 0.785091 -0.351695 0.642909 -0.211999 0.735224 0.718042 -0.945992 0.801007 0.1451 0.977728 -0.728289 -0.378869 -0.483365 0.153566 0.0156785 -0.312931 0.797327 0.101692 0.15511 -0.780676 -0.17367 -0.699372 -0.947901 -0.699195 -0.969304 -0.537074 0.839413 0.959243 -0.495855 -0.825316 0.458174 0.429554 -0.721678 -0.245715 0.618746 -0.0779092 0.464602 0.409427 -0.50367 -0.827485 0.291915 -0.885352 -0.688108 -0.78661 -0.988122 0.425506 -0.296931 0.398571 -0.312617 -0.329011 -0.24561 0.609415 -0.0788706 -0.0648067 -0.361773 -0.095688 0.795444 0.361659 0.378189 -0.728203 0.166244 -0.422099 -0.55208 0.32366 -0.147957 0.030761 -0.397783 
0.696058 0.468119 -0.856025 -0.36428 0.307172 0.132118 0.399705 0.887529 -0.129943 0.349704 0.173556 0.782639 0.439337 -0.551118 -0.801824 0.744779 0.83112 -0.438194 0.146128 0.0824513 -0.239649 0.138417 -0.69752 -0.759732 0.0478978 -0.547674 -0.369434 0.857486 -0.344391 0.412179 -0.849405 0.715206 0.871406 0.809173 -0.690397 -0.037469 0.0923616 0.14202 -0.45378 0.505952 -0.499133 -0.397728 -0.000741958 -0.218018 -0.0674687 0.350096 0.528014 0.287768 -0.605443 0.180773 -0.783309 0.0892353 0.671233 0.437147 -0.965309 -0.0768431 -0.0227762 0.726182 -0.398811 0.836344 -0.586292 0.391411 -0.552353 0.699074 -0.195604 -0.699144 -0.226044 -0.914866 -0.259445 0.218514 0.343753 -0.191476 -0.828379 -0.484183 -0.605933 -0.0554584 -0.203527 0.401782 -0.274409 0.254563 0.0504994 0.573132 -0.775468 0.893127 -0.228301 -0.6544 -0.339265 -0.304413 0.983752 -0.446136 -0.843422 -0.444318 0.548141 -0.462962 0.0307978 -0.496324 -0.731076 0.261579 -0.987644 -0.194582 0.325258 -0.338466 -0.0993407 0.71379 0.964483 0.0191885 -0.532825 0.242812 -0.752348 0.738856 -0.282006 -0.199399 -0.260366 0.124316 0.787733 -0.636418 0.857743 0.650333 -0.881194 -0.436325 0.299006 0.0706887 0.427159 0.292654 0.963495 0.19072 -0.256862 -0.566438 
0.618162 0.96524 0.937074 -0.273725 -0.974522 0.389948 0.136243 0.0766012 0.409315 -0.760431 -0.757492 0.530965 0.811435 -0.09775 0.375903 0.459381 0.320034 0.521907 0.70026 0.712511 0.973577 0.163249 -0.782308 -0.67076 0.585665 0.163018 0.240696 0.900388 -0.68789 -0.965495 0.566196 -0.177743 -0.583332 0.113585 0.369351 -0.309738 0.537393 -0.471505 -0.22585 0.485124 0.567664 0.434459 -0.235533 -0.9095 -0.830213 0.394916 -0.473315 0.54272 -0.110445 0.52466 0.865648 0.759757 0.49997 0.621764 0.315126 0.732899 -0.635784 -0.885723 0.048241 0.986897 0.710799 0.870123 0.532498 -0.0743431 0.250188 -0.747812 0.764563 0.665251 -0.640373 -0.41329 -0.467889 -0.972946 0.888145 -0.00688821 -0.560086 -0.0912295 0.656017 0.58811 0.265457 -0.5904 -0.468633 0.365748 0.234403 0.446904 -0.589769 -0.71602 -0.581195 0.575808 0.405346 0.637269 0.00362943 -0.530978 -0.686064 -0.834232 -0.83388 -0.408417 0.92512 -0.813927 0.914036 -0.228671 -0.568079 -0.475249 -0.258795 0.483066 0.218739 -0.280164 0.962789 0.878261 0.783858 -0.408958 -0.247069 -0.464087 -0.378338 0.709247 0.124811 -0.452451 -0.48008 -0.0150072 -0.50415 -0.842986 0.143702 0.867079 -0.0648909 -0.888108 0.414157 -0.892383 0.67087 0.319966 
-0.0265506 0.617529 -0.647149 -0.487558 0.0735581 -0.848623 0.826793 0.41831 0.121378 -0.560988 -0.0233795 0.457678 -0.0651082 0.613049 0.447359 -0.444606 0.143615 0.453927 0.527973 -0.82045 -0.590038 -0.913725 -0.201449 -0.991145 -0.678141 -0.775328 -0.0408342 -0.86343 0.481018 -0.273665 -0.521391 0.814477 0.406531 -0.143376 -0.431849 0.491886 -0.541744 -0.282161 0.533987 -0.838256 -0.833419 -0.102667 0.105031 -0.44841 0.470848 -0.781888 -0.9841 0.121892 0.897698 -0.0701272 0.822388 -0.577439 0.581427 0.851351 -0.852559 0.86834 -0.545568 -0.950463 0.952465 0.671967 0.165971 -0.970145 -0.18521 0.948684 0.934054 -0.321639 0.961133 0.730209 0.348582 -0.596766 0.375462 0.629901 -0.985387 -0.936176 -0.909482 0.854934 0.83555 0.557239 0.674627 -0.730479 0.498942 0.108362 -0.691728 0.539062 0.0830401 -0.148559 0.979285 -0.964819 0.974807 -0.973437 0.152752 0.0858453 0.398164 -0.551481 -0.354901 0.998853 0.659319 -0.0690316 0.236759 0.302345 0.462477 0.168083 -0.845956 0.219229 -0.474462 0.0605491 -0.790504 -0.547544 0.320261 -0.63568 -0.805394 -0.150694 0.956623 0.516906 -0.620613 0.961997 0.117753 -0.394977 0.233275 -0.0664381 -0.902687 -0.763975 0.0591636 0.595437 0.776121 -0.931053 0.684616 -0.135789 
0.896916 -0.739408 -0.790145 0.782581 -0.340665 0.933744 0.485768 0.880519 0.306895 0.199089 -0.23057 0.786354 0.298082 -0.54464 -0.141415 0.460951 0.0728687 -0.177118 -0.543704 0.734394 -0.446 -0.0470813 -0.819633 -0.235378 0.325617 -0.0158413 0.781837 0.430518 -0.848235 -0.722287 0.478883 0.459521 0.439678 -0.681173 -0.592472 0.765169 -0.467823 -0.778163 -0.23931 -0.536418 -0.591329 -0.802482 -0.0225405 -0.846303 -0.979264 0.803791 -0.668332 -0.795663 0.850815 0.746675 0.972264 -0.70863 -0.374867 0.594152 0.441851 0.240858 0.589439 -0.641379 0.821505 0.443158 -0.320904 0.419024 0.749524 -0.98841 -0.0446322 0.656913 0.38649 -0.331355 -0.775228 0.671904 0.677464 0.42674 0.505992 0.807031 0.140632 0.695254 0.80212 0.735566 -0.720363 -0.119709 -0.974838 0.586721 0.318078 -0.199717 0.475254 -0.0248981 -0.192226 0.498443 -0.314342 -0.265547 -0.217445 0.741476 0.358021 -0.0255834 -0.703804 -0.0610433 0.0781138 0.590259 0.28532 0.147876 0.600394 -0.768112 0.082507 0.522181 -0.22828 0.219162 -0.285188 0.54415 -0.457515 0.671502 0.0656178 0.135615 -0.395862 -0.574235 0.462427 0.654376 0.481856 -0.962269 0.387585 -0.633052 0.154334 0.0365224 -0.629756 0.107876 -0.366931 0.16232 0.175369 0.342375 
-0.622675 -0.347437 0.74825 -0.180394 -0.995532 0.669075 -0.0861014 -0.131019 0.682931 -0.343083 -0.200443 0.0250185 0.598949 -0.332778 -0.859079 0.169205 -0.928308 0.0747333 0.409214 -0.357124 -0.6225 -0.614327 -0.593796 0.867781 0.859532 -0.164928 0.558762 -0.329088 -0.645261 -0.2236 0.704121 -0.845202 -0.0989839 -0.327618 0.902502 0.564342 -0.164558 0.34004 0.0362143 -0.306625 0.315897 0.31415 -0.83446 -0.134291 -0.284261 0.215389 -0.0377055 -0.585214 0.703557 0.162834 0.610451 0.765582 -0.611166 0.189303 -0.155692 -0.342166 0.623802 -0.708928 0.439045 0.52433 0.00162412 0.00393313 -0.0569564 -0.377693 0.139083 -0.22816 0.113194 0.957272 -0.731946 0.411442 -0.579957 -0.107833 0.66233 0.86181 0.108939 0.422504 0.406755 -0.77883 0.0842049 0.855881 -0.523725 -0.216323 -0.555634 0.321814 0.790573 -0.224514 -0.276405 -0.688334 0.597652 -0.437051 0.074442 -0.961115 -0.855162 0.0125076 -0.895361 0.704131 0.659933 -0.552723 0.850129 0.331511 0.0178135 -0.194796 -0.84488 -0.590871 -0.965718 0.646097 0.566057 -0.628485 -0.837138 -0.254423 -0.500366 -0.577747 0.390978 -0.0272929 0.878706 0.980599 -0.885189 -0.512167 -0.547975 0.735629 0.52398 -0.46495 0.560961 0.0176027 0.972739 0.502442 -0.146152 -0.551663 
0.641746 -0.0299534 -0.608189 -0.765099 0.326358 0.0425967 0.489436 0.190537 0.651853 0.809355 0.230701 -0.54433 -0.822775 0.851508 -0.51375 0.189606 0.881625 -0.917722 0.4677 -0.232433 -0.566274 -0.0651969 0.468299 0.513738 -0.374488 -0.318097 0.789034 -0.124424 0.225574 0.424604 0.0594876 -0.724626 -0.5333 0.489816 -0.24059 -0.0976918 0.826849 -0.0911042 -0.211701 -0.719661 0.940415 0.107646 -0.720535 0.79475 0.617605 0.54773 -0.922161 0.139199 -0.413408 0.22795 -0.578845 0.347918 -0.92777 -0.992464 0.807302 -0.495616 0.773441 0.313804 0.963571 0.129597 -0.539401 -0.863128 -0.464717 0.0316324 0.0661554 -0.231282 -0.327736 -0.94441 0.8503 -0.889158 0.192169 -0.608494 0.734561 -0.0532742 -0.288702 0.775834 0.564872 0.99477 0.08103 0.0137107 -0.32773 0.111713 0.953793 0.0271761 0.3165 -0.6118 -0.924088 0.0660476 0.707479 -0.910246 -0.0100862 0.017814 -0.906438 -0.647174 -0.467503 0.0538203 0.0527753 0.650412 0.315605 0.22763 0.258167 -0.140212 -0.394411 -0.11688 0.109059 0.823876 0.995394 0.647977 -0.841196 0.391533 -0.738876 -0.547628 -0.548501 -0.365716 0.900724 0.253882 0.139434 -0.795944 0.310666 -0.840487 -0.229882 0.977572 -0.498821 0.701828 0.811827 -0.28111 0.29653 -0.280611 
0.117907 -0.891514 0.482856 0.281655 -0.226888 0.770993 0.949696 -0.333129 0.490395 -0.855329 0.65635 -0.929955 -0.186003 0.137455 0.092438 0.24321 -0.103123 0.395634 0.856899 -0.0940695 -0.464336 0.564413 0.713513 0.903684 -0.685313 -0.78671 0.573442 -0.525584 0.848695 0.94784 0.227622 -0.588738 -0.638173 -0.0555462 -0.896632 0.271421 0.63773 0.319448 0.611611 -0.492336 -0.620799 -0.877998 -0.448122 0.923109 0.635202 -0.00614449 0.289357 0.725222 -0.436595 -0.564354 0.324292 -0.269149 0.266861 -0.571542 -0.998587 -0.276796 -0.936291 0.687016 -0.681523 -0.301157 -0.00776986 -0.945981 0.729467 -0.804026 0.755066 -0.973061 0.107108 0.00201321 0.270966 -0.122484 0.492299 -0.680333 -0.914942 0.113491 0.0245312 0.42153 -0.920806 0.758897 -0.689592 0.632219 0.389455 0.324289 0.753476 -0.868556 0.883455 -0.182442 0.356074 0.575691 -0.262703 -0.852918 -0.0952495 0.700831 0.4904 -0.977604 0.467595 0.057322 -0.15618 0.243208 0.671415 0.736018 -0.913247 -0.509292 0.871607 0.714972 0.665353 -0.763174 -0.32721 -0.0575524 -0.198437 -0.148079 0.065612 0.733439 -0.486021 -0.454189 -0.738767 0.952152 -0.0182089 -0.851946 0.597362 -0.526555 0.504437 0.503467 0.771185 0.473583 0.323826 -0.863009 0.136239 -0.42517 
0.83939 -0.491285 0.191592 0.664821 0.681092 -0.440082 0.204434 -0.0270234 -0.557283 0.733685 -0.100251 -0.965056 0.127783 -0.232815 0.990872 0.275648 -0.929863 -0.304996 0.885842 -0.00447163 -0.110663 0.215573 0.146114 0.990022 0.480361 -0.966065 0.13974 0.311477 -0.728629 0.314363 -0.33692 -0.29546 -0.630569 -0.105912 0.645251 -0.374889 -0.454474 0.508116 0.91356 -0.102701 0.826748 -0.478941 0.111484 -0.30744 0.0794978 0.721296 0.384539 -0.693899 -0.194158 -0.831169 -0.317377 0.770374 0.331873 -0.492657 0.0889788 -0.0626135 -0.589222 0.0935848 0.977897 -0.975135 0.836778 -0.55604 -0.0444496 -0.73773 -0.726912 0.594778 -0.463408 -0.229266 0.388417 0.330645 -0.890336 -0.199326 0.224838 -0.663614 0.841578 -0.19457 -0.521465 0.471806 -0.913305 -0.331144 0.913304 -0.928875 -0.0491229 0.198152 -0.14817 0.560779 0.450532 -0.0262248 -0.364817 0.440403 0.254762 -0.517077 -0.729325 -0.0896516 -0.081366 -0.14226 0.199266 0.97265 -0.994542 0.998891 0.532866 0.291652 0.332397 -0.802468 0.436528 0.191461 0.69438 0.272564 -0.0580038 -0.343514 -0.194574 -0.257429 -0.0501263 0.461881 0.255084 0.692138 0.722965 0.72908 0.952898 -0.582562 0.219456 0.139255 -0.198559 -0.983106 -0.320998 -0.849259 -0.250796 0.973113 
-0.440446 0.386163 0.790252 -0.816319 -0.491856 0.404734 -0.896812 0.323573 0.193344 0.784586 -0.21461 -0.0108984 -0.562146 0.755709 0.859813 -0.45525 -0.0804551 0.915939 0.575213 -0.948092 -0.96643 -0.35819 -0.890046 0.378796 -0.912715 -0.345968 0.0749833 -0.786783 0.846359 -0.930676 0.0199347 0.853403 -0.555723 0.0622243 -0.867536 0.234053 -0.063799 0.217255 0.639065 -0.81181 -0.635066 -0.85623 0.838599 -0.649274 -0.545335 -0.68174 0.615581 0.565025 -0.434944 -0.141619 0.460884 -0.140227 0.280982 0.467793 0.302898 0.526034 0.770567 0.888826 0.143682 -0.302358 -0.0573012 -0.936184 -0.0725893 0.570528 0.727971 -0.359713 -0.669119 0.2768 -0.432072 -0.438055 0.487531 -0.881307 -0.295748 -0.322461 -0.683519 -0.115547 0.0162004 -0.498939 0.410569 -0.133701 0.919728 0.270629 -0.307476 -0.520952 -0.819425 0.74712 0.557233 -0.317074 0.58229 0.18272 0.868121 0.40788 -0.779987 -0.643422 0.843306 0.309012 -0.335321 0.229095 -0.576152 0.325333 0.475707 -0.0472825 0.319072 0.930682 0.916111 0.0540616 -0.125639 0.546504 0.894098 -0.953997 -0.284371 -0.643934 0.923727 -0.120884 0.541787 -0.489964 -0.286348 -0.938749 -0.30886 -0.9159 0.0392707 0.331784 0.752089 -0.310698 0.665701 -0.273654 -0.864587 0.735732 
0.679824 0.874913 0.166727 -0.44816 0.873604 -0.304872 0.814568 -0.655346 -0.144161 0.272514 -0.37404 0.0592873 0.0577161 0.990599 0.428617 0.712432 -0.615749 -0.866021 -0.55763 0.00462697 -0.67134 -0.250173 0.730764 -0.715212 0.459942 0.636543 0.957825 0.880582 0.017026 -0.892766 0.451584 0.514649 -0.964644 -0.949587 0.181887 -0.388053 0.149177 0.56011 -0.284461 -0.511598 0.577536 -0.0410741 0.687928 0.760702 -0.787633 0.282882 -0.585428 -0.0687126 -0.632164 -0.15176 -0.872821 -0.885394 0.836034 -0.874392 0.617428 -0.192611 -0.128704 0.302473 0.366888 -0.0435926 -0.570917 -0.393196 0.225712 -0.842205 0.391198 0.0578714 -0.305736 0.766853 0.297703 0.109683 0.534815 0.0938297 0.355552 -0.081167 0.970202 -0.572921 0.0291273 0.520333 -0.936832 -0.0518731 -0.051407 -0.968455 0.618929 -0.793148 -0.468921 0.157277 0.0282863 0.911691 -0.250095 0.863081 0.363665 0.7953 -0.864342 0.111298 -0.902877 -0.0292217 -0.120161 -0.912575 -0.0336904 0.161821 0.287827 -0.898281 0.761954 0.161157 0.493787 -0.655437 0.299443 0.0840577 0.801835 0.560498 -0.649942 0.231493 0.778361 -0.668438 -0.135713 -0.597645 -0.892478 -0.595395 -0.024525 0.804806 -0.508783 0.221273 -0.622792 -0.743578 -0.185835 -0.0879987 -0.232859 0.624194 
0.515913 -0.16373 -0.985411 0.961265 -0.907556 0.213707 0.239158 0.0173465 -0.387243 0.430304 0.973647 0.418302 0.930488 -0.218679 0.801876 0.471923 -0.850696 0.0761449 -0.21422 -0.984861 0.398115 -0.460204 0.0835854 0.368121 -0.203574 -0.690793 -0.679102 0.58195 0.235004 -0.959788 0.327245 -0.138564 0.948333 -0.442987 -0.388966 -0.64016 0.472797 0.564844 -0.111 0.331215 0.728663 -0.646672 0.14587 0.0518994 -0.197568 0.257808 -0.857715 0.226721 0.154905 0.104009 -0.654257 -0.583674 -0.127295 0.85165 -0.331145 -0.391241 -0.579927 -0.0899151 0.0360095 -0.196315 -0.112773 0.802241 -0.609794 -0.0455341 -0.360375 0.667893 0.0985194 0.017625 0.0124231 -0.519693 -0.582282 -0.651164 -0.149895 -0.614488 -0.372809 0.517824 -0.99942 0.339213 -0.748077 0.562252 0.249526 -0.253508 -0.631312 -0.489068 0.675756 0.381574 0.178365 -0.92204 -0.898514 -0.952474 0.794711 -0.802138 0.861461 -0.92341 0.903281 0.260935 -0.429965 -0.849478 0.906325 0.706834 0.306142 -0.593719 -0.165314 -0.762519 0.749393 -0.458236 -0.654561 -0.618896 0.878351 -0.560699 -0.847866 0.0157787 0.819645 -0.392988 -0.155881 0.259728 0.220815 -0.675363 -0.0889311 -0.165715 -0.979106 0.150153 -0.199242 -0.425383 0.513386 -0.884981 0.504842 0.227571 
0.871625 0.779428 0.712634 0.501092 -0.461998 -0.873665 0.368811 -0.552029 -0.571535 0.882936 -0.871751 0.736792 -0.180925 -0.0495807 -0.730207 -0.017762 -0.9939 -0.113685 0.471745 0.325325 -0.21429 -0.931725 -0.0407342 -0.0800247 -0.776643 -0.726725 0.529942 -0.580214 -0.824295 -0.66717 -0.595992 -0.775309 -0.660542 -0.0411304 -0.000548509 0.00450816 0.7239 0.341261 -0.053975 -0.16141 -0.499631 -0.896618 0.850848 -0.686893 -0.287044 0.951523 -0.330941 0.189418 -0.755981 -0.698083 0.509344 -0.759061 0.404289 -0.637177 -0.802536 0.223594 0.0134485 0.354094 -0.645684 -0.789366 -0.0496967 -0.443407 -0.529739 0.774775 0.168281 0.0248388 0.0893123 0.379935 -0.403368 -0.162589 0.59936 -0.0950919 0.0965895 0.81665 -0.261843 0.76138 -0.572251 0.913791 0.0397484 -0.699152 -0.709867 0.112656 0.41221 0.213748 -0.90341 0.417182 -0.591637 -0.221897 -0.794792 0.620867 -0.703052 -0.0994403 0.476087 0.817309 0.478352 -0.987944 0.87129 -0.521065 -0.742051 0.447405 -0.673707 -0.874156 0.801316 -0.511765 -0.209998 -0.684429 0.951632 0.0463558 -0.0267801 -0.609552 0.225574 -0.872842 -0.333483 -0.429702 0.201316 0.428174 0.0631529 -0.0125729 -0.298615 -0.884726 0.618501 0.603884 -0.644124 -0.0984642 0.986591 -0.585433 0.817605 -0.834758 
0.0736391 -0.711757 0.135323 0.673065 -0.654718 0.897076 -0.148505 -0.0246122 0.325959 -0.987806 -0.0143894 0.352568 -0.654513 0.0768555 -0.342153 0.583115 0.809277 0.295931 0.424809 -0.213873 -0.738795 -0.991925 -0.132606 0.35651 0.9503 0.937492 -0.75034 0.425668 -0.875478 0.838891 0.2702 -0.682576 0.247394 0.52371 -0.932983 0.772345 0.716285 0.11107 0.268918 -0.477456 -0.224153 -0.82877 0.436876 -0.834719 0.72961 -0.645112 0.343029 -0.474183 0.150107 0.375011 -0.0370164 0.438442 -0.102479 0.380605 -0.368318 0.188584 0.0721097 0.487484 -0.9497 -0.658016 0.157536 0.0618068 -0.881215 0.690763 0.152994 -0.798209 -0.411291 -0.918954 -0.499755 0.27954 0.384281 -0.0219466 -0.831441 -0.977459 0.257251 0.885179 0.00410483 -0.832681 -0.422994 0.587423 0.246884 0.679558 -0.252502 0.3807 -0.220642 0.300227 -0.684533 -0.0893289 0.70746 -0.225955 -0.683273 0.811626 -0.282255 0.0101936 -0.0884098 0.828143 0.997268 -0.157279 0.747264 -0.847136 0.211265 -0.436645 -0.525837 -0.0937 0.645265 0.9623 -0.782526 0.164847 -0.0913242 0.738837 0.0282231 0.665925 -0.0944329 -0.0375262 -0.0400957 0.662834 -0.240524 -0.871447 0.140443 -0.166008 0.792769 0.909565 -0.738878 0.150701 0.880404 0.476895 -0.66981 -0.535904 
0.162397 0.860727 -0.177898 0.834595 -0.697926 -0.695624 -0.926445 0.96402 0.72347 -0.555831 -0.211741 0.885996 -0.826858 -0.924801 0.462338 0.721236 0.998319 -0.274387 0.166257 0.60239 0.526802 0.797098 -0.372061 -0.0300232 0.135869 0.170279 0.0279992 -0.0334694 -0.978241 -0.981885 0.876873 0.873192 -0.204597 0.986917 0.345011 -0.485429 0.997352 -0.512371 0.790713 0.460506 0.229194 0.0408615 -0.148696 -0.450376 0.305874 0.502548 -0.642199 -0.405609 -0.241088 -0.487997 -0.233976 -0.679225 0.172426 -0.523266 0.816371 -0.715794 0.958756 -0.441408 0.754263 0.435038 0.231127 -0.934306 0.1394 0.782923 -0.240605 -0.914959 0.493226 0.254426 0.987132 -0.184537 0.730784 -0.204633 0.555548 0.166164 -0.566639 -0.0568868 -0.342633 0.629546 -0.131022 0.965249 0.768425 -0.205071 -0.732558 -0.102901 0.928125 -0.523691 0.00793806 -0.00735883 -0.982014 -0.926254 0.859242 -0.482172 0.0399173 -0.511873 0.665981 0.710368 -0.275782 -0.457099 0.740188 -0.879575 -0.230983 -0.321997 -0.327868 -0.996644 0.324652 0.591267 0.480442 -0.951495 0.803359 -0.253956 0.64695 -0.068557 -0.485511 -0.228751 -0.0666192 -0.900046 -0.857888 -0.850392 0.532616 -0.942496 -0.707421 0.589343 0.120584 -0.124366 -0.397598 -0.721251 -0.971408 0.564114 
0.629335 -0.724105 -0.317143 0.958997 -0.748251 -0.231995 -0.343859 -0.32772 0.126326 0.23994 -0.783986 0.994022 -0.23324 0.0953151 0.323256 0.253345 -0.989512 -0.725048 -0.558017 -0.0745317 0.563577 -0.275753 -0.357077 0.233408 0.542754 -0.886616 0.734074 0.239164 -0.589969 0.519774 -0.201719 -0.774181 -0.511109 0.737068 -0.960788 0.950906 0.0934774 0.0520701 -0.769714 0.123495 0.78425 0.30415 -0.0162647 -0.211477 -0.384737 0.889076 -0.222247 0.628487 -0.826289 -0.101009 0.145444 0.575889 -0.289579 0.716054 -0.764308 -0.718476 0.967912 0.43462 0.658788 0.190573 -0.653246 0.393836 0.0196649 0.751162 0.063052 -0.843204 0.939066 0.737568 0.119092 0.0220918 0.0420269 -0.244094 0.998487 0.598427 0.609029 -0.418947 -0.931853 0.267717 0.854054 0.0153238 -0.666204 0.518887 -0.542713 -0.506416 0.77395 -0.955413 -0.719629 0.569803 0.0636712 -0.108953 0.82363 0.00499174 0.969344 -0.975376 0.0896259 0.416743 0.275757 -0.191319 0.849148 0.0816385 0.83484 -0.0122154 0.458481 0.0666319 -0.890163 0.559581 0.0805829 0.976933 0.094904 -0.813337 0.684787 0.0926774 -0.127229 -0.154042 0.326382 -0.592991 -0.119814 0.524681 -0.37183 0.925859 -0.924608 0.09876 -0.821539 0.828839 0.082451 0.377555 0.394913 -0.384885 
-0.328831 -0.537864 0.923771 -0.924243 0.753826 0.0890838 -0.473774 0.422315 0.759346 -0.0922131 0.324998 -0.696235 -0.955299 0.873794 0.799729 -0.968328 -0.265141 0.997375 -0.55135 0.0425712 -0.0316267 0.417913 -0.810785 0.882763 -0.259591 -0.620944 -0.950663 -0.0707797 -0.748783 -0.070895 -0.296222 -0.552035 -0.865866 0.817369 0.937743 0.074969 0.984094 -0.214988 -0.21598 0.636658 -0.724029 -0.79278 -0.470493 0.734332 0.704019 -0.0070801 0.213209 -0.588393 0.123444 0.635692 -0.759612 0.916841 0.692289 0.287318 -0.595233 0.0608021 0.319535 0.419175 0.35157 0.110443 -0.992027 -0.860638 0.0800232 0.528199 0.333555 -0.267398 -0.289942 -0.783373 0.868892 -0.0169987 0.14376 -0.261212 -0.449917 0.943496 -0.40338 -0.638877 -0.893173 -0.86638 -0.594387 -0.287314 -0.322058 -0.0620978 -0.887567 0.114846 0.284766 -0.165021 0.277119 0.20512 0.381021 -0.181181 0.977451 -0.604051 0.0558586 -0.689483 0.376826 -0.635362 0.152589 -0.505799 0.744415 0.310972 -0.409447 -0.968808 0.656518 -0.296748 0.0343132 -0.322002 -0.0531761 0.445269 0.484268 -0.043459 -0.0413683 -0.3487 0.919481 -0.00971503 0.967393 -0.101835 0.970031 -0.825259 -0.407366 0.718622 -0.889219 0.74856 -0.10817 -0.143925 -0.354419 -0.734428 -0.544707 0.0646106 
-0.476825 -0.216297 0.0528343 0.0911796 0.325115 0.604945 -0.520147 0.317103 0.91101 -0.260176 0.618843 0.66355 -0.661653 0.474309 0.234242 -0.764816 -0.0571723 -0.219882 0.887417 -0.509573 0.549962 -0.987916 -0.168587 -0.145129 0.848943 0.416238 -0.511523 -0.938599 0.602727 -0.751921 -0.358797 -0.921556 -0.11253 0.851213 0.781492 -0.346966 -0.148872 0.317054 0.86255 -0.856098 0.205569 -0.540857 -0.938199 0.402463 0.573853 -0.270089 -0.287934 0.712672 0.335634 0.220691 0.83973 0.982002 -0.0298274 -0.436093 0.331608 -0.776292 0.446164 -0.485028 -0.0452327 -0.956796 -0.0122856 0.728718 0.909884 -0.310506 -0.128038 -0.322396 0.614296 0.0411745 -0.990573 -0.763282 0.325243 -0.438405 0.164753 0.81703 0.714384 -0.577642 -0.267357 -0.114608 -0.316809 -0.856393 -0.130845 0.529798 0.829468 -0.42255 -0.440598 -0.770766 0.596534 -0.926422 -0.822601 -0.770377 -0.438046 -0.766962 0.548865 -0.584391 0.743714 0.452336 -0.119309 -0.159539 -0.908914 -0.958804 -0.673135 -0.645489 0.343449 -0.119337 -0.661889 -0.422992 -0.584243 -0.0985956 -0.474447 0.140196 0.464368 0.204396 0.209292 -0.00578776 -0.651612 0.981357 0.592514 -0.316191 -0.162332 0.950434 -0.786829 -0.872169 -0.0597318 0.22416 0.227298 -0.644445 0.433306 0.680597 
-0.777951 -0.639478 0.594878 0.881775 -0.40064 0.318202 -0.663022 -0.962071 0.822771 -0.23108 -0.834751 -0.602844 0.0215342 0.700424 0.335419 0.760028 0.4508 -0.793596 0.90232 0.863452 0.829367 -0.632188 -0.374049 0.107685 -0.431959 -0.686497 -0.40181 0.615313 -0.247187 0.19011 0.306559 0.20675 -0.23103 -0.718165 0.4861 -0.012283 0.232178 -0.349732 -0.982391 0.66128 -0.49132 0.0599257 0.341983 -0.451821 -0.512226 0.752246 0.75905 -0.81008 -0.958125 0.512078 -0.38702 0.707025 -0.90333 -0.77057 0.142209 -0.623145 0.288782 0.982158 -0.597534 -0.691216 0.624227 0.167275 -0.288221 -0.502049 0.676324 -0.991521 0.818934 0.838378 -0.848241 -0.112997 -0.441812 0.568866 -0.495621 0.400097 -0.60731 0.301925 0.685623 0.197618 0.90612 0.967057 -0.135167 -0.522687 -0.460208 0.0484588 -0.696352 0.469222 0.865799 -0.102918 0.802182 -0.583856 -0.843568 0.257243 0.414421 -0.0488399 0.96156 -0.807523 0.488097 -0.9771 0.0912793 0.61771 0.74341 -0.131324 -0.485952 0.097163 -0.675137 -0.0609404 -0.503061 -0.715391 -0.223141 -0.745268 -0.366376 0.868561 -0.582207 0.240648 0.794898 -0.504214 -0.335654 -0.203548 0.926141 0.998785 -0.409749 0.520691 0.0808123 -0.161063 -0.900644 0.478047 0.79937 0.42414 
0.0435805 0.392278 0.352919 -0.0928873 0.00846842 0.535603 -0.901791 -0.0453925 0.504021 0.483804 -0.504813 0.572064 0.994573 -0.494169 -0.0638612 -0.318628 -0.642981 0.980204 0.55382 0.430375 0.407069 0.37886 -0.625942 0.921689 -0.705311 0.42839 0.714991 -0.714864 -0.648579 -0.0929736 -0.727366 0.787391 0.124349 0.250021 -0.228211 0.573961 -0.438139 -0.474588 -0.813893 -0.663564 -0.390401 -0.450846 0.387684 -0.123248 -0.320883 0.139802 0.695479 0.923158 0.527149 -0.720463 -0.892404 -0.206871 -0.598466 -0.872493 -0.0257458 0.0360329 0.809895 -0.334021 -0.772549 -0.202477 -0.894429 -0.53017 -0.37586 -0.792633 -0.120097 -0.720738 -0.135165 -0.861284 -0.14508 0.836197 0.319538 0.762175 0.929234 0.959429 -0.586963 -0.798555 0.0299322 -0.704442 -0.381865 0.304025 -0.312064 -0.106442 -0.341903 0.648803 0.400111 0.969501 0.832824 0.7545 0.775444 -0.453305 -0.590212 -0.920963 0.10272 0.566302 -0.952557 0.900525 0.281639 0.188295 -0.532995 -0.273005 0.771285 0.19549 -0.9718 -0.814573 -0.664344 0.48156 0.358012 0.350168 -0.777062 0.75806 -0.440583 0.883079 0.292006 0.149946 -0.170794 -0.132576 -0.796279 -0.445701 -0.84221 0.303358 0.115062 -0.0820665 0.344416 -0.780041 -0.320658 0.903954 0.0169394 -0.634382 
-0.149354 -0.911514 0.810079 0.34831 -0.210383 0.318097 0.410894 -0.977539 0.647233 0.446991 -0.216386 -0.163386 0.889795 -0.232982 -0.291041 0.478285 -0.636117 0.421988 -0.0670037 -0.282921 0.567127 -0.243708 -0.974463 -0.953523 -0.234376 -0.372986 -0.323025 0.014572 -0.0649346 -0.886246 -0.90636 -0.0745769 -0.00840196 0.664454 0.726197 -0.885331 -0.074592 0.300004 0.0916764 -0.247486 0.225933 0.398164 0.252387 -0.319659 -0.550204 0.395967 0.0543976 -0.0274732 0.953412 -0.531315 -0.613318 -0.192061 0.125127 -0.465037 0.94987 0.309792 0.609678 0.0411285 -0.573634 0.291381 -0.0715394 0.913873 0.0914754 -0.160123 -0.484943 -0.290951 -0.788491 -0.0104893 -0.769748 0.336869 0.386069 -0.214977 0.476721 -0.598002 0.307473 0.0220694 -0.740069 -0.202025 -0.844058 -0.633162 -0.372973 -0.215412 0.0242357 0.788131 -0.232193 -0.32888 0.508942 0.335896 0.190911 -0.54127 -0.806317 -0.0201511 -0.834934 0.989205 -0.624398 -0.0911611 0.169901 0.570978 0.297731 -0.809858 0.529229 -0.0810728 0.0528607 0.559355 0.575116 0.0787062 -0.730925 -0.335624 0.990049 -0.926954 0.27967 -0.818567 -0.728208 -0.846551 -0.407954 -0.87335 0.179874 0.479129 -0.95074 0.345272 0.494634 -0.468551 -0.864777 -0.243631 0.81311 0.84921 -0.363704 -0.366051 
0.47527 0.0854042 0.316972 0.327877 0.328344 0.970294 0.472857 0.645884 0.91564 -0.0614723 -0.682154 0.222293 0.571433 0.149002 -0.485869 -0.222563 -0.740241 -0.389919 -0.136113 0.563302 0.496543 0.354466 0.674114 0.527322 0.169659 -0.5619 -0.537996 -0.183629 0.806703 -0.767636 -0.333671 -0.720114 -0.144219 -0.0949688 -0.03759 -0.542355 0.486321 0.452302 0.792071 0.780436 -0.994675 0.556838 -0.354463 -0.00274512 -0.435384 0.655786 -0.919793 0.330899 0.791773 0.39569 0.121774 0.338517 0.152004 -0.141345 0.450073 -0.157924 -0.0535466 -0.525419 0.862227 0.826099 -0.339279 -0.51491 -0.430956 0.65136 -0.318744 -0.181243 -0.63487 -0.270147 0.138511 0.573159 -0.41971 0.378028 0.802241 -0.802039 -0.614134 0.346608 -0.0363864 0.0387861 0.728776 0.826388 0.174359 -0.583258 0.392106 -0.209494 -0.761342 0.143209 0.722683 -0.747686 0.917773 0.123001 0.775605 0.156747 -0.0196472 -0.170648 -0.614428 -0.357123 -0.300117 -0.345717 -0.724301 -0.750409 0.524868 -0.476849 0.129998 0.441766 0.404597 -0.689976 -0.846116 -0.238337 0.310286 0.0123317 0.616738 0.147546 -0.109818 -0.736911 0.895709 0.564523 0.520656 -0.00576596 -0.884962 0.935196 -0.181714 0.0521224 -0.87842 -0.920303 -0.89709 -0.5502 0.245348 0.873846 
0.404366 0.214964 0.438072 -0.258648 -0.0777653 0.42175 0.902749 0.0517792 0.459329 -0.085284 -0.147193 0.481866 0.861603 -0.379236 0.784992 0.133352 0.0949933 0.491874 0.0738764 0.481067 0.58344 0.0719191 0.636922 -0.609023 0.18393 0.672158 0.946539 -0.0370314 0.41035 -0.368469 -0.475542 0.402686 -0.588216 -0.310157 0.460494 0.339217 0.498495 -0.302646 0.911849 0.580167 -0.842726 0.977753 0.596744 0.236191 0.646064 0.251337 0.0338507 -0.806344 0.427895 0.794688 0.464605 -0.320006 0.211844 0.731982 0.273864 -0.923201 -0.757529 0.681793 -0.338135 -0.334986 0.753843 -0.904872 -0.00445365 0.337938 -0.801043 -0.618656 -0.515476 0.426502 -0.302817 -0.490364 0.343387 -0.243244 0.187328 -0.0287454 -0.602909 0.678046 -0.420796 0.776336 0.810483 -0.880475 -0.374274 0.327011 -0.441833 -0.462205 0.26545 -0.127314 0.72236 -0.605539 -0.103112 0.259283 0.0825056 -0.752402 0.0423987 0.54655 0.858434 -0.104444 -0.378629 -0.675869 0.358859 0.111243 -0.664874 0.598881 0.384413 -0.775945 -0.132933 -0.747619 -0.29996 0.468915 -0.132018 0.88316 -0.904364 -0.419853 -0.653697 -0.40767 0.755413 0.927399 0.209432 -0.65112 0.259871 0.574856 -0.752834 -0.720678 0.696978 -0.123191 -0.453764 0.847635 0.150271 0.27412 
0.975439 -0.320446 -0.873537 -0.335525 -0.629043 -0.806036 0.105042 -0.266797 -0.68267 -0.0323445 0.69708 0.949581 0.795344 -0.0676826 -0.896294 -0.75507 0.231966 0.34352 -0.206416 0.458225 -0.196925 0.870684 0.452704 0.364655 0.757802 -0.534953 0.497123 0.720445 -0.874262 0.363717 -0.255893 0.613715 -0.486927 -0.48604 -0.913076 -0.584233 0.257717 -0.264917 -0.0944919 0.941897 0.792961 -0.748856 0.451496 0.979247 0.49594 0.0176182 -0.703294 -0.75433 0.921686 -0.870787 -0.0285861 0.568369 -0.434082 -0.670423 -0.116878 -0.44756 0.833876 -0.30089 0.695538 -0.259441 0.11583 -0.485783 0.80181 0.936431 0.0402295 0.0764911 -0.799219 -0.381592 0.170271 0.894051 -0.993449 -0.701186 -0.585837 0.104408 -0.192935 0.883679 -0.635402 -0.0511498 -0.996494 0.868747 -0.69089 -0.613899 0.604488 -0.723847 -0.387695 0.283326 0.586173 -0.741374 -0.099272 -0.0655061 -0.344714 0.461956 0.866355 0.80457 0.37962 0.847284 0.656489 -0.823238 0.461304 -0.310822 -0.890732 0.823465 -0.779689 -0.438435 -0.504474 0.203685 0.466267 0.35497 0.713523 0.123972 -0.0316545 0.360643 -0.23176 -0.415116 -0.865126 -0.920896 0.361865 0.459909 0.295445 0.819589 0.986381 0.659765 0.773543 0.924608 -0.393997 0.347624 -0.59898 0.46122 
-0.752018 -0.938185 0.0604257 -0.830666 -0.834485 -0.519064 -0.934703 0.711531 0.342737 -0.959041 0.905369 -0.0967393 0.207981 -0.301931 0.184392 0.532947 0.656851 -0.373881 0.892094 0.624897 0.449552 -0.0963816 -0.569411 0.182119 0.972632 0.445527 0.0815034 0.340857 0.753255 -0.725054 -0.301005 -0.511233 -0.675276 0.81135 0.191125 -0.642558 0.193941 -0.161334 0.139501 0.199295 0.177434 -0.359085 0.796131 0.528093 0.600615 -0.127672 -0.235921 0.121585 -0.0081802 0.415134 -0.838163 0.922095 -0.201542 -0.577135 0.88992 0.266898 0.789684 -0.442865 0.584073 0.398709 0.958613 -0.358425 -0.962064 -0.949069 0.499895 0.518534 -0.116152 -0.425028 0.435372 0.490905 0.181181 -0.755009 0.899344 0.816042 -0.34794 0.0710792 -0.583887 0.939008 -0.0903915 -0.402138 -0.683751 -0.0996659 -0.263489 0.0387659 0.48882 0.399077 0.923715 -0.0617458 0.76089 0.0851186 0.478707 0.10264 0.619308 0.17292 0.524814 -0.114446 -0.969635 0.356087 -0.802079 -0.538447 -0.988479 0.185794 -0.139164 -0.952689 -0.0504101 0.633329 -0.131089 -0.0817895 -0.718902 -0.103286 -0.646565 -0.268377 0.806249 0.272542 0.967036 -0.901141 -0.0458491 0.372873 0.556186 -0.35912 0.0951288 -0.223059 -0.782426 0.508846 -0.691047 -0.814488 0.35451 0.156631 
-0.873785 -0.345783 0.493383 -0.859987 -0.768106 -0.336342 0.715191 -0.98616 -0.385092 -0.490044 0.594338 0.738819 -0.110893 0.0801357 0.366453 -0.707378 0.990035 0.00566972 0.0472783 0.245994 -0.793719 0.663321 -0.736206 -0.784284 -0.89575 -0.215122 0.554677 -0.418658 -0.439897 0.383721 0.185905 0.434228 0.845661 -0.227962 -0.784251 -0.699971 0.446511 0.55047 0.449876 -0.704896 0.57813 -0.042351 0.483103 -0.987459 0.632439 -0.616969 -0.688252 -0.0467625 -0.438396 0.697392 -0.141541 -0.29093 0.451247 0.641455 -0.284369 -0.17822 0.596869 0.693129 0.383431 -0.352859 -0.344431 -0.724479 0.126148 -0.241675 -0.556691 -0.952337 0.147318 0.402215 0.579064 0.288956 -0.605909 -0.774561 0.284193 0.518607 0.702235 0.630515 0.466005 0.245104 0.766946 0.293143 -0.279364 0.603718 0.498267 0.300314 -0.383409 -0.144537 -0.969819 -0.453624 0.229114 -0.463857 -0.381808 -0.999916 0.328296 -0.489423 0.565745 -0.0813469 0.294186 -0.366254 0.26927 0.475286 -0.697485 -0.339028 -0.744429 -0.752508 0.729785 0.922154 -0.683182 0.759511 -0.814949 -0.484296 -0.52439 0.87686 0.986887 0.65179 0.843358 -0.444106 -0.387372 0.176865 -0.661194 0.436602 -0.409692 0.933759 0.852415 0.603447 0.229852 0.120184 -0.56504 0.169626 
0.995225 0.458213 0.805345 -0.139489 -0.238786 0.625986 -0.899112 0.558693 0.425331 -0.619631 -0.792286 -0.0169716 0.426837 -0.510095 0.593302 0.32421 -0.520012 -0.338338 -0.439508 0.721846 0.357598 0.203075 0.108695 -0.187981 -0.0186006 0.878131 -0.08837 -0.533843 0.262435 -0.0753077 -0.113657 0.0308656 -0.401496 -0.928242 -0.191503 -0.479393 -0.586703 0.491273 -0.54002 -0.213724 -0.296567 0.219519 0.522072 -0.991464 -0.219799 -0.618546 -0.592305 0.946063 0.29351 0.792581 0.29676 -0.752352 0.341837 -0.582261 -0.233271 0.589267 0.6028 0.439372 0.165732 -0.292717 -0.601837 -0.694821 0.537186 -0.456067 -0.18629 0.282965 -0.973242 -0.755054 0.0608432 -0.79112 -0.0447217 -0.290371 -0.137123 -0.356945 0.201803 -0.716455 -0.757902 0.711312 0.294433 0.938775 -0.674296 -0.3197 0.245524 -0.389443 -0.547854 -0.216957 0.757904 -0.753976 -0.154805 0.144372 -0.0793985 0.221639 -0.15614 0.535561 -0.701865 -0.791882 -0.0248962 0.981297 -0.0402676 -0.300179 -0.959536 -0.631494 0.966808 0.903335 -0.764509 -0.680478 -0.51787 -0.571852 0.0465029 0.460615 -0.196604 0.381742 0.180612 0.53339 0.760626 0.508472 0.885847 0.112585 0.428911 0.184601 0.973951 -0.974827 -0.527088 0.924384 0.626766 0.00886136 0.278135 -0.38166 
0.203078 0.622972 0.0335539 -0.0313344 -0.437757 0.797254 0.289743 -0.856608 -0.776926 -0.500529 -0.52519 -0.124648 0.374797 -0.113842 0.827714 -0.152605 -0.126255 0.00752897 0.555993 -0.656806 0.542674 0.177966 0.376628 -0.874489 0.431699 0.923253 0.254065 -0.862638 0.0212266 0.441828 0.847973 -0.563936 0.323364 0.743248 -0.514319 0.189203 -0.696544 0.628128 -0.0154857 0.64883 -0.323448 0.779017 -0.494754 -0.260407 0.253166 0.428133 -0.0864494 0.330483 0.898092 0.571659 0.95437 0.355346 0.501571 0.0748788 0.34468 -0.629601 0.592931 0.0117531 -0.280602 0.552128 0.982903 0.0596617 0.232023 0.604537 -0.873965 0.476733 -0.780155 -0.917745 0.933089 0.737472 0.617631 0.272656 -0.514154 0.242206 0.612692 -0.312411 -0.324094 -0.665398 -0.343454 0.905654 -0.770101 -0.95113 0.431166 0.507729 0.872699 0.392569 -0.413378 -0.62734 0.230876 -0.634277 0.654162 0.258006 0.75662 0.40247 0.59244 0.227157 0.980521 0.596877 0.534305 0.0625056 0.893765 -0.476123 -0.161102 -0.124729 0.0863716 0.788588 -0.483765 0.101585 0.902894 0.48612 0.993285 -0.891422 0.526562 0.211723 -0.416092 0.869336 -0.0756466 -0.62411 0.784958 0.603159 -0.541941 0.474924 0.284414 0.162724 -0.661067 -0.990446 0.194415 0.177685 
-0.678962 0.0453657 0.147572 -0.668891 -0.730395 -0.738905 0.872092 -0.430317 0.649593 0.795271 -0.804081 -0.0573408 0.432248 0.157066 0.984857 -0.514199 -0.664881 -0.855107 0.168791 -0.460536 0.00283905 -0.617738 -0.905016 0.59063 0.86187 -0.676292 0.25527 -0.822163 0.051988 0.0148386 -0.89804 0.968411 -0.799535 0.680253 0.385436 0.745538 -0.540132 0.647284 -0.272737 0.595184 -0.495802 0.433594 0.959928 0.283369 0.256205 0.766132 -0.201476 0.755119 0.777064 -0.821991 -0.0210459 0.3118 0.0789998 0.205313 0.565925 -0.134677 0.615338 -0.36535 -0.645435 -0.108358 0.82031 -0.0880677 0.491264 -0.898767 -0.798423 0.609341 -0.986995 -0.136958 0.804456 0.79931 0.994229 0.784754 0.328892 0.11045 0.205497 -0.375375 -0.44329 -0.0980236 -0.765193 -0.833319 0.243773 -0.175983 0.840296 -0.788586 0.579509 0.188564 -0.485507 -0.15981 -0.206352 0.930426 -0.415623 0.146 0.232519 0.0904904 -0.077843 0.366072 0.95105 0.461161 -0.181417 -0.481548 0.830086 0.629872 -0.86834 -0.689263 -0.4083 -0.758975 -0.91049 0.35657 -0.27934 0.507164 -0.266379 0.657468 -0.491094 0.651407 -0.396636 0.013811 -0.877416 0.268934 0.289594 -0.204727 -0.425929 0.610018 0.669366 -0.290054 -0.692352 -0.965407 0.949694 -0.0872483 
-0.367634 -0.361973 -0.861602 -0.656427 0.115905 0.600306 0.743003 0.0478929 0.48863 0.316574 0.6561 -0.773578 0.0897223 0.480245 -0.916229 -0.745392 0.772127 0.0149 0.938002 -0.504439 -0.494946 -0.358469 -0.270882 -0.318382 -0.754377 -0.523141 -0.928372 0.438869 0.483548 -0.0388742 0.978303 -0.287396 0.383664 0.391991 -0.73294 -0.146244 -0.120943 0.0149512 -0.612284 0.442387 -0.535879 0.976864 0.99419 -0.195507 0.30646 0.546774 0.609817 0.811403 -0.183612 0.949684 0.584551 0.255933 -0.772449 0.770149 0.28906 -0.390606 -0.52545 0.514134 -0.186607 0.182795 -0.450491 0.261784 0.605293 0.251191 0.489666 0.201936 -0.876408 -0.188264 0.626397 -0.652246 -0.704745 0.362673 -0.614991 0.0548009 -0.536135 0.451431 0.312468 -0.041955 -0.816035 -0.935249 0.971982 0.615387 0.745927 -0.87259 -0.409207 0.121329 -0.0870735 -0.00312252 -0.748098 0.447764 -0.743398 0.613048 0.751365 -0.450545 0.852802 -0.0947223 0.815142 0.178082 0.0635753 -0.103831 0.458285 -0.499008 0.742285 -0.377053 -0.654146 0.616355 0.41753 -0.679332 0.334489 0.815837 0.0872404 -0.49448 0.0203093 0.657562 0.271438 -0.57153 -0.899592 0.864691 0.143827 0.378451 -0.0411003 0.432444 -0.124925 0.845872 -0.149058 -0.156143 0.810535 0.0611268 
0.676196 0.45924 -0.784432 0.605634 -0.684454 -0.878106 0.220136 0.910532 0.74511 0.461578 -0.141578 -0.125472 -0.699091 0.565234 0.402209 -0.630445 -0.305809 -0.773095 -0.0282577 0.0482185 -0.931023 -0.762048 -0.281842 -0.533475 0.0323995 0.715261 -0.0870858 -0.860736 0.375451 0.645016 0.646408 0.0787748 0.404232 0.429186 0.227117 -0.362829 0.864962 0.358352 0.594042 -0.573272 0.325092 -0.571853 -0.484404 -0.676865 0.491859 -0.350978 0.107457 -0.891339 0.84226 -0.726649 0.898492 0.588481 0.415021 0.140732 -0.708196 0.223323 0.108521 -0.58141 -0.489266 -0.717734 -0.765361 0.803885 0.107129 0.833048 -0.807742 0.955095 -0.0734502 0.905533 0.519927 -0.645135 -0.516334 0.443617 0.098019 0.253514 -0.0207885 0.644342 -0.230002 0.804855 -0.512195 -0.270427 0.7321 0.324034 -0.647201 -0.610788 0.390914 0.882448 0.11016 0.647775 0.952544 0.706694 0.856851 -0.516087 0.257896 0.265592 0.620487 -0.230588 0.301127 0.366854 -0.156845 -0.619502 0.729376 -0.0468938 0.63169 0.39887 -0.810321 -0.842263 0.570868 0.651912 -0.0241013 -0.0894311 0.0858919 0.911933 0.0516773 -0.121507 0.0590476 -0.830071 -0.642584 -0.795214 0.552459 0.777013 -0.910606 -0.327922 -0.616166 0.646997 0.670085 0.210943 -0.669004 0.767065 
-0.841014 -0.493752 -0.246998 -0.75895 0.099357 -0.985277 0.28642 -0.0116662 0.78405 0.638551 -0.734258 -0.641919 -0.409368 0.269849 -0.0408671 -0.635343 0.656082 0.501459 0.570382 -0.22676 0.281462 -0.92935 -0.177507 0.210968 0.10386 -0.0201091 -0.252785 0.983818 0.782109 0.263463 0.276259 -0.88283 -0.18967 -0.40589 -0.0615659 0.863147 -0.193477 -0.701657 0.527535 -0.0333476 -0.677103 -0.87618 0.430521 -0.199538 0.536636 0.00127401 -0.63865 -0.599176 -0.324784 -0.0216968 0.51554 0.664943 0.0495475 -0.995328 0.414126 -0.272042 -0.660015 -0.353817 -0.810313 0.994391 -0.549805 0.514847 -0.245184 0.121446 -0.890402 -0.0676578 -0.573087 0.86932 0.781916 0.88692 0.577346 0.786439 0.802928 0.544402 -0.718344 -0.533415 0.610608 -0.092464 -0.196775 -0.805252 -0.102198 -0.215732 -0.157927 0.212235 -0.448343 -0.223212 0.977261 0.879219 0.425177 0.914777 0.588552 0.596235 0.0740207 -0.128842 0.225316 -0.269434 0.800334 -0.203777 0.773239 -0.407078 -0.532911 0.89842 0.670719 0.655293 0.806007 -0.849463 -0.606601 -0.592583 0.781307 -0.150414 0.186661 -0.0787467 0.39942 -0.587892 -0.724201 0.696279 0.448785 -0.505882 0.816939 0.966512 0.975973 0.920223 0.206436 0.733509 0.162201 0.757845 -0.164257 0.480567 
0.252057 -0.244429 -0.818503 -0.513323 0.578108 0.549803 0.410433 0.409726 -0.454185 -0.165262 0.151912 0.994693 0.111459 -0.530751 0.621212 0.612434 0.955284 0.405717 -0.377633 -0.317364 -0.414575 -0.795707 0.44911 -0.19766 0.336254 -0.935311 0.979029 0.188069 -0.94895 0.849577 -0.630384 -0.17221 0.943921 -0.304354 -0.13115 0.853127 0.326559 -0.681712 0.171602 -0.478109 0.223979 -0.26054 0.87235 -0.0651479 0.13068 -0.860103 -0.333209 -0.185553 -0.680258 -0.0933666 0.481869 -0.422392 -0.675216 0.281176 -0.491846 0.461104 -0.091177 0.271638 0.547187 0.520414 0.243237 0.226067 -0.516438 -0.440183 -0.271315 0.991851 0.500917 0.692671 -0.746298 0.153904 0.528443 -0.0818848 0.320582 0.282892 -0.372078 -0.00792333 -0.194927 -0.569023 0.797565 -0.42903 -0.988181 0.698832 -0.716172 0.615002 -0.484419 -0.447296 -0.553267 -0.712827 -0.880511 -0.416741 -0.810407 -0.740651 -0.819713 0.115494 0.000632982 0.713636 0.871148 0.237826 0.654835 -0.898736 0.232705 -0.867341 0.483994 0.0327488 0.674562 0.81672 -0.773073 0.40147 -0.520305 0.0275585 0.500145 -0.0878934 0.413286 0.406755 -0.0916536 -0.269812 0.278099 0.00885441 -0.467918 0.766628 -1.48466e-05 0.621387 0.63788 -0.641651 -0.626847 -0.604491 -0.705646 0.389136 
0.571299 -0.742555 0.0789494 0.140537 -0.795313 0.00394552 -0.477506 0.538425 0.911498 -0.429601 0.54829 -0.975238 0.637808 0.503611 -0.376301 -0.477711 -0.241195 -0.758073 0.738849 0.0888709 -0.325182 -0.610421 0.466114 0.0795425 -0.298163 0.123274 0.884875 0.367699 0.0865765 -0.515048 0.33195 0.655989 -0.505921 0.954693 -0.669192 0.431216 -0.282864 0.13129 0.120763 -0.561333 0.240955 -0.191007 -0.775952 -0.881505 -0.891119 0.457256 0.193977 0.74363 0.852422 -0.559417 -0.787562 0.258381 0.354941 0.100457 0.987179 0.63676 0.906745 -0.423931 -0.779661 -0.173985 -0.984895 -0.920037 0.958489 -0.665411 -0.554148 -0.808147 0.436335 -0.708486 -0.682797 -0.45531 -0.296103 0.631198 0.380047 -0.186205 -0.224583 -0.966732 -0.275783 0.441137 -0.44151 0.562628 -0.254467 0.826503 -0.640787 0.812747 0.877678 -0.789434 0.804217 -0.685749 0.519759 0.986058 -0.288738 -0.629809 -0.0779812 -0.544834 -0.910134 0.658637 0.517769 0.449014 -0.0466236 0.593461 0.876281 0.531733 -0.499737 0.703093 0.454552 0.905484 -0.588127 0.552175 0.0673409 0.0208815 -0.658866 0.0889229 0.42895 0.449589 0.497651 -0.488366 -0.201695 -0.913798 0.798043 -0.631243 -0.592644 -0.774712 0.0290004 0.108843 -0.398564 -0.332628 0.991381 -0.546772 
-0.387884 -0.0866347 0.242197 0.592179 0.102513 -0.0629561 0.116935 -0.250083 0.0814409 -0.353931 0.643354 0.787392 0.0822016 0.991892 0.896494 -0.259816 0.767858 0.769104 0.964065 0.726662 0.536541 -0.866396 0.243209 0.514662 -0.629281 0.311858 -0.892647 0.882979 -0.745794 0.963839 0.410399 0.951223 0.353725 0.0349419 -0.0524466 0.0273907 -0.659838 0.899941 -0.214548 0.735335 0.052571 -0.403092 -0.739581 -0.279911 -0.49128 0.356177 -0.467093 -0.847102 -0.119044 0.128547 0.227101 -0.150607 0.608871 0.727579 -0.863589 0.256636 0.707355 0.178484 0.768094 0.716326 0.179663 0.867032 0.353357 0.266638 -0.440686 -0.703472 0.740664 0.937163 -0.44724 -0.0246969 0.688169 -0.814409 -0.685641 0.652277 0.707799 -0.792854 -0.27301 -0.246655 -0.733077 0.0574147 0.339754 0.25221 0.694469 0.988355 0.371603 0.987252 -0.40337 -0.176984 -0.114603 -0.92359 -0.234713 0.295654 0.192735 -0.21489 0.824427 -0.166308 -0.111824 -0.527857 0.977684 0.782067 -0.500623 -0.706541 0.177463 -0.779091 -0.0197952 0.216185 0.373225 0.833239 0.262736 -0.929159 -0.39758 0.20174 -0.475197 0.0453601 -0.902211 -0.821476 -0.144013 0.653024 0.191262 -0.697106 0.575923 -0.432968 0.659584 0.857127 -0.507474 0.508796 0.871336 0.0436104 
-0.950276 -0.440536 -0.346283 -0.979807 0.842607 0.0858581 0.544855 0.319745 0.557887 -0.764544 0.962009 0.734042 -0.719229 -0.376036 0.648323 -0.408653 0.609716 -0.284791 -0.671012 -0.205777 0.261888 0.822368 0.739859 0.209251 0.358124 -0.00690253 0.492298 0.00238187 -0.342677 0.837491 0.0488229 -0.820203 -0.749991 -0.374516 -0.657373 -0.0864091 -0.894063 -0.626363 0.0247947 -0.833507 -0.97522 -0.985165 0.627393 0.446126 0.816558 -0.374226 -0.927588 -0.879954 0.633715 -0.0609512 0.507714 -0.866875 -0.20982 -0.505344 0.654276 0.315638 -0.771631 0.168135 -0.138056 -0.584288 0.0188054 -0.168979 0.903313 -0.81817 0.430546 -0.432526 -0.278988 -0.266723 -0.0902046 0.59618 -0.98168 0.937574 -0.860225 -0.130804 -0.586121 0.716569 0.852187 0.726488 -0.758915 0.823756 -0.479346 0.200228 -0.110955 -0.908857 0.524457 -0.895251 -1.00133 -0.0354826 -0.309341 0.559328 -0.553825 0.0697303 0.179333 0.534885 0.447189 0.481887 0.861554 0.331 0.227919 0.8444 0.977915 -0.45951 -0.751753 -0.272752 -0.658723 0.069029 0.951225 -0.352499 -0.944244 0.528383 0.315458 0.415297 0.245056 -0.45496 0.642785 -0.702243 0.866038 -0.792784 0.637244 -0.59704 0.0844894 0.504507 -0.967062 -0.607317 0.501549 -0.44244 -0.160337 -0.319111 
0.935439 -0.165861 0.667029 0.96335 -0.584956 0.256475 0.231299 -0.814136 -0.366662 0.26753 0.426908 -0.300601 -0.0985597 0.0532429 -0.096955 0.440331 0.887662 -0.665013 0.869682 0.880177 0.607874 -0.72545 0.832895 -0.676582 0.148282 -0.877146 -0.444122 -0.381338 -0.321292 0.75364 -0.804752 0.789974 0.504762 -0.18344 -0.869201 0.0634026 -0.709061 0.561116 0.424696 -0.0625381 0.321206 0.419821 -0.0173393 0.634896 0.424523 0.526667 0.554167 0.363837 -0.669464 -0.225794 0.0539655 -0.411991 0.536798 0.179571 -0.694218 -0.813507 0.961034 -0.553901 -0.778495 -0.756502 0.367954 0.150092 0.858495 -0.718138 -0.756409 -0.437144 0.182887 -0.823108 -0.19209 0.625008 0.70322 -0.650241 -0.103591 0.831748 -0.774536 -0.591668 -0.080697 -0.307172 -0.963693 -0.432144 0.119726 0.377814 0.734469 -0.816925 0.65832 -0.78954 0.0827768 -0.193219 0.0704973 0.363912 0.346676 -0.299178 0.399132 0.53122 0.288166 0.763101 -0.458783 0.781488 -0.0324852 -0.479551 -0.0482893 -0.741619 -0.754025 -0.79461 0.292087 -0.0722302 0.191154 -0.907054 -0.788849 -0.112561 -0.509159 0.174304 -0.149062 0.260111 0.252682 -0.936069 -0.13029 0.822671 0.412709 -0.284491 0.738948 0.897969 0.75952 0.379148 0.480743 0.508953 -0.562554 -0.600532 
-0.67082 0.410387 0.594217 0.112879 0.943898 -0.278758 -0.574533 0.378057 0.643908 0.391017 0.661955 -0.510961 -0.261404 -0.815311 0.658627 0.324458 -0.977977 0.305745 0.431382 -0.983982 0.787646 0.104904 0.156143 0.82266 -0.676485 0.136033 0.71366 0.326904 -0.150524 -0.482098 -0.444708 -0.0318448 -0.650971 0.190748 -0.532902 0.77241 0.0853546 -0.812079 0.211368 -0.615808 0.110211 -0.722424 -0.754246 -0.676934 -0.397877 0.776581 0.953255 -0.0122269 -0.335203 0.130229 0.179416 0.69862 -0.366199 0.389972 0.610149 0.619377 0.74278 0.285901 0.0293001 0.408668 0.0805711 -0.323063 0.684992 0.92357 -0.769723 0.94264 0.481536 -0.910692 -0.128255 -0.533318 -0.583393 0.388804 0.869212 0.408164 -0.856414 -0.201428 -0.179772 0.325103 0.319379 0.778268 0.580053 -0.572773 0.225463 -0.711124 0.075211 -0.311522 -0.0470488 -0.505381 0.351388 -0.315054 0.772041 0.242376 0.702009 0.194413 -0.5379 0.351018 0.886164 -0.967299 -0.303567 -0.970884 -0.630797 -0.822037 0.535093 0.281455 0.553691 -0.314616 0.83827 -0.851484 -0.233105 0.530141 -0.834451 -0.344691 -0.336017 -0.791433 -0.8114 -0.67702 -0.792876 -0.603322 -0.262154 -0.561257 0.190998 -0.389739 -0.159281 -0.502285 0.0956779 -0.51769 -0.0679053 -0.61665 
0.406994 -0.438887 0.543649 0.61999 0.264538 0.704191 0.59324 0.87909 0.723716 0.962804 0.696479 0.909886 -0.773748 -0.934316 -0.491796 -0.502689 0.726182 -0.146047 0.550403 0.897504 0.173521 0.503582 -0.368167 -0.513817 0.386724 0.887074 0.492439 0.945776 -0.221986 -0.135339 0.104867 -0.846693 -0.0411286 0.849867 -0.694671 -0.547326 -0.00933748 0.43816 -0.98688 0.744257 0.527266 -0.50307 0.580285 -0.462408 -0.960913 -0.177604 -0.199707 -0.0669196 0.696955 0.885293 0.77011 -0.387223 -0.536286 -0.344871 -0.453352 -0.13266 -0.86998 0.0529143 0.197993 -0.501795 0.993476 0.418812 -0.284924 -0.430362 -0.600039 0.38758 0.942811 0.607398 -0.0781754 -0.0135154 0.885057 -0.878434 0.0349442 -0.762373 0.767927 -0.536418 -0.330576 -0.658195 -0.361693 0.429716 0.634516 -0.55699 -0.747094 0.53114 0.28039 -0.547319 0.940198 -0.206 0.104093 -0.0259926 -0.119137 -0.791371 -0.606081 -0.503223 0.956096 0.325708 0.094578 0.592681 -0.31363 0.897605 0.911784 0.499199 -0.834414 -0.850479 -0.0197034 -0.29144 -0.412727 -0.748755 -0.252996 0.831461 -0.339959 0.397291 -0.209043 0.919611 0.138266 0.341961 0.0685292 0.393491 0.132223 0.969408 -0.503219 -0.719004 -0.815216 -0.835161 0.948635 -0.461942 -0.154364 0.982495 
-0.61722 -0.488022 0.215149 0.515967 0.545605 -0.597646 0.820073 -0.302333 0.840014 0.585472 -0.701376 -0.984972 -0.564975 0.0523598 -0.924614 0.4061 0.99709 -0.400504 -0.693069 -0.867407 0.234388 0.996043 0.282639 -0.886786 0.123987 -0.427544 -0.644711 0.788116 -0.747935 -0.594459 -0.896848 0.310326 -0.31153 -0.833533 0.69648 0.214623 0.237541 0.0256508 0.791827 -0.437259 0.212625 0.0406146 0.979785 0.82032 0.641841 -0.215284 -0.21684 -0.282566 -0.43095 -0.845277 0.433876 -0.833803 0.412841 0.420584 -0.840008 -0.146425 0.630745 0.603201 0.647799 0.290487 -0.650242 -0.435689 0.405855 -0.652491 0.612721 0.808886 0.0218767 -0.0653278 0.253282 0.921937 -0.144892 -0.512761 0.437662 -0.806005 -0.247338 0.956629 0.637029 0.243089 0.975736 0.361649 -0.165621 -0.936379 0.916095 -0.97841 0.629348 -0.620297 -0.567161 -0.677542 0.43173 -0.19432 0.00468937 0.469262 0.774099 -0.0607098 0.27737 0.893281 -0.853833 0.660493 0.889075 0.82416 -0.163333 -0.832218 0.582782 0.938501 -0.108568 0.707215 -0.548557 -0.953292 -0.383603 -0.305471 0.0595012 -0.301622 -0.726833 -0.41634 -0.971625 -0.0480063 -0.275667 -0.488853 0.334014 -0.865101 0.0471852 0.733401 0.023692 -0.27147 0.691936 0.258186 -0.574001 0.075632 
-0.36234 -0.215952 -0.29017 -0.711406 -0.482759 0.666523 0.10482 0.0475187 0.319015 0.124967 0.336797 0.52548 -0.208335 0.844701 -0.363488 0.922132 0.577466 -0.227991 0.313692 0.161038 0.178017 0.608679 -0.189176 -0.591016 -0.711026 0.711884 -0.50228 0.153546 -0.943538 0.870524 -0.319325 0.675948 -0.295029 -0.0240266 -0.285566 -0.327033 0.0170208 0.452953 -0.771024 0.0786145 0.679418 0.474322 0.917395 -0.342649 -0.781864 -0.315942 -0.174508 0.850366 -0.0451557 0.318365 -0.251084 -0.142031 -0.0540329 0.658379 0.158501 -0.358278 0.43713 -0.725165 0.346154 0.951833 -0.895803 -0.248323 0.129307 0.673595 0.465982 0.617448 0.51874 -0.834994 0.83254 0.837177 0.409079 -0.525948 0.620264 -0.796466 0.187951 0.913806 0.368808 0.547649 0.98476 0.710304 0.0734891 -0.417695 -0.163148 -0.572302 -0.0848071 -0.225414 -0.925134 -0.437384 -0.397429 0.593796 0.850174 0.460089 0.830863 0.723471 -0.70847 0.291733 -0.313334 -0.738179 0.0821952 0.614474 0.37723 0.755756 -0.674307 -0.453463 0.924518 -0.180602 0.743176 0.0781081 0.906689 0.0736287 -0.413959 0.729347 0.0503672 0.421395 0.641478 0.796025 -0.176838 -0.338663 0.246604 0.120248 0.864147 -0.366186 -0.29441 0.87132 0.791491 -0.80451 -0.883429 -0.629068 
0.72036 -0.693494 0.294589 0.23692 -0.891872 -0.838073 -0.642365 0.404621 -0.905944 -0.579871 -0.988916 0.31453 0.611648 0.0948994 -0.37293 0.283583 0.703358 -0.798499 -0.759293 -0.85305 -0.23304 0.994022 -0.13479 -0.566639 -0.133321 0.440314 -0.907795 0.389749 -0.733635 -0.133815 0.674097 0.486017 0.51363 0.173063 -0.637145 -0.797945 0.223979 -0.318606 0.683925 -0.434929 0.467674 -0.0980721 -0.124349 0.177403 0.367486 -0.485971 -0.127141 -0.110131 0.160253 -0.610774 -0.392276 -0.257231 -0.641877 0.725675 -0.946051 0.484769 0.981488 -0.369324 0.93307 0.60352 0.427742 -0.586053 -0.18685 0.354314 -0.308117 -0.638413 0.00774541 -0.883229 -0.918788 -0.468408 0.418315 0.834142 -0.0981164 -0.660662 -0.220223 0.461375 0.0770094 -0.755628 -1.00161 0.992391 0.0741232 0.476288 0.473916 -0.178853 -0.901282 0.347492 0.0962595 -0.868717 0.0321377 -0.270785 0.542851 0.983771 0.101639 0.602196 -0.496956 -0.883776 0.707919 -0.4455 -0.783572 0.717106 -0.71554 -0.413333 -0.301442 -0.311474 0.163171 -0.0694899 0.22606 0.262708 -0.87775 0.0787422 -0.388273 -0.466326 0.67136 0.721985 0.87082 0.691423 0.111938 0.894688 -0.172866 -0.571574 0.519529 0.576171 -0.395851 -0.114618 -0.170179 0.681173 0.607643 -0.230649 
0.972447 0.880332 -0.397852 0.19791 -0.330941 0.196144 -0.997323 -0.923274 -0.575413 0.479182 -0.66305 0.252438 -0.512106 0.915389 0.649503 0.424854 0.469984 0.291939 -0.983657 -0.952545 -0.337398 0.723721 0.782868 0.466384 0.346534 -0.742561 -0.338009 0.394617 -0.94762 0.91974 -0.116686 -0.860456 -0.681144 -0.294313 0.139027 0.639249 0.963817 0.549451 0.962625 0.600765 0.325759 0.442655 0.488756 0.0225126 -0.616168 -0.434379 -0.819962 0.64784 0.742089 -0.971288 -0.163839 -0.550813 -0.61818 -0.759223 -0.129194 0.604333 0.337837 -0.02551 -0.918506 -0.983951 0.351395 0.444947 0.541968 -0.47827 -0.562048 -0.403152 -0.933991 0.357879 0.723906 0.280303 -0.00848273 -0.613817 0.435974 0.387231 -0.960033 0.202594 -0.429473 0.611001 0.522873 0.185863 0.363799 -0.346327 0.0332072 -0.780064 -0.483028 0.0518706 0.721134 -0.939241 -0.121303 -0.668596 -0.449256 -0.325605 -0.313534 -0.369637 0.00686242 -0.909933 0.324879 -0.0957794 -0.275825 0.293391 0.736044 -0.17248 0.572886 0.689146 -0.125435 0.376926 -0.33179 0.394434 0.454623 -0.40161 -0.0374228 -0.243682 -0.947495 0.432649 -0.21688 0.0484735 0.155415 0.42923 0.215495 0.369549 -0.833669 0.588761 0.664156 0.757494 -0.374823 -0.480685 -0.426324 0.376803 
-0.83907 0.277502 -0.908914 -0.636959 0.599908 -0.687518 0.915482 -0.623608 -0.421068 0.581856 0.991351 -0.34146 -0.647108 0.582927 0.378682 0.905907 0.196505 -0.994183 0.802063 -0.273071 -0.647821 0.796474 -0.2591 -0.825186 -0.0854067 -0.742464 0.74957 1.00637 -0.801043 -0.899039 0.514038 0.632144 0.408518 -0.940411 0.847815 -0.170269 0.195205 0.350329 -0.418765 0.0937619 -0.820914 -0.447671 -0.629369 -0.840732 -0.0477767 -0.197674 0.167365 0.740552 -0.695226 0.611641 -0.365862 -0.102388 -0.58906 -0.889552 0.946829 -0.533579 -0.6873 0.0722522 0.292721 -0.504475 -0.159718 0.905711 -0.140006 -0.176921 -0.25793 0.430717 0.558117 -0.373402 -0.516327 -0.109543 0.630362 -0.87612 0.641281 0.926826 0.00796309 -0.332837 0.901341 0.917549 0.171898 0.973788 -0.00249994 -0.16998 0.334614 -0.839281 0.87817 -0.515493 0.407811 0.960101 0.999734 -0.507708 -0.310731 0.698865 -0.589037 0.416928 0.474172 -0.940072 -0.486852 0.49699 -0.351208 -0.376704 0.761981 0.68374 -0.117035 0.342975 0.801639 -0.827057 -0.116989 0.164752 0.0511588 0.316531 -0.86377 -0.155031 0.31006 0.52401 -0.338176 0.379078 -0.179755 0.701393 0.465952 -0.330392 0.142321 -0.237231 0.324705 0.435368 -0.0476399 -0.982537 -0.279198 -0.0596286 
-0.193075 -0.491726 0.772079 0.340424 -0.844713 0.445052 0.619937 0.756049 0.683532 -0.758795 -0.324723 -0.277396 0.0470166 0.0468194 -0.0011896 -0.663027 -0.905609 -0.577655 -0.0890761 -0.181181 -0.592258 -0.0827934 0.247231 -0.871677 -0.832086 0.968429 0.0321899 -0.632035 -0.484708 0.650927 -0.736474 0.584576 0.165161 -0.755181 -0.796586 0.165065 -0.640278 0.297513 0.532834 -0.284333 0.0995578 0.976167 0.235343 0.0536627 0.533366 -0.625292 -0.911816 -0.49397 -0.720727 -0.249152 0.796036 -0.243897 0.252688 0.943086 -0.979331 0.770323 0.923778 0.802061 0.762085 0.435398 0.795915 0.155652 -0.70882 -0.414738 -0.513786 0.909934 0.780649 -0.12962 0.885254 -0.509783 -0.409409 -0.750927 -0.625677 0.063538 -0.0317489 -0.136495 0.916141 0.246464 0.672687 -0.857047 0.629834 0.0757032 -0.112728 -0.574656 -0.0329261 -0.527801 0.152482 0.0361948 0.0864396 -0.838069 0.171982 0.451158 0.298479 0.203712 0.826492 0.113352 0.281741 0.540128 -0.143351 0.90161 -0.877429 -0.950755 -0.223575 0.718059 -0.389805 -0.990448 0.345825 0.0859764 0.925651 0.817932 0.605637 -0.199533 0.323637 0.0770243 0.0794653 -0.699249 0.120177 -0.63615 -0.500989 -0.0968063 0.233303 0.644672 0.0622057 0.555517 0.0166355 0.772565 0.516416 -0.169451 
0.721358 0.276484 -0.0152836 -0.557999 -0.439765 0.0345749 0.919873 0.33203 0.127647 0.886653 -0.728504 -0.0514985 0.12001 -0.406803 0.526627 0.683022 -0.297168 0.14671 0.475397 -0.205233 0.729983 -0.583497 0.160684 -0.110232 -0.319191 0.110264 0.783745 0.402258 0.861175 -0.566166 -0.770435 -0.280877 -0.485795 -0.661018 -0.976989 -0.440537 -0.490821 -0.96534 0.150309 0.150007 0.489548 0.770468 -0.757609 0.0567133 -0.991666 -0.251095 -0.529537 0.948619 -0.522528 0.415663 -0.727395 -0.141915 0.971084 -0.896668 -0.840235 0.458751 -0.624501 0.555667 0.251459 -0.936381 0.300063 -0.857307 -0.486829 -0.195848 -0.12986 -0.0575233 -0.849784 -0.195172 -0.605573 -0.936072 -0.346152 -0.892459 -0.332808 0.262514 -0.766028 -0.858441 -0.843226 0.522464 -0.818645 -0.144844 -0.807344 -0.94672 -0.158354 -0.0988156 0.751931 0.669067 -0.957377 -0.524223 0.136368 -0.467534 -0.862613 -0.697611 0.318251 0.928459 0.861498 -0.11905 0.568009 -0.273859 0.00980072 0.642232 0.446236 0.563965 -0.588336 0.328898 0.7942 0.786141 -0.0351921 0.317106 -0.615688 -0.870556 -0.594525 0.865121 0.0967162 -0.919384 -0.0830909 -0.790212 0.372705 -0.146996 -0.557846 0.375065 0.876764 0.491732 0.778585 0.180403 0.78964 0.264405 0.836269 0.452276 
-0.160059 -0.42297 0.00219649 -0.551187 -0.133722 0.500769 0.555003 0.602412 -0.907997 -0.443175 0.673934 -0.938691 -0.727697 -0.307686 -0.461592 -0.918888 0.166906 0.797948 0.477957 0.832715 0.560254 -0.8404 -0.346244 0.921454 -0.982199 -0.0435381 -0.824537 0.816122 -0.599328 0.769913 -0.771251 0.708713 0.11347 -0.188321 0.906022 0.655105 -0.716331 -0.589301 0.891618 0.414445 0.505988 0.126291 -0.199741 -0.879409 0.989369 -0.106914 0.803621 -0.160737 0.657843 0.911403 0.7622 -0.159606 0.0247224 0.669865 -0.498561 0.470939 0.586956 0.91183 0.922854 0.0133266 -0.933486 -0.30711 -0.537751 0.00721435 0.851028 0.470686 0.619317 -0.510511 0.634427 0.601038 -0.338505 -0.149991 -0.0246497 0.158375 0.196506 0.440342 -0.0965448 -0.22149 0.885162 0.226564 -0.342658 0.0541863 0.340591 -0.25967 0.268939 0.773232 -0.41985 -0.345131 0.346943 -0.44764 -0.930061 0.40265 0.589628 -0.15637 0.923017 0.661439 0.556848 -0.756627 -0.669732 -0.391164 0.37145 0.271235 -0.900925 0.226979 0.628436 0.930436 -0.0203354 0.528241 0.929929 -0.448935 -0.013331 -0.191885 -0.822754 0.48135 -0.316004 0.571051 -0.377004 0.395846 -0.729946 0.42411 -0.457847 -0.220248 0.690088 0.0676283 0.755906 -0.025052 -0.0889344 0.983144 
-0.906014 -0.633584 -0.329016 0.703709 -0.447531 0.319151 -0.414932 -0.244708 0.720189 -0.947986 0.0458201 -0.0972648 0.319159 0.161184 -0.387554 -0.805054 -0.806404 0.526733 0.114111 -0.912594 -0.37362 0.00609903 -0.64561 -0.844169 0.503776 0.425542 -0.81501 0.792144 -0.867211 -0.013438 0.802606 -0.872079 0.735221 -0.932015 -0.849123 -0.330643 0.180915 0.755829 -0.724955 -0.769081 -0.861309 0.811512 0.373265 0.0647721 0.974011 -0.635016 0.205439 -0.898068 -0.282357 -0.0123645 -0.38597 -0.862906 -0.11203 -0.616736 -0.23109 -0.0175759 0.722458 0.919308 0.0816811 -0.900377 -0.791162 0.0242958 -0.961928 0.469431 0.000544132 0.474169 0.962077 0.833441 0.387989 -0.344523 -0.12038 0.0958317 -0.937077 0.227106 -0.53479 0.712502 0.111271 -0.858314 -0.382196 0.46604 0.683849 -0.895459 0.6475 -0.922585 -0.419751 0.156031 -0.449496 -0.888108 0.0314488 0.523156 0.994963 0.467152 -0.91063 -0.099438 -0.238819 -0.747709 -0.13516 0.671492 -0.0067474 -0.80295 -0.0142761 0.584627 -0.767853 -0.049755 0.627486 0.898353 -0.163074 0.617588 0.408278 -0.923218 0.330886 -0.225514 -0.198019 0.358284 -0.196867 -0.349627 -0.933781 0.0509676 0.679794 0.838263 0.127433 -0.115919 0.206323 -0.0304071 -0.536221 0.41388 0.989695 0.172466 
0.871871 -0.631105 -0.972119 -0.242708 0.423095 0.292523 0.141724 0.923894 0.890928 0.382845 -0.599318 -0.560612 0.235086 -0.47434 -0.863541 -0.738427 0.487188 -0.778976 -0.47953 -0.0745914 -0.0310237 0.972717 -0.24573 -0.284421 0.195122 0.481794 0.404071 0.358022 -0.627457 0.837325 -0.630458 -0.0594427 -0.185555 -0.356464 -0.505939 0.913626 -0.51728 0.0566587 0.916891 0.304731 -0.911156 -0.242624 -0.892635 0.810762 0.351556 0.793597 0.229238 -0.61036 -0.976302 -0.753147 0.921085 0.978237 -0.941849 0.0233099 0.146917 -0.465591 0.912828 -0.0089063 0.52917 0.740605 0.0425215 -0.146666 0.210812 -0.552958 0.433284 -0.386137 -0.773673 0.736326 -0.589819 0.631547 -0.263836 -0.845075 0.638607 -0.668607 -0.808921 0.719229 0.517949 -0.919152 0.656028 0.0672396 -0.426047 -0.195924 0.889858 -0.425705 -0.314924 -0.666154 -0.505439 0.295152 -0.281714 0.250445 -0.53948 0.855034 -0.151615 0.893491 0.101943 -0.382998 -0.0767382 -0.0600831 -0.578479 -0.684702 -0.588411 0.455051 0.741919 0.866715 0.222434 0.0485816 0.768797 0.335951 -0.609211 0.794384 0.399639 -0.52071 -0.749562 0.161968 -0.480342 -0.924937 0.137914 0.777071 -0.513822 -0.479027 0.431081 0.441245 -0.248483 -0.0697559 -0.448318 0.0985333 -0.272176 0.643772 
-0.604278 -0.54238 0.718616 -0.587677 0.102388 0.533326 -0.207311 -0.808341 0.349464 0.975951 -0.604516 0.908933 0.0939926 0.68943 -0.600815 0.300112 0.606594 -0.256117 0.982636 -0.941704 -0.0605929 0.92235 0.689663 0.186068 0.826992 -0.537508 0.843109 -0.547119 -0.330447 -0.537323 0.466461 -0.0583159 -0.307062 -0.757057 -0.0530146 0.858897 0.389154 -0.820563 -0.327802 -0.0322657 0.869694 -0.666325 0.123065 0.169449 0.986876 -0.0969405 -0.378468 0.702777 -0.706404 0.387577 -0.473246 -0.464774 0.900879 -0.38149 0.252167 0.848596 -0.739869 -0.222049 -0.307963 -0.173091 -0.26313 -0.192733 0.616421 -0.479275 0.131864 0.384132 0.926874 0.797439 -0.701765 0.147904 -0.179577 0.0296251 0.170784 0.869068 0.979049 0.962151 0.885666 0.488715 -0.366022 0.913091 -0.101803 0.888017 -0.836723 -0.376662 -0.0448103 -0.75192 -0.528916 0.918744 0.0299528 -0.593017 -0.0565816 -0.8383 -0.019395 0.699755 0.344322 -0.519732 0.646861 -0.889358 0.341612 -0.471752 -0.568466 -0.372359 0.710425 0.779094 -0.756946 0.689044 -0.818018 0.179587 -0.25039 0.973994 0.260725 -0.638987 0.847562 0.791187 0.354974 -0.395206 -0.617819 -0.00298615 0.209513 -0.310484 0.736642 -0.174645 -0.856779 0.259192 -0.547718 -0.248235 -0.884444 0.190381 
0.511369 0.586946 -0.425294 -0.120776 -0.518505 0.301174 -0.0783668 0.408995 0.694726 -0.626119 -0.708238 -0.694656 -0.650931 -0.447733 0.0102162 -0.95446 -0.362785 -0.478654 0.954789 -0.255966 -0.00124212 -0.497356 -0.826754 0.599948 -0.14099 0.829972 0.839316 -0.802711 0.446363 0.358685 0.737826 -0.368939 0.153896 -0.510466 0.482601 -0.821198 0.378978 0.0443063 -0.620549 0.210813 -0.893375 0.0130266 -0.0653353 -0.0036414 0.789094 -0.295945 0.569013 0.172024 -0.994641 0.200131 -0.113476 0.809779 -0.587317 -0.875405 -0.958776 -0.625285 0.100958 0.282391 0.989718 -0.930195 0.0623364 -0.884652 0.661788 -0.226872 0.297821 0.787803 -0.616401 -0.636491 -0.912798 0.783399 -0.312065 -0.704606 0.923764 0.0213287 -0.853702 -0.568858 -0.386632 0.750058 -0.719469 -0.174807 -0.64878 -0.961058 -0.0220453 0.910052 -0.704249 -0.576619 -0.43459 0.463317 0.469239 -0.699391 -0.0410426 -0.198171 -0.152849 0.779387 -0.535085 -0.0310182 -0.176501 0.184267 -0.397733 -0.290921 0.596271 -0.585782 0.655835 -0.836429 -0.360087 0.234343 0.12634 -0.633107 -0.350548 -0.308036 -0.954922 -0.117478 0.746592 0.357051 0.424423 0.808073 -0.49804 0.311954 0.300573 -0.468352 -0.957818 0.728096 -0.883835 -0.506574 -0.975879 -0.510293 -0.397848 -0.166476 
0.678037 0.63211 0.919148 -0.766862 -0.122077 0.982121 -0.923398 0.933663 0.669666 -0.809661 0.584048 -0.83488 -0.199632 0.738121 0.832996 0.83058 0.674947 0.231299 -0.978005 -0.0823854 0.499999 -0.476374 0.0284608 -0.491188 -0.748491 0.867417 0.159043 -0.507147 0.425943 -0.928332 0.741782 0.514356 0.351951 0.770528 0.919336 -0.652452 -0.548375 0.758229 0.844255 0.7395 -0.278605 0.201438 -0.884839 -0.39371 0.0393335 -0.61336 0.576404 0.999956 0.0939476 0.0962178 0.33965 0.203691 -0.944467 0.0335839 -0.254696 0.245636 -0.390185 0.604112 -0.223302 -0.554223 0.744658 -0.0540631 -0.943904 0.0403033 -0.0776809 -0.432386 -0.252918 0.245357 0.630084 0.263376 -0.594677 0.781902 0.708423 -0.857131 0.674987 0.34933 -0.433933 -0.178594 0.973495 0.0854175 0.975228 -0.47624 0.629334 0.7644 -0.158487 -0.466199 -0.772915 -0.109976 0.387731 -0.466204 0.563208 0.787895 -0.620554 0.490808 0.2182 0.234725 0.523722 0.442852 0.0883292 -0.943125 -0.0802475 0.775515 -0.080393 0.938793 0.896486 -0.983574 -0.911337 0.040165 -0.429418 -0.214008 -0.328216 0.259409 -0.883517 0.09974 0.573603 0.753671 0.820279 0.179887 0.0559977 0.846648 -0.121365 -0.195528 0.833891 0.986693 -0.961891 0.481958 -0.0699778 0.981074 
0.683368 -0.232372 0.906282 0.7368 0.895212 0.731659 -0.338785 -0.539195 0.0773065 -0.650159 0.299633 -0.727829 0.0299349 0.389961 0.934456 0.410307 0.368352 0.466358 0.973953 -0.773852 0.0150255 0.354481 -0.35524 -0.627143 0.150272 0.802364 -0.195064 0.70095 0.73967 0.873356 -0.91447 -0.221085 0.404721 0.993935 -0.291695 0.408457 0.862907 -0.983347 0.751575 0.0733484 0.300964 -0.993164 0.354227 -0.37558 0.458181 0.252328 -0.521463 0.324684 0.634901 -0.188617 -0.713248 0.196665 -0.778268 -0.975822 0.458116 -0.301269 -0.11145 0.794958 0.156499 0.808921 -0.720878 -0.196165 -0.38629 0.171541 0.484014 -0.0586239 -0.872678 -0.129737 -0.059991 -0.584014 0.219879 0.638055 -0.184012 -0.709713 0.630632 0.562942 -0.960171 0.253787 -0.879832 -0.329397 -0.00293016 -0.661529 -0.200349 -0.127001 0.29393 -0.140401 -0.713875 0.904834 0.0791565 0.36218 -0.337478 0.124914 -0.0677074 -0.20641 -0.758214 -0.0963537 0.0532524 0.00333364 -0.265665 -0.40962 0.793359 -0.121425 -0.53383 -0.709912 0.296519 -0.317711 0.56223 -0.386197 -0.459455 0.773596 0.0175871 0.105419 -0.743577 0.28799 0.636631 -0.402154 0.12785 -0.514343 0.712035 0.974279 0.241457 -0.696516 0.320789 -0.0534853 0.206544 -0.744689 0.385654 0.718945 
-0.171657 0.0381852 -0.127229 -0.97001 0.658323 0.37923 0.205073 -0.565714 0.131049 -0.00753054 0.087563 0.206081 -0.108142 -0.866746 -0.111114 0.602783 0.0726571 0.0914044 -0.690642 -0.601161 -0.320963 0.501729 -0.305582 -0.906476 0.0952717 0.808212 0.732266 0.811767 -0.398645 -0.314375 0.31906 0.00336084 0.370352 -0.972342 0.20698 -0.134688 -0.274377 0.168932 0.764077 -0.780798 -0.400069 -0.941948 -0.212317 -0.703375 0.856485 -0.26615 0.0418635 -0.174526 -0.730437 0.735433 -0.586405 -0.0208243 -0.986957 -0.420251 -0.584358 -0.401194 0.146786 0.275436 -0.366162 -0.0801361 -0.0781497 0.584321 0.869559 0.0184913 0.673581 0.35656 0.869178 0.172169 -0.589216 0.59018 -0.532464 0.437987 0.584276 0.523249 -0.848615 -0.49704 -0.672904 -0.702923 -0.477049 0.0577493 0.408366 0.849933 -0.28147 0.43878 -0.742704 0.780252 -0.449562 0.827047 0.756197 0.364281 -0.667784 0.227214 0.810746 0.303852 -0.70178 -0.42785 -0.172265 0.757054 -0.00470372 0.934176 0.750873 0.749029 0.416002 0.729276 0.559965 -0.261458 -0.615453 -0.75734 0.455228 0.691873 0.468144 -0.271615 -0.70534 -0.847825 0.478866 0.11553 -0.200787 -0.588566 -0.482247 -0.842824 -0.0571427 0.106551 -0.100682 -0.6136 0.765425 -0.994149 0.0544037 -0.338336 
0.916771 0.653961 0.866612 -0.244337 0.142255 -0.494239 -0.893951 0.0399971 -0.754768 0.764129 0.450025 -0.695804 0.0284894 -0.406017 -0.266968 0.901307 0.299083 0.571003 -0.374639 -0.239669 -0.0693378 0.407761 0.645613 0.308002 -0.468576 0.417529 -0.246017 -0.702004 -0.558273 -0.0887635 0.947878 -0.211488 -0.438953 -0.89221 0.348057 0.379854 0.337701 -0.0234364 -0.210541 -0.46587 0.374557 0.0102625 0.177313 0.291038 0.266405 -0.901105 -0.135727 0.214328 -0.162198 -0.268633 0.758929 0.277213 -0.290508 0.110856 0.0303633 -0.132566 -0.186557 -0.0708866 -0.957759 -0.90379 0.48964 0.444033 0.144134 0.200812 -0.540393 0.863053 -0.546099 0.622729 -0.676876 0.473809 -0.164579 0.0691144 0.123781 -0.0137108 0.233175 0.940287 0.333031 0.788358 -0.298417 -0.805434 0.737988 -0.468782 -0.861836 -0.261931 -0.455114 -0.158919 0.368042 0.494207 -0.989737 -0.376647 0.470597 -0.51671 -0.603042 0.848445 0.239189 0.9914 0.369438 0.130985 0.982673 -0.0945571 0.942846 0.359305 0.424706 0.818055 0.594888 -0.184924 -0.719448 -0.90201 -0.0796832 0.76272 -0.586404 -0.00015911 0.00723064 -0.0372163 -0.850325 0.0557519 0.787629 -0.186922 0.0654354 -0.0209595 -0.681782 0.565004 0.249253 -0.448255 -0.228011 0.612204 -0.131977 0.600402 
0.848238 -0.775048 -0.491032 -0.519665 -0.579936 0.174251 0.602628 0.836855 0.512879 -0.927684 -0.901943 0.692205 0.0211171 0.236587 -0.649275 0.453507 -0.211632 0.261867 -0.235481 0.833411 0.639589 -0.168137 0.526564 -0.351414 0.629243 -0.601076 -0.575903 -0.65119 -0.601426 0.0809261 0.566567 0.000572311 0.295684 0.26075 -0.121683 -0.704056 0.379667 0.921792 -0.88238 0.896984 -0.764716 0.605556 -0.580537 -0.984857 -0.225618 0.202065 -0.42566 -0.6938 0.696658 0.604316 -0.560182 -0.515715 0.123866 -0.921326 -0.353172 0.699589 -0.312085 0.678309 -0.94632 0.163509 0.895045 0.0983009 -0.369326 0.166693 0.0649921 0.227827 -0.914803 0.322404 0.0299109 0.515409 0.527757 0.497889 0.761809 0.698225 0.604722 -0.735652 -0.49007 0.724521 0.610947 -0.0767978 -0.126496 -0.727679 -0.665412 0.114733 -0.645544 -0.90602 -0.875845 -0.166314 0.673956 -0.672139 0.882015 0.0269511 0.435265 -0.300372 0.875178 -0.657754 -0.40443 -0.885229 0.807796 0.877874 0.229403 -0.577661 -0.0124302 -0.888574 0.102773 -0.674941 0.318323 0.505733 -0.105519 -0.665247 -0.921502 0.285497 0.991544 0.382374 0.420513 0.915815 -0.0821243 0.580871 -0.653806 0.365395 0.640343 0.685054 0.131123 0.351814 0.234703 0.149108 0.286081 0.554495 
0.879233 0.449745 0.800432 0.758571 -0.463164 -0.716932 0.592007 0.767124 -0.845614 -0.969446 0.116921 -0.205291 0.513487 -0.736666 0.0698514 0.0876249 -0.693942 0.969503 -0.0884653 0.0448838 0.809155 0.214856 0.768283 -0.384159 -0.705587 -0.894659 -0.0785157 0.49676 0.284757 -0.0294537 -0.633515 -0.585191 0.417424 0.950999 -0.0040349 0.573826 -0.453653 0.760785 0.0218914 -0.275843 0.387329 0.800195 0.849013 -0.119137 0.59004 0.48999 0.183595 -0.5984 0.693912 -0.450389 -0.927392 0.640831 -0.775726 0.980676 -0.498424 0.27994 -0.0193725 -0.765776 -0.496059 -0.0379567 -0.141655 -0.654813 -0.978328 -0.0784072 -0.933957 0.919229 0.0787267 -0.452048 -0.320199 0.175367 0.89319 -0.842548 -0.398493 -0.47799 0.707096 0.45494 -0.808381 -0.503231 0.739344 -0.778555 0.204564 -0.506578 -0.707574 0.822679 0.363671 0.668535 -0.882776 -0.988925 0.716551 -0.764529 -0.477092 -0.735142 -0.055268 0.917489 -0.700073 0.293939 -0.361906 0.354285 -0.984662 0.471026 -0.950244 0.892704 0.657971 0.715888 0.628746 0.510884 -0.604807 0.550908 -0.166038 -0.343669 0.12059 0.642109 -0.30321 -0.575796 -0.548601 0.309474 0.927791 0.594001 0.468279 0.132571 -0.190469 -0.858578 -0.688544 0.621757 0.834247 -0.231725 -0.414163 -0.133434 
-0.330532 -0.45692 -0.590318 -0.315848 0.620399 -0.36094 0.0562036 -0.243528 -0.0317373 0.11401 -0.921748 -0.803137 0.611094 -0.322323 -0.698937 0.320141 -0.721691 0.331372 0.381863 0.908621 0.531733 -0.603346 0.70789 -0.419752 0.501402 0.665697 -0.40228 0.536448 0.610323 0.415302 0.864375 0.294907 0.623453 0.571269 -0.211265 0.851442 0.145253 0.804081 0.0103872 -0.391702 -0.785537 -0.501125 -0.891562 -0.995405 -0.423635 -0.959962 -0.52502 0.254558 -0.43783 0.102212 0.286854 -0.133005 0.792071 0.921049 0.498069 -0.995261 0.26709 0.1343 0.913407 0.344617 0.244392 0.694113 0.154827 -0.563453 -0.0777449 -0.813924 -0.23729 0.535972 0.932555 -0.0977096 0.00217684 -0.42017 -0.985371 0.742286 -0.466173 -0.427749 -0.464987 -0.842597 -0.697262 0.548585 -0.888897 -0.391552 0.622569 -0.603203 0.704843 0.213458 0.729038 -0.446918 -0.236823 0.0893761 0.42074 0.766474 -0.461268 0.944908 -0.966837 0.32878 -0.254924 0.693437 0.35854 0.719253 -0.121365 0.599746 -0.983231 0.236602 0.90835 0.447108 -0.342597 0.587649 -0.906238 0.678537 0.770338 -0.927795 -0.78287 0.265238 0.897521 -0.623868 0.878549 -0.384894 0.584648 0.7751 -0.90537 0.64416 -0.941356 0.925673 -0.0540522 0.414318 0.413388 -0.687672 
-0.996779 0.473407 -0.770708 -0.419319 0.451936 -0.584856 0.00341059 0.427769 -0.573692 0.523818 -0.325547 -0.718754 -0.514106 0.911447 -0.580039 0.304032 -0.962484 -0.709726 0.382564 -0.578804 -0.590016 -0.852068 -0.147893 -0.22134 -0.63824 0.859091 -0.0946257 0.727479 0.050133 -0.691322 -0.547298 0.280204 -0.473886 0.634664 -0.327655 0.98037 -0.0569718 -0.839942 0.746072 0.052922 0.440159 -0.799412 0.235433 0.179393 0.168689 -0.825168 0.610133 0.0929945 0.991638 -0.226381 0.929693 -0.43593 -0.178224 0.144469 0.320198 0.580198 0.239499 -0.576637 -0.263685 0.266156 -0.496033 -0.0943487 0.670173 -0.0810168 0.0720972 -0.791248 -0.3859 -0.779961 -0.900145 -0.800477 0.0586598 0.0777479 0.439642 0.409255 0.0280124 -0.883277 0.94079 -0.924189 0.486825 -0.910703 0.760257 -0.637048 -0.239997 -0.466809 0.0866979 -0.195211 0.799336 0.690365 -0.345901 -0.0705693 -0.820597 0.721357 -0.8548 -0.319294 -0.350421 -0.942911 -0.662061 -0.500951 0.630476 -0.817982 0.0357637 -0.963902 0.49243 -0.343296 0.191218 -0.785358 0.89763 0.766135 0.101201 0.962965 0.717597 0.359479 0.530198 0.626864 0.0476314 -0.544862 0.945398 0.0680139 -0.417032 0.90048 -0.811176 0.493468 0.0353876 0.185052 -0.0801896 0.645112 -0.853024 0.430238 
0.858197 0.825672 -0.972539 -0.943136 -0.306529 -0.512355 -0.819775 -0.605552 0.487136 -0.432898 -0.430583 0.0958581 0.719658 -0.417248 -0.956398 -0.846281 -0.17248 -0.0532194 -0.994661 -0.479549 0.604593 -0.549558 -0.923281 0.697408 0.246879 -0.772476 -0.153799 -0.303682 -0.899999 0.24233 0.0345365 0.783484 0.276393 -0.486793 0.683124 0.650633 0.982868 0.443173 -0.535407 0.436378 0.877317 -0.943817 0.410857 -0.365757 -0.128255 0.901183 -0.580986 0.285585 -0.043717 -0.876798 -0.314486 -0.833275 0.701265 0.170805 -0.16313 -0.945016 -0.92268 0.474498 0.0802848 -0.0477306 0.330186 0.737557 -0.197319 -0.364441 -0.741728 -0.424756 -0.20883 -0.460654 0.841715 0.884069 0.614524 0.896185 -0.715077 -0.566868 0.8591 0.864271 -0.129769 0.0334218 0.133464 0.988202 0.83701 0.626029 -0.0398521 -0.0178583 0.849221 -0.879837 0.725905 -0.819189 0.0484117 -0.976798 -0.853933 0.73924 0.68068 0.733854 0.114025 0.281452 -0.595955 0.446446 -0.640621 -0.0920321 -0.489301 0.872606 -0.303339 0.302145 -0.353106 0.097223 0.779357 0.183897 0.94333 0.579617 -0.40278 0.859709 -0.138728 -0.431959 -0.595989 0.217043 0.701183 -0.252843 0.450647 0.939694 -0.00856196 -0.963822 -0.218692 -0.382415 0.255158 -0.484488 -0.0774642 -0.245412 
0.953375 0.026298 -0.33275 0.562208 -0.941419 -0.0571905 -0.445843 -0.790218 0.796215 -0.155937 -0.460012 0.0822852 0.20231 0.417955 0.423646 0.420032 -0.265336 -0.821524 0.447553 0.403213 0.63545 0.446095 0.0532609 0.313687 -0.153998 0.479639 0.773264 0.352391 0.622196 0.182029 -0.801947 -0.648632 0.463737 0.607549 -0.832351 0.925963 0.417996 0.428073 0.966146 0.812008 -0.0106168 0.63508 0.388788 -0.881898 0.485797 -0.942382 -0.891839 0.162618 -0.113362 -0.845672 0.538544 -0.741458 -0.310862 0.321249 0.777299 -0.445598 0.273654 0.371363 -0.670847 0.463105 0.193625 0.869437 0.762415 -0.485984 0.348815 -0.915856 -0.970132 -0.858173 0.0668487 0.947419 0.771246 -0.758659 0.842383 0.511997 -0.849239 -0.127468 -0.290525 -0.586113 0.219047 0.524553 0.947889 -0.545235 0.254164 0.210395 -0.008829 0.725256 -0.699529 -0.866438 -0.5851 -0.750915 -0.65446 -0.270546 0.509712 0.765133 -0.844196 0.783409 0.151411 -0.165393 -0.310712 0.838934 0.222793 0.781937 -0.984569 -0.749254 0.879405 0.125981 -0.462527 0.579214 0.206497 -0.765067 0.738668 -0.60637 -0.439566 -0.966119 -0.999825 -0.439937 -0.074454 0.769902 0.276159 -0.81208 0.986157 -0.093361 0.688011 0.274435 -0.0569012 0.0518453 -0.993339 0.776854 
0.171032 -0.816578 -0.929712 0.191809 0.946229 -0.1681 -0.571779 0.718338 -0.931103 -0.904164 -0.931543 -0.226913 0.258275 -0.715065 -0.415569 0.472176 0.951106 -0.00930085 -0.0988505 -0.999191 -0.880912 -0.308396 -0.921438 0.623446 -0.325091 0.214247 -0.990847 -0.489483 -0.763476 -0.118258 0.702761 0.205335 0.187311 -0.30916 -0.41879 -0.0795682 -0.430829 -0.226787 -0.941462 -0.741323 -0.101504 -0.573645 -0.692834 -0.0296938 0.589799 0.162473 -0.451763 -0.786997 -0.453424 0.969883 -0.592395 0.947689 -0.051993 0.178782 -0.878035 0.558051 -0.668464 -0.474982 0.0284908 -0.589109 0.64393 0.214971 -0.765216 -0.878211 -0.405441 0.671608 0.343074 -0.45405 -0.39991 -0.863737 -0.733709 0.742642 -0.759221 -0.662949 0.398641 0.457363 -0.886484 0.324664 -0.926256 0.464742 0.801847 0.787081 0.843874 -0.398877 -0.997477 -0.174717 0.729711 -0.522023 0.541626 0.944914 0.923354 0.0686258 0.500363 -0.8978 -0.812679 0.633966 0.677445 0.128098 -0.963836 0.837557 0.678395 -0.865298 0.542918 -0.539509 -0.641691 0.0611214 -0.750469 -0.986653 -0.824834 0.0484648 0.210536 0.45998 -0.954383 -0.188248 -0.23216 0.0153954 -0.897136 0.888927 -0.180595 0.724204 0.218445 0.711299 0.503452 -0.741895 -0.062508 -0.351656 -0.968432 0.973877 
0.49538 0.0125627 0.125677 0.187585 -0.862268 0.956783 0.620228 0.887252 0.972194 0.00377176 -0.808658 0.970374 0.299527 0.502133 -0.871882 -0.42885 0.40528 0.863388 -0.849294 0.220138 -0.177151 0.482971 -0.834555 0.4064 0.476052 0.220865 -0.0181791 0.209762 0.762489 0.237963 0.215283 -0.599861 0.0287112 0.142048 0.914116 -0.870596 -0.889617 0.727935 -0.274756 0.566 0.0411855 -0.842994 -0.844921 -0.81532 -0.68336 -0.866786 0.0672564 -0.463708 0.202247 0.916841 0.371564 0.678437 -0.487453 -0.211331 -0.0579472 -0.218661 0.350428 0.206499 0.524944 -0.208162 0.161823 0.151681 -0.862813 -0.294796 -0.603244 0.911663 0.412693 -0.953228 0.940299 0.611333 0.0339527 -0.751062 0.524655 0.933942 0.112669 -0.42299 -0.365776 -0.815761 0.176557 0.291628 0.02046 0.316481 -0.0455729 -0.491412 0.845244 0.0947335 -0.835344 0.369973 -0.519638 0.562201 -0.883198 0.481067 0.356004 0.426612 -0.223237 0.777198 0.939651 -0.775601 -0.643988 -0.576248 -0.89551 -0.956351 0.261152 0.156046 -0.279386 0.180839 0.523371 -0.863455 -0.193936 0.984812 -0.976296 0.453638 -0.908155 0.0153692 -0.576524 0.22481 -0.679107 -0.574776 -0.845195 -0.534042 0.442391 -0.0910832 0.185964 0.169033 0.46664 0.172893 0.137127 -0.189547 
0.568577 0.486448 -0.661956 -0.235612 -0.627764 -0.740507 0.595221 -0.111184 -0.669136 0.864941 -0.180027 0.926254 -0.467968 -0.756005 -0.947041 -0.945603 -0.583722 -0.537218 0.733806 0.119782 0.119616 0.636806 -0.953961 -0.880582 -0.734392 -0.811576 0.00901587 -0.890742 0.250298 -0.717706 0.133124 0.0702052 -0.241968 0.131503 -0.978249 -0.9152 -0.384158 -0.897124 -0.920778 -0.6965 0.783261 0.336029 0.108316 0.98395 0.58372 -0.60535 0.282659 0.574214 0.375118 0.998066 -0.81225 0.0931891 -0.958585 -0.739465 0.322832 0.406279 0.0792365 0.977431 0.441918 0.141103 0.512748 -0.322536 0.115288 -0.0783921 0.20555 0.344083 -0.0420962 -0.658066 -0.409548 0.924615 -0.520702 0.0395092 0.660836 -0.535626 0.393581 0.51866 -0.0366378 0.145856 -0.511745 -0.716375 0.913963 -0.0200352 0.75546 0.972554 0.233124 -0.979261 0.404809 -0.710364 -0.433146 0.0394716 0.509344 0.536131 0.142257 -0.353065 0.436058 0.620339 0.528645 0.228237 -0.598776 0.809495 0.0216226 0.123065 0.0867533 0.0644338 -0.426397 0.0647395 -0.525225 -0.706151 -0.666164 0.458152 0.0902055 0.200477 0.136133 0.172415 -0.143619 -0.503368 -0.867846 0.585568 0.720705 0.783399 -0.00936525 0.572964 0.0524789 0.867745 0.148763 -0.115892 0.149813 -0.505166 
-0.0348111 0.527523 -0.71336 -0.0031296 -0.608214 -0.714993 0.865782 -0.307867 0.741154 -0.333669 0.336094 -0.674424 -0.392214 0.653613 0.0216304 -0.478436 -0.501514 -0.210892 -0.209623 -0.427922 0.338527 -0.970551 -0.657622 -0.82717 0.273301 0.949088 -0.775493 -0.762723 0.91549 -0.195535 -0.248726 0.820588 -0.75027 0.361283 0.89333 -0.146132 -0.0656817 0.650636 -0.98129 0.855709 0.397363 0.528176 -0.200335 -0.822969 0.323664 0.636771 0.118797 0.700796 0.307704 -0.79772 -0.0406653 0.440888 -0.163865 -0.174215 0.271275 -0.468161 -0.322273 0.0283473 0.699045 0.106798 0.805114 0.927258 -0.627216 -0.747901 -0.566814 0.555445 0.396464 0.303279 0.561141 -0.450487 0.811828 -0.886604 0.280167 0.0738958 -0.998229 -0.859868 -0.185013 0.722001 0.959099 -0.273446 -0.954666 0.497677 0.841511 0.908695 0.750493 -0.660184 -0.621641 -0.865128 -0.307255 0.093917 -0.795824 0.837083 0.83092 -0.132803 0.49437 -0.786554 -0.922465 0.938871 -0.161956 -0.575056 0.603148 0.34581 -0.190858 0.216319 -0.0478676 -0.309411 0.673346 0.15136 0.471493 -0.0496372 0.112594 0.312206 -0.732193 0.337163 0.879455 -0.0807665 -0.515055 0.693807 -0.427711 0.379673 0.975982 0.93094 0.737414 -0.111118 0.554459 0.710558 0.213202 0.111727 
0.621263 0.81941 0.231966 -0.425419 -0.284948 0.357557 -0.0937544 -0.252962 -0.972539 -0.216449 -0.772002 -0.136096 -0.440148 0.191516 0.350874 0.551821 0.231582 -0.222958 -0.103707 -0.456839 0.897494 0.410004 0.389727 -0.611849 -1.00607 -0.0728863 -0.123609 -0.628452 -0.0605137 0.520953 0.849459 -0.788788 0.948515 -0.722106 -0.723463 -0.880086 0.961636 0.0649298 -0.563931 0.107171 0.558394 -0.439784 0.672775 0.482979 -0.332106 0.0474346 -0.571537 0.548077 0.648714 -0.962117 0.638157 -0.212187 -0.62237 0.213238 -0.080321 -0.184009 0.407587 -0.769715 -0.164024 -0.889344 -0.293724 -0.630048 0.464041 -0.172889 0.786721 0.77276 0.829964 0.67059 -0.772463 -0.717661 0.46771 -0.452827 0.418436 -0.191551 0.240543 0.615674 -0.09459 -0.210561 0.650032 0.324501 0.588581 -0.797441 0.445652 0.499774 -0.627911 -0.204536 -0.708281 0.730046 -0.00836992 0.698136 0.825837 0.922234 0.541997 -0.400883 0.985741 -0.0283422 -0.588063 -0.161462 0.576096 -0.748221 0.676684 -0.154839 -0.302097 -0.0283859 0.329206 0.121252 -0.658418 -0.822842 -0.618722 -0.0137771 0.981494 -0.232699 -0.0330476 -0.0609703 -0.0641375 -0.834941 0.385722 0.505348 -0.222671 -0.47374 -0.830476 -0.849336 -0.531745 -0.824468 -0.0199679 0.288579 -0.154659 0.01075 
-0.415397 -0.0908861 0.187769 -0.847772 0.606367 -0.280279 0.560093 0.092801 -0.901793 -0.295823 -0.980771 0.439767 -0.558028 0.571908 0.773766 -0.308876 0.241472 0.140314 0.33265 -0.0379606 -0.609866 0.606529 0.619192 -0.702965 -0.338303 -0.340885 0.564884 0.277808 0.315178 -0.420435 0.50312 -0.11617 0.558866 0.595418 -0.325264 0.570421 -0.177314 -0.488173 0.896742 0.970322 0.846913 0.976934 -0.95847 -0.146401 0.613191 -0.237996 -0.485378 -0.294106 0.104494 0.721697 -0.479894 0.689126 -0.949522 -0.671754 -0.0107893 0.0774144 0.947169 -0.584166 0.0904914 0.482584 -0.90496 0.342351 -0.721697 0.852274 0.960248 -0.880289 -0.62623 -0.4656 -0.4949 0.211239 -0.345239 0.0567038 0.74417 -0.49057 0.946355 0.907842 -0.95573 -0.312645 -0.814126 0.633795 0.796987 0.65505 0.904414 -0.751347 -0.522717 0.616421 0.29373 -0.325983 -0.271135 0.244643 -0.997421 0.236721 -0.130914 -0.71244 0.202616 -0.627418 -0.676367 0.62165 0.610319 0.910365 -0.225227 0.806442 -0.747098 -0.345421 0.500749 -0.371198 -0.813817 0.788025 -0.107856 0.732066 0.487575 0.668082 -0.343643 -0.0534451 -0.189906 0.198334 0.430011 -0.263291 -0.983174 -0.6785 -0.931595 0.0197722 0.0825413 0.895001 0.123092 0.100835 -1.0029 -0.507161 
-0.468498 0.634967 0.868696 -0.215278 0.881844 0.451613 -0.129504 -0.293159 -0.650501 0.202105 0.677035 -0.341089 0.342481 0.954104 0.957496 -0.921758 -0.307022 -0.843972 -0.481776 -0.681173 -0.233071 0.41702 -0.325729 -0.315557 0.743201 -0.335851 0.179142 -0.0114127 0.467112 0.481483 -0.466168 -0.00145314 -0.362473 0.751296 -0.222591 -0.291037 -0.00360341 0.638404 -0.845275 -0.738007 0.977527 0.978235 -0.193344 0.223916 -0.336731 -0.278498 0.275975 -0.283049 -0.419472 -0.815411 0.66583 -0.918529 -0.155221 -0.681073 -0.407704 -0.117591 0.0815189 0.611527 0.601706 -0.629541 0.190876 -0.981661 -0.439423 -0.0660063 0.200068 0.846634 0.955857 -0.416494 0.174913 0.566483 -0.815964 -0.813179 0.677893 0.810497 0.480391 0.464675 -0.114332 -0.0834171 -0.924308 -0.164692 -0.869954 0.899983 -0.815628 0.844411 -0.579185 0.610724 -0.685636 0.826797 -0.286823 -0.457212 -0.237278 0.537775 0.64338 0.507527 0.245543 -0.147315 0.942847 -0.98549 -0.168372 0.622215 -0.591324 -0.160779 -0.275727 -0.500054 0.182028 0.00312996 0.439299 0.34637 -0.502328 -0.283133 0.354764 0.161599 -0.500525 0.335295 0.49987 0.911354 0.782727 -0.235091 0.732041 0.278949 0.748289 0.679651 -0.122493 -0.864016 -0.629026 0.522907 -0.938871 -0.0187425 
-0.638316 -0.472296 0.633982 0.160584 0.589414 -0.681779 0.87642 0.733634 -0.205409 0.0119069 0.773492 -0.809044 -0.338673 -0.536229 -0.586124 -0.428518 0.0901108 -0.864619 -0.859743 -0.409722 -0.430248 0.123066 0.0901936 0.151949 0.70703 0.919764 0.943308 -0.852299 0.434537 0.866374 0.204827 -0.640214 -0.638028 -0.875408 -0.32611 -0.258484 0.214609 0.879221 0.54564 -0.646667 0.514477 -0.879862 -0.49434 0.28231 -0.21004 -0.511646 0.705952 -0.214528 0.199914 -0.207185 0.115342 0.826749 0.402549 0.571023 -0.0798641 0.381564 0.100371 0.00706236 -0.948335 0.0588339 0.629718 0.298123 -0.107107 0.946694 0.355052 0.857938 0.884477 -0.525628 -0.961457 -0.504696 -0.224832 0.812241 -0.0971071 0.762076 0.102673 -0.448566 0.677199 -0.164299 0.861457 0.338441 0.242011 0.95531 -0.748025 -0.0875761 0.179831 -0.892018 -0.711834 -0.341891 -0.674429 -0.493501 0.362498 0.788046 0.459232 -0.837914 0.329667 -0.220172 -0.27494 0.2769 -0.247691 0.474526 -0.526804 -0.608521 -0.15066 0.892466 -0.657432 0.734895 -0.296345 0.261697 0.718684 0.153885 0.284604 0.978714 0.0287205 0.673873 0.167928 -0.724127 -0.111001 -0.3114 -0.889085 -0.962222 -0.652749 -0.547287 -0.489201 -0.688921 0.433794 -0.391931 0.340973 0.417437 
1.07195 -0.790837 -0.253748 0.163109 0.543669 0.0431255 0.60908 -0.102013 0.309989 0.0387137 0.326437 0.466857 0.204168 -0.996443 -0.50999 -0.507795 0.056475 0.79412 0.640928 -0.905486 -0.523796 -0.79215 0.298199 0.676323 -0.109547 0.803044 0.892222 -0.79407 0.764856 0.894482 -0.0091428 0.878304 0.796317 -0.416517 0.205469 0.17588 0.835562 0.221167 -0.84199 -0.581853 -0.683782 0.132766 0.533422 -0.747816 0.362214 0.344221 -0.0356502 -0.848618 -0.364732 -0.650455 -0.313145 -0.755887 -0.68646 0.573067 -0.733169 0.711124 -0.492452 0.793533 -0.826 -0.913724 0.958788 0.291518 0.351493 -0.280196 -0.623256 -0.450215 -0.847346 -0.376453 -0.361716 0.674485 0.37866 -0.519528 0.0336515 -0.870621 -0.935782 0.576844 -0.536829 -0.379195 0.83815 -0.432203 0.293925 0.486567 -0.859613 -0.0609066 -0.591396 0.979109 0.962778 0.453432 -0.471206 0.566444 -0.366482 0.762614 0.543218 -0.263558 0.834595 0.108909 0.0573609 -0.427905 -0.340403 0.133542 0.707157 -0.250617 0.904544 0.596806 -0.917509 0.40726 -0.386119 0.812992 0.876589 -0.211431 -0.442724 -0.635079 -0.226838 0.987771 0.207 0.879103 0.785059 -0.767442 -0.224712 0.410237 0.808703 0.389421 -0.320005 -0.927456 -0.694363 -0.481442 -0.706869 0.904479 
0.861924 -0.102201 0.642516 -0.233821 0.405157 -0.270372 0.853999 -0.789128 0.398565 0.931573 0.338861 0.60255 -0.406878 -0.00088543 -0.890982 -0.347976 0.571735 -0.661108 0.372561 -0.174485 0.110421 -0.966981 0.69742 -0.930743 -0.50746 0.816945 -0.0299955 -0.521824 0.124513 -0.823216 0.875028 -0.702457 -0.841841 -0.40784 0.793301 -0.0619988 0.477503 1.02487 -0.735338 0.0990721 0.938419 0.266205 0.710293 0.950152 0.518993 0.967353 -0.103013 0.60846 -0.52049 0.478004 -0.685447 0.758484 0.41361 0.050783 0.24238 0.541333 0.648412 -0.114381 0.0677925 0.279678 -0.624163 -0.769777 0.0615765 -0.0388048 -0.976852 0.304833 0.20042 -0.591875 0.290864 0.414379 0.331215 0.528949 -0.512866 -0.446032 -0.517801 -0.367446 0.899398 -0.23964 0.780415 -0.457851 -0.755649 0.456188 0.876832 0.680013 0.0135885 -0.325356 0.479798 -0.0744459 0.294192 0.19376 0.740057 -0.16968 0.874172 0.670758 -0.400175 -0.371013 0.946574 -0.00550759 -0.470235 0.72311 -1.00128 0.607581 -0.719883 0.455866 -0.49828 -0.284308 -0.730286 0.126535 -0.4522 -0.590223 0.763129 0.374952 -0.180041 -0.472263 -0.504002 0.0876313 0.0264293 -0.372036 0.679374 -0.52425 0.628346 -0.723601 -0.372131 0.366865 -0.878407 0.272969 -0.985295 -0.895523 
0.546008 -0.21322 -0.968179 -0.641458 -0.232574 0.458307 -0.748667 0.825252 -0.397872 -0.872059 -0.506746 -0.350963 0.0463862 0.563156 -0.399709 -0.825582 0.635521 -0.352408 0.831128 -0.118167 -0.762461 0.0994791 0.119077 -0.269174 0.0581522 0.756752 0.536903 -0.506654 -0.897046 0.205658 0.861169 -0.156851 -0.475586 -0.772538 0.246121 0.976836 -0.727003 0.528766 0.906155 -0.720876 0.389256 0.0377234 -0.197206 -0.64603 0.351386 -0.921416 -0.257289 0.740315 -0.7986 0.854648 0.408821 0.421516 -0.33525 -0.136195 -0.122068 -0.468238 -0.028256 -0.517517 0.666038 -0.0887327 0.880468 0.951075 -0.757432 0.929876 -0.535116 0.500337 0.741949 -0.386365 0.836584 -0.815274 0.000527662 -0.278592 0.693724 0.804787 -0.377833 0.395821 0.956652 0.765944 0.667881 -0.909948 0.268752 -0.857992 -0.485321 0.659029 -0.136271 -0.0607429 0.24297 0.883209 0.884373 0.283253 0.431034 0.344684 -0.198799 -0.28465 0.0591554 0.541733 -0.486802 -0.782533 -0.341437 0.197885 0.0854247 0.474231 -0.576162 0.11593 0.401033 -0.72749 -0.792637 0.807878 0.242202 -0.65977 0.415354 0.174221 -0.307559 -0.287007 0.178481 -0.169268 -0.614974 0.393381 0.0491059 0.200699 -0.842381 -0.831948 0.901867 0.302832 0.750622 -0.919295 0.72079 -0.0261914 
0.841178 -0.532222 0.649611 0.225475 -0.214291 0.941076 0.857126 -0.785651 -0.0755014 -0.0048277 -0.471782 0.923202 -0.0183613 -0.611677 -0.864816 0.596938 -0.371048 -0.0646016 0.00412929 -0.147565 0.238416 -0.87675 -0.545719 -0.379138 -0.855505 -0.494619 -0.508866 0.158541 0.354619 -0.592207 -1.01003 0.675738 0.117497 0.675383 -0.0447998 -0.177924 0.434302 1.01132 0.307569 -0.0494318 0.420884 -0.70635 -0.220699 0.524866 0.825217 0.989032 0.858411 -0.898172 0.665101 0.638424 -0.815745 0.144744 0.576823 -0.908637 0.706514 0.0689582 -0.591861 0.826465 0.964274 -0.247271 -0.941052 -0.74404 -0.267287 0.343811 -0.963819 0.0651803 -0.724905 -0.314904 -0.488066 -0.0168965 0.482286 0.633292 0.0346449 0.357628 0.408191 -0.255971 -0.948628 -0.0705282 -0.566418 0.774156 0.222677 0.69715 0.583473 -0.544369 0.896924 0.0554121 -0.588865 0.665238 -0.251666 -0.139445 -0.0998164 0.281861 0.610402 -0.301093 -0.783024 0.534455 -0.993932 0.714094 0.884937 -0.452635 0.59839 0.196754 -0.329863 -0.585773 0.504482 0.709733 -0.271532 -0.386996 0.757522 0.162724 0.142079 0.973421 0.689582 0.147793 0.899183 0.829736 0.895637 -0.548486 0.171467 -0.630886 -0.377761 -0.374854 -0.119648 0.914992 -0.194714 -0.460987 -0.221942 -0.950709 
-0.395066 -0.565057 0.707032 0.63509 -0.392252 -0.424196 0.558813 -0.846348 -0.750407 0.0215492 -0.499888 0.771187 0.448593 -0.355348 0.780151 -0.513996 -0.731901 -0.449036 -0.67447 0.154267 0.686102 -0.891601 0.66795 -0.598893 0.408448 -0.805608 0.532684 0.164435 0.760835 -0.833188 -0.707061 0.875064 -0.481576 0.188667 0.685244 -0.338068 0.132232 -0.872832 -0.140857 0.976663 -0.923226 0.461866 -0.927531 -0.923612 0.421466 0.0171165 -0.949326 -0.448808 0.251166 0.435792 -0.143191 -0.668361 -0.634885 0.767171 -0.0392507 -0.636418 -0.640269 1.02397 0.983496 -0.667821 -0.873161 0.508118 0.635527 0.757585 0.438817 0.305796 -0.154959 -0.442087 -0.533768 -0.500181 0.0130627 0.862677 -0.670797 0.479488 -0.628242 0.902711 0.362525 0.758443 -0.0540554 -0.0646518 -0.34546 0.661928 0.599055 0.985723 0.860002 0.723314 -0.332279 0.922 0.457762 -0.227824 0.0720919 0.534949 -0.265866 -0.925375 0.931523 0.010654 0.359548 -0.917194 -0.776442 -0.186769 -0.315272 0.864223 -0.130503 0.727059 -0.632266 -0.254658 0.314799 -0.0113457 0.821716 0.684691 -0.838619 -0.590105 -0.695232 -0.242867 -0.00265176 -0.673803 -0.353629 -0.592305 -0.81874 0.49283 0.757611 -0.919405 0.593713 0.0815645 -0.656735 0.917366 -0.516575 -0.749042 
-0.01518 -0.296508 -0.161488 0.808001 0.394082 -0.435179 0.0101078 -0.475299 0.411784 0.201015 -0.712423 0.00393752 -0.707711 0.640896 -0.263387 -0.103584 0.242234 0.466913 0.133598 1.02857 -0.782752 0.811983 -0.178843 -0.717272 -0.725522 -0.863239 -0.356589 0.600642 -0.442792 0.242849 0.461639 0.215893 -0.732527 0.896564 0.0711028 -0.785985 -0.84868 -0.779964 -0.577954 0.0683025 0.253091 -0.388461 0.901747 -0.510102 0.470112 0.578933 -0.146704 -0.459375 0.574293 0.775656 -0.0632438 -0.237761 0.415861 -0.36289 0.9772 -0.0673131 0.486491 0.689955 0.383679 -0.500402 0.959973 -0.769689 0.570077 -0.0273561 0.770538 -0.167031 0.155745 -0.664525 0.544992 -0.377169 0.917411 -0.521832 -0.263832 0.0309899 -0.866331 0.684561 0.411637 0.272815 0.183365 -0.739102 -0.160401 -0.0609443 -0.453508 0.4648 -0.266133 0.82524 0.452863 -0.658955 -0.955131 -0.48071 -0.993586 0.590014 0.931906 -0.56145 -0.140342 -0.863755 -0.604582 0.728764 0.408153 -0.33002 -0.53041 -0.583278 0.0290941 0.096684 -0.586247 0.940695 0.741372 -0.147573 0.852433 0.522631 -0.644943 0.417337 0.174845 0.925942 0.318275 -0.377185 0.114144 -0.682082 0.51666 0.30411 0.677357 -0.41789 -0.223069 -0.556473 -0.577098 -0.406565 0.00950567 -0.74915 
0.120534 -0.404992 -0.138698 0.276543 -0.863861 0.79098 0.924223 0.0218094 0.961006 -0.811599 0.522549 -0.404015 -0.540841 0.0661345 -0.958934 -0.330343 0.255123 0.902618 -0.888076 0.990003 -0.602909 -0.0266627 -0.863755 0.616051 0.915972 -0.258609 -0.863182 0.865594 0.00632921 -0.413068 -0.207873 0.266006 0.816499 -0.928221 0.604802 -0.463507 0.228986 0.117965 -0.885652 -0.576833 0.985444 0.0979206 -0.0999767 -0.336352 -0.197053 -0.138203 -0.808013 -0.355138 0.630334 -0.888019 -0.519897 0.603063 0.0569778 -0.063181 0.111404 -0.459339 0.449697 -0.202893 -0.972155 0.975352 -0.207548 -0.936125 0.674876 0.151002 -0.360402 -0.231118 -0.328866 0.676376 -0.546404 -0.0632561 0.0145631 -0.161071 0.787736 -0.624128 0.993543 0.820403 -0.205113 0.386788 -0.741903 0.641637 0.30476 0.200189 -0.00805431 -0.879579 0.43136 0.367053 0.838614 -0.17708 -0.146306 -0.880814 0.844031 -0.228676 -0.130894 -0.00436599 -0.467614 0.646678 -0.194916 -0.347452 0.968966 0.984499 0.414226 0.379418 -0.959993 -0.95081 -0.462841 -0.535104 0.820878 0.0995286 0.785293 -0.93821 -0.454283 -0.597818 0.20357 0.61986 -0.51833 0.11286 0.873371 0.711958 0.795575 0.0434906 -0.785308 0.209663 -0.537073 -0.201408 -0.0782854 0.414815 -0.335879 0.722736 
-0.572567 0.426388 0.198917 0.338265 -0.885025 0.223967 0.713776 0.560281 -0.817355 -0.995156 -0.200863 0.547179 0.412423 -0.192884 0.643668 0.908738 0.765589 0.961189 0.727491 0.648489 0.435228 -0.666147 -0.647797 0.959171 0.395327 -0.533534 0.832529 0.768988 -0.922227 -0.185793 -0.583301 -0.327666 -0.370528 0.830164 0.332784 -0.1912 -0.687111 0.966762 0.77899 0.82766 0.340533 -0.673423 -0.130432 -0.0780833 0.996939 -0.247634 -0.201815 -0.562499 -0.260422 0.0671619 0.700044 0.525521 -0.281854 -0.275382 0.0687768 -0.31746 -0.950207 0.977874 0.530102 0.38801 0.277127 0.440273 -0.0735031 0.667246 0.751903 0.29413 0.37455 0.47664 -0.860868 0.0529075 0.613004 0.222981 -0.696878 0.734099 0.639149 0.883548 0.869931 -0.173495 0.968451 -0.749893 0.267973 0.234131 0.443521 0.0136124 -0.124591 0.180726 -0.12559 0.915563 0.931145 0.628265 0.794078 0.130099 0.0937934 -0.502331 0.945444 0.708804 0.732107 0.617524 -0.996662 0.29873 -0.255977 -0.953889 0.603597 0.76246 0.393362 0.727493 0.819017 -0.701236 0.244879 0.00382236 0.960294 -0.362812 0.485214 0.542564 0.900147 0.227618 -0.403767 0.0849855 0.529871 -0.0351177 -0.612758 0.906928 0.658737 0.717866 -0.642052 -0.194425 0.61829 -0.695654 
0.588457 0.336963 -0.857881 -0.688872 0.846204 0.442568 -0.514312 -0.615394 -0.679346 0.555697 -0.537079 0.971855 0.131274 -0.143296 -0.574825 0.57931 -0.425833 -0.45619 -0.839364 0.792249 -0.547821 0.747421 0.520023 -0.724876 0.597747 0.647887 -0.110768 0.382518 0.86518 0.964419 0.273706 -0.30792 0.989054 0.0179038 0.0793389 -0.560838 0.853821 0.712943 -0.541923 0.491066 0.51951 0.00558801 -0.740952 -0.615805 -0.937619 -0.89265 -0.666362 0.179308 0.119059 0.722694 0.606938 -0.0805754 -0.582087 0.622807 0.7213 0.451786 -0.447933 0.674759 -0.757922 -0.536772 0.981372 -0.843879 0.394212 0.611966 0.189981 -0.877822 0.71618 0.907154 0.203427 0.851169 0.685172 -0.0904058 -0.398991 0.605778 -0.618773 -0.305256 0.155268 -0.334524 -0.20136 0.871183 -0.605037 0.589557 0.0725311 -0.0577831 0.768992 -0.22119 0.480599 0.856095 0.901785 0.0359367 0.275415 0.0708958 0.660989 0.213193 0.873666 -0.28315 0.785759 0.580864 0.140385 0.747061 -0.989608 0.18193 -0.875426 -0.760336 0.822741 -0.200506 0.472263 -0.737242 0.444988 0.59299 -0.276327 -0.884463 -0.146827 0.0293672 -0.893467 -0.402175 -0.173751 0.323872 -0.753644 0.975352 -0.783814 0.387331 -0.748079 -0.479976 -0.684927 0.634662 0.641264 0.082278 
0.959358 -0.179033 -0.549229 -0.861352 0.840866 -0.25632 0.133782 0.665753 -0.57454 0.984129 0.740649 0.943608 -0.781362 0.364852 -0.690391 0.200558 -0.513575 -0.581829 0.734255 0.506899 -0.354379 -0.233183 0.401206 -0.426998 0.144573 -0.503769 0.988323 -0.00875503 -0.58641 -0.6805 -0.595335 0.115176 -0.364829 -0.681735 0.945552 0.385855 0.913784 0.793205 -0.794184 0.817442 0.563773 0.2738 -0.333535 -0.557544 -0.104742 -0.709181 0.43482 -0.220689 -0.364598 0.465702 -0.0620045 -0.235989 -0.126311 0.19123 0.476917 -0.67442 0.868033 -0.266502 -0.608264 -0.466046 -0.184228 -0.855764 -0.969531 -0.0623231 0.669274 0.446465 -0.0396768 0.336525 0.710824 0.445215 -0.118573 -0.804681 -0.7643 -0.348763 0.604639 0.59723 0.690025 -0.678803 0.708719 -0.665986 0.372242 -0.0372153 0.920169 -0.495806 -0.950807 0.299768 0.217784 -0.0521662 0.991886 -0.303872 -0.255991 0.972259 -0.547112 0.356895 0.0728686 0.450175 0.539458 0.432752 -0.0587512 0.387577 -0.999332 0.730513 -0.163953 0.764572 0.195638 0.685084 -0.0319223 -0.792408 0.968446 -0.125888 -0.669454 -0.253919 0.826128 -0.221246 -0.755612 -0.362135 0.589346 -0.513599 0.698868 0.217188 0.951189 -0.00313882 -0.281377 0.833495 0.110828 0.376074 -0.0750478 0.259748 
0.136241 0.794578 0.0276176 0.753043 0.0455174 0.96738 0.743395 0.97153 -0.188858 0.545284 0.442244 -0.756367 -0.483982 -0.456864 0.616625 -0.659751 0.0570832 0.723019 -0.345297 -0.48176 -0.359169 -0.23253 -0.326914 0.754517 -0.375453 -0.520165 0.232073 0.118944 -0.155484 0.237403 -0.649378 0.737233 -0.200608 0.0691205 -0.480481 0.389614 -0.0232571 0.729123 -0.0769607 0.489799 0.673864 -0.898218 0.59526 -0.716488 -0.800469 -0.926987 0.0236248 0.0729282 0.647686 0.234978 -0.312519 0.147548 -0.894967 -0.675497 0.215706 0.0342854 0.928418 0.127837 -0.317244 0.949832 0.120695 0.767315 -0.586849 0.236835 -0.480175 -0.522665 1.00806 -0.581929 -0.338642 -0.708663 -0.894199 0.861657 0.416784 -0.39703 0.575252 0.0578368 -0.886797 -0.398228 0.468932 0.460277 0.221465 -0.520027 -0.790131 -0.546081 0.475332 -0.264136 -0.449155 0.926508 0.936546 0.387289 -0.0357142 -0.082181 0.942172 -0.198564 -0.579539 -0.609563 0.389815 0.276084 -0.686711 -0.56532 -0.783502 0.600826 -0.0723774 -0.32724 0.776252 0.889573 0.619129 -0.546112 0.721241 -0.917745 0.158847 0.46356 0.392499 0.243737 0.989093 -0.971475 -0.332903 0.751879 0.205313 0.021829 0.36009 0.346861 -0.785325 0.876557 0.697757 0.632158 -0.990633 0.9415 
-0.730371 0.13987 0.798038 -0.229389 0.187654 0.749657 -0.689728 0.729363 0.325535 -0.88369 0.0803701 0.812949 -0.513295 -0.529504 0.612783 0.160752 -0.865553 -0.486704 0.662386 -0.598133 -0.0778743 0.791286 0.613009 -0.470212 0.52428 -0.455222 0.560374 -0.226808 -0.330626 -0.0585299 0.595509 -0.756734 -0.376045 -0.0359643 -0.807776 -0.887026 -0.0513761 0.70275 -0.00737498 0.97116 -0.904514 0.757448 0.216262 0.233764 -0.829354 0.0292749 0.81398 -0.894085 -0.444542 0.806319 0.795564 0.639495 0.691456 0.623797 -0.256395 -0.534113 -0.878111 0.538713 0.910861 -0.468191 -0.516342 0.793062 0.0394593 0.0157587 0.815129 0.321356 -0.0264046 0.978853 -0.870355 0.188069 -0.694792 -0.916923 -0.0796685 0.361005 0.118289 -0.429518 0.603038 0.0808681 0.135007 -0.575332 0.14134 -0.113085 -0.534184 0.461111 0.311896 -0.555703 -0.822575 -0.125329 -0.572048 0.868426 0.415369 0.494785 -0.789681 -0.935465 -0.938809 0.385111 0.258047 0.330397 -0.188512 0.107227 -0.134069 -0.139933 -0.473277 -0.485275 0.460974 -0.962003 -0.767019 -0.926422 0.449193 -0.570823 0.649307 -0.552222 0.739677 0.200945 -0.713322 -0.781479 -0.960681 0.769333 -0.893029 -0.858017 -0.167867 -0.660862 -0.583131 0.374212 0.869179 -0.248753 0.725289 -0.365364 
0.132937 -0.0399743 0.0480751 -0.383252 -0.227916 0.211621 -0.478818 -0.628666 0.547625 0.731704 -0.849372 -0.379433 0.44528 -0.0137214 0.930171 -0.398498 -0.911624 -0.0872903 -0.734749 0.215151 0.941162 -0.505952 -0.566427 0.560845 -0.381653 -0.953981 0.170107 -0.469571 -0.859084 -0.192426 0.370028 0.797022 0.794696 -0.635604 0.19809 -0.395409 -0.63309 -0.574444 -0.189758 -0.891346 -0.444908 0.865664 -0.814332 0.21311 -0.244448 0.267273 0.242509 -0.874661 -0.240429 -0.898407 -0.778997 -0.889012 -0.981784 -0.444059 0.740412 0.922497 -0.62979 -0.257879 -0.315445 -0.346786 -0.306745 0.581638 -0.897115 0.144911 -0.305285 0.547464 -0.376122 -0.991791 -0.543977 0.149384 0.901792 -0.213104 0.389273 0.251101 0.0360819 0.0340536 0.57994 0.923023 -0.916709 0.480857 -0.812226 -0.395223 -0.559911 0.0461452 0.638288 -0.0166496 -0.155998 0.772392 0.759455 -0.796832 0.90175 0.706839 -0.327071 -0.0507044 -0.288434 0.520573 0.110638 -0.877357 -0.29655 0.021811 0.378563 -0.0128684 -0.729778 0.101191 -0.435077 0.415361 0.805681 -0.771637 -0.74731 -0.98636 -0.124587 0.130749 0.169721 0.627978 0.360882 -0.489091 -0.924112 0.839223 -0.64881 -0.622024 0.842709 0.132306 -0.222387 -0.605113 -0.799105 -0.505988 0.86144 -0.136748 
