0.0732609 -0.547475 0.670784 -0.563981 0.84445 -0.548898 -0.409771 -0.93564 0.989891 -0.470296 0.13847 -0.850419 0.495081 -0.504077 -0.0476111 0.632429 0.747556 -0.810076 -0.0437355 -0.905146 0.77075 0.00973286 0.775692 -0.365979 -0.817425 -0.20783 -0.554162 0.935549 0.380486 0.645053 0.791258 0.290057 
-0.522179 0.310416 -0.830681 0.829916 -0.664258 -0.528911 0.661014 -0.469553 -0.357576 -0.965196 0.0509489 0.302159 -0.67632 0.953716 -0.394164 -0.762991 0.0845517 0.123961 -0.987416 0.469072 -0.787256 -0.615156 -0.249256 0.289123 -0.357689 0.468149 -0.128222 -0.166332 -0.548387 0.818113 -0.734166 -0.221983 
0.890214 -0.244016 0.164388 -0.87105 0.64001 0.6343 0.132977 0.9047 -0.250486 -0.535443 0.0867766 0.146062 -0.742041 0.649624 0.641695 -0.84483 -0.422734 0.169457 -0.776933 -0.385284 -0.204942 -0.382296 -0.467395 0.89487 0.600988 -0.747878 -0.916471 0.98221 0.689915 0.0452667 0.113402 0.747435 
0.699606 0.272689 0.0839778 0.835638 0.212279 -0.140851 -0.928542 -0.698999 -0.268296 0.0182016 0.078293 0.682324 0.0614101 -0.878735 -0.708803 -0.477859 -0.932904 -0.179536 0.0735166 -0.299849 0.664115 0.208936 0.11864 0.00340791 0.806063 -0.265526 -0.340934 -0.776079 0.167573 -0.98662 0.785304 -0.511936 
-0.331069 0.0582462 -0.361298 -0.229498 0.408589 0.285535 0.816861 -0.687964 0.556578 0.648741 0.288381 -0.919819 0.0758737 -0.312462 0.123384 0.458326 0.740609 0.515106 0.135364 0.22739 0.873731 -0.964017 0.295985 0.721735 -0.258416 0.917568 -0.791509 -0.527052 0.686661 -0.761608 -0.972056 0.105229 
-0.194673 -0.0702446 -0.589802 -0.713398 -0.959582 0.561929 -0.799951 -0.477831 -0.852612 -0.249708 0.480945 0.729758 -0.832754 0.312482 -0.806215 -0.148029 -0.9405 -0.747542 0.907365 -0.615054 -0.582472 0.468034 -0.573866 0.708133 -0.460886 0.157772 -0.674206 0.262148 0.51401 -0.538634 -0.0049711 0.433755 
0.819487 -0.2217 -0.824085 0.204001 -0.747126 -0.264492 0.81665 -0.355863 0.22384 -0.894355 -0.533221 0.543621 -0.142009 0.583612 -0.25347 0.0591005 -0.226699 -0.889629 -0.825885 0.617209 -0.235305 -0.891053 0.964408 0.910315 -0.810282 0.427082 0.88286 -0.0649585 0.265488 -0.964871 0.376961 0.37119 
0.914701 -0.997908 0.952521 0.501393 -0.97069 0.517255 -0.498094 0.349576 -0.13468 -0.723491 0.341151 0.685581 -0.977809 0.859947 0.935335 -0.875573 -0.850438 -0.662116 -0.490612 0.756477 -0.775491 -0.419145 -0.687922 -0.735472 -0.665515 0.292647 -0.772834 0.766051 0.502336 0.325184 0.137853 0.259307 
-0.549769 -0.247566 0.774233 -0.824586 -0.770934 -0.0586725 0.859671 -0.142952 -0.0609984 0.771721 -0.654122 0.853243 -0.115212 0.237715 0.935557 -0.769976 -0.580626 -0.0224744 -0.857885 0.858941 -0.56588 0.828261 0.402574 0.873415 0.388413 0.367324 -0.682675 0.272142 0.00583101 -0.343267 0.28206 -0.0389529 
0.20142 -0.155692 0.462775 0.412337 -0.11228 -0.30729 -0.350257 0.418205 -0.278425 0.619735 -0.12738 -0.0713677 -0.191129 -0.0102556 -0.572408 0.306139 -0.553323 -0.530389 -0.564998 0.913899 0.429962 -0.571485 0.216063 -0.157003 -0.573076 0.897508 -0.0657413 0.0342463 0.879747 0.285149 0.149593 0.0529633 
0.382481 0.861921 0.662197 -0.115629 0.106602 -0.773202 0.243943 0.214936 0.725392 -0.749856 0.183541 -0.191492 -0.140386 -0.903258 -0.618033 0.299508 0.705482 0.286809 0.823788 0.852636 -0.827275 -0.296431 0.909688 -0.64755 0.526743 -0.665321 0.848358 0.281204 -0.121124 -0.276742 -0.329548 -0.147027 
-0.817979 0.116017 -0.866581 -0.025584 0.128879 0.300624 -0.792934 0.727031 0.687006 -0.121139 -0.257936 -0.906661 -0.260414 0.50563 -0.958766 0.330144 0.904091 0.0838553 -0.898134 0.234 0.143839 -0.381005 0.801497 0.773825 0.259053 -0.796977 0.57986 -0.850626 0.335371 0.198819 0.29399 -0.0201309 
0.0639647 0.307997 0.614767 0.86391 0.92066 0.0564351 -0.32931 -0.107661 -0.152612 -0.375257 -0.381107 -0.77883 -0.458648 -0.940965 0.502713 0.138494 -0.61008 0.454421 0.463694 -0.923272 0.504119 -0.161124 -0.0685516 -0.647208 0.543044 -0.661733 -0.646101 0.869482 -0.0945672 -0.808838 0.921631 0.0398173 
0.492045 0.76331 -0.0511632 -0.683864 0.216976 -0.902787 -0.711567 0.721292 0.988994 -0.0235762 0.175129 0.559764 0.992714 -0.392023 -0.0149454 0.894595 -0.181314 -0.708951 0.168848 0.727952 -0.979885 0.617379 0.287419 -0.824647 0.814609 -0.525271 -0.224092 -0.237822 -0.209926 -0.0110574 -0.300241 -0.2809 
-0.619851 0.755549 0.341833 -0.299429 -0.605286 -0.707347 0.248785 0.691389 -0.874788 0.165128 0.222024 0.339764 -0.756986 0.00599431 -0.013286 0.233453 0.742948 0.797975 -0.0736549 0.46791 0.676959 -0.329268 0.287957 -0.987799 -0.97106 -0.106002 -0.395969 -0.0565577 -0.281702 -0.440423 -0.317691 -0.723438 
0.761092 0.115717 0.809182 0.836262 0.71198 -0.211498 0.544308 -0.75358 -0.70757 0.618972 0.724752 0.783587 0.0454694 0.773408 0.0234941 0.590347 0.345455 -0.831314 0.893036 0.618032 -0.416209 -0.923353 0.926545 0.416675 0.947773 0.851719 0.400621 0.747765 0.0568717 -0.240205 0.669922 0.0640415 
0.184804 0.685578 0.113975 0.676573 -0.386128 0.98676 0.15498 -0.928531 0.0656925 -0.141485 -0.286563 0.725033 0.151243 0.26098 0.308467 0.0444812 -0.334283 0.753162 0.694291 -0.353872 -0.346375 -0.425296 -0.595047 -0.245976 -0.571143 -0.569806 -0.926352 -0.416367 0.985946 -0.545121 0.718097 -0.690492 
-0.823332 -0.0342583 0.987961 0.293302 0.720454 -0.479332 0.815221 0.260259 -0.941972 0.0184562 0.108994 -0.517506 0.960408 -0.422711 -0.34642 0.604122 0.12318 0.338997 -0.578359 0.452767 0.971864 -0.960837 -0.104436 0.273331 0.277541 -0.0788905 -0.56888 0.151124 -0.43297 -0.94302 -0.924979 -0.778643 
-0.566102 -0.513712 0.718085 0.663608 0.799909 -0.0070066 -0.086197 0.471308 0.809953 0.762264 -0.499659 0.349747 0.716926 0.65173 -0.466493 -0.932781 0.638411 0.955288 0.866774 0.0880581 -0.669869 -0.972212 -0.791974 -0.865872 0.354513 0.888114 0.599736 0.795774 -0.412719 -0.938598 0.0167983 0.523504 
-0.916652 -0.827813 0.403461 0.818716 0.867025 -0.93427 -0.275676 0.65672 -0.304184 -0.195819 0.760027 0.551045 -0.732218 0.780691 0.7985 -0.826767 -0.219834 0.838996 0.106041 0.755306 -0.544196 -0.630213 0.746454 0.0891012 0.216338 -0.119217 0.262602 -0.555351 0.910464 -0.646702 -0.164786 -0.276611 
-0.743767 -0.990112 -0.799779 -0.683189 0.481345 -0.738091 -0.904405 0.206248 0.88106 -0.057954 -0.191378 0.325163 -0.125256 -0.353621 -0.612717 0.704897 -0.828227 0.40275 0.19044 -0.153943 -0.880632 -0.466424 0.940062 0.611204 -0.840661 -0.859107 0.479026 0.820674 -0.549601 -0.0638978 -0.708518 0.591007 
-0.394588 -0.626311 -0.550172 -0.0120682 -0.60212 -0.453766 0.724137 -0.696818 -0.351559 -0.177087 -0.158017 0.949534 -0.580919 0.0758988 0.502891 0.083853 0.758397 -0.761634 0.593982 0.156948 -0.0131076 -0.0891283 -0.507495 0.977672 0.134866 -0.0163119 -0.225985 0.698397 0.930902 -0.123976 0.203542 0.700682 
-0.605971 -0.120252 -0.785614 0.0674031 -0.745773 -0.479571 -0.993111 0.169445 0.646317 -0.410616 -0.578833 -0.463773 0.0758771 -0.830148 0.0942736 0.0639325 -0.220482 0.76669 0.904096 -0.64395 0.307677 -0.719333 0.792851 -0.725248 -0.387586 -0.742193 -0.109415 -0.339444 0.0892374 -0.00563777 -0.563998 -0.932752 
0.605756 -0.61755 0.654518 0.983043 -0.666232 0.00622073 0.901195 -0.322545 -0.482542 -0.131405 0.0675064 -0.936123 -0.685468 -0.907812 0.674269 -0.872552 -0.337774 0.787778 -0.856129 -0.0166138 0.145434 -0.678542 -0.666467 0.967542 -0.0427068 -0.68487 -0.658239 -0.665336 -0.0686635 0.954208 -0.550645 0.265797 
-0.644043 0.745567 0.376886 0.710546 -0.145785 -0.487762 -0.717301 -0.630059 0.404024 0.160532 -0.348161 0.741789 -0.0880398 -0.322945 0.586234 -0.686778 0.0556707 0.265195 0.162618 -0.31875 0.958052 -0.676518 -0.937007 0.67751 -0.973102 0.00845392 -0.690611 -0.0661465 -0.430298 0.68182 0.829067 0.41532 
-0.455305 -0.821618 0.999488 -0.00585106 -0.550407 0.912278 0.932407 0.10708 -0.998748 0.603277 0.29182 0.543415 0.686579 0.688646 0.0215989 0.511019 0.633635 -0.860207 0.381849 -0.685865 0.476843 -0.283961 -0.975637 -0.374173 -0.526637 -0.270649 -0.94019 0.646838 0.31096 0.148003 0.820322 0.802949 
0.736415 -0.711843 0.617737 -0.436544 -0.457768 -0.289799 -0.137997 -0.806095 0.600579 0.435445 -0.204436 0.194589 -0.772799 -0.748127 0.954589 0.205261 0.136895 -0.16059 0.0547975 0.129655 -0.796781 0.00504037 -0.786782 -0.333171 -0.899932 0.291464 -0.242291 0.943198 -0.376026 -0.660445 -0.191815 0.764656 
-0.0234001 -0.129815 0.573675 -0.578053 0.940414 -0.486053 -0.254323 0.628759 0.795701 0.490057 0.497068 -0.376149 -0.93637 0.756874 0.575495 -0.869581 0.532358 -0.0186934 -0.483952 -0.792801 0.814852 0.213392 -0.921375 0.100336 -0.928235 -0.635699 0.966948 0.0919262 -0.108206 0.89228 -0.954112 0.499665 
-0.303809 0.392711 0.917225 0.665573 0.914571 0.562116 0.463371 -0.808478 0.730675 0.379715 0.360655 0.248671 0.0663524 -0.671924 0.0855163 -0.568164 -0.382663 0.358993 0.654044 -0.869096 -0.592845 0.914741 -0.921359 0.124951 -0.544899 0.5469 -0.190384 -0.415759 -0.0540379 0.178881 -0.575948 -0.0454234 
0.796638 0.759184 -0.854159 0.124089 -0.309671 0.645797 0.700736 0.0902446 -0.350521 -0.00960437 -0.739729 0.645515 -0.890417 -0.354327 0.524738 -0.503597 0.908479 -0.888767 0.914387 0.377428 -0.629175 0.657868 -0.500356 0.444185 -0.625646 0.494161 0.308439 -0.881023 -0.905042 0.65239 -0.889432 -0.714934 
0.645889 0.630537 0.991636 -0.717806 0.831304 0.473903 -0.277155 -0.998881 0.247405 0.462826 0.340503 -0.470539 -0.899277 -0.509668 0.330012 0.111531 0.649235 0.904695 0.766737 0.456573 -0.213533 0.264111 -0.662389 0.222739 -0.781723 0.423949 -0.442874 -0.713907 -0.864994 0.200009 0.427411 0.515944 
-0.703579 0.0959761 -0.745638 -0.428192 -0.997077 -0.469384 0.0880009 -0.999335 -0.562052 0.904556 -0.521659 -0.289393 0.784642 0.101677 0.0260892 0.0144649 0.62058 0.773235 0.617324 -0.798532 -0.917588 0.437331 -0.564948 0.869054 0.281186 -0.364184 -0.837025 0.143401 0.640381 -0.215977 0.919418 -0.0332052 
0.289896 0.512681 0.318277 -0.569385 -0.598142 -0.463732 -0.301252 -0.724723 -0.020368 -0.864848 0.233819 0.151238 0.857095 -0.967291 -0.379976 -0.726625 0.348308 0.908827 0.672557 -0.380502 0.160239 -0.201298 0.479331 0.00730439 -0.345686 -0.824446 -0.501905 0.200625 0.460844 -0.881662 -0.199411 0.804621 
0.916113 0.137511 -0.861988 -0.443388 0.0619588 0.00542933 0.442918 -0.832176 0.461796 0.226964 0.235172 0.702396 -0.783148 0.352823 0.0497095 -0.34792 -0.689001 0.660262 -0.163805 -0.460264 -0.0410175 -0.435783 -0.784882 0.910268 -0.18492 -0.0561819 -0.260514 -0.0998398 0.0918131 0.934609 -0.636771 0.457699 
-0.547423 -0.155552 0.155227 -0.835037 0.318149 -0.99275 -0.00945581 -0.424365 -0.988496 -0.463606 0.365005 -0.712628 -0.832748 -0.180677 -0.106497 0.315197 -0.0418143 -0.603403 0.646831 0.518516 -0.964378 0.551948 -0.166498 -0.712589 0.323985 0.413553 0.476217 -0.880372 -0.907225 -0.334061 0.764391 -0.177211 
0.443182 -0.584132 -0.170765 0.883905 0.0849168 -0.44124 -0.727571 0.305437 -0.931121 0.577434 0.772939 0.0649754 -0.0243844 0.00207408 -0.664042 -0.954851 0.526831 -0.577223 0.429627 0.95356 0.62536 0.632958 0.291618 0.140389 0.206412 0.602025 -0.171275 -0.493786 0.307883 0.230034 -0.0136441 -0.541356 
-0.502359 0.653146 -0.484315 0.455685 -0.240854 -0.845017 0.232201 0.404364 0.397606 -0.328064 -0.626571 0.0031621 0.984694 0.16428 0.946431 0.109757 0.100893 -0.232466 0.639109 -0.389238 0.904965 -0.135185 0.0442666 -0.888373 -0.533602 0.0981236 -0.137153 0.219731 -0.890936 -0.352319 0.0873017 0.693564 
0.578328 -0.0845796 -0.850996 -0.519521 0.107454 -0.614838 -0.623501 -0.0450042 -0.626884 0.595637 -0.298318 -0.602019 -0.977237 0.928538 -0.640102 -0.899895 0.537798 0.316927 -0.0610537 0.672517 0.0999336 -0.458486 0.470954 -0.312658 0.984934 0.921238 -0.364854 0.505797 -0.173672 -0.507897 0.40067 -0.413458 
-0.924429 0.59764 0.380493 -0.45119 0.772024 -0.341304 0.998213 -0.614137 0.351847 0.814568 -0.338833 -0.182837 -0.270608 0.946093 0.154264 0.0225913 0.427316 -0.504355 -0.859805 -0.194564 0.986396 0.876863 -0.677584 0.293589 0.869049 -0.289371 -0.950243 0.771097 -0.974454 -0.276279 -0.793285 0.575042 
0.945297 -0.0255606 0.219163 -0.312471 -0.548177 0.478109 0.35276 -0.955405 0.499895 -0.204882 0.343786 0.54554 0.435761 -0.297772 0.108759 -0.898027 -0.692595 0.0601814 -0.591743 -0.530577 0.30991 -0.918403 -0.39724 0.757944 -0.920612 0.116293 -0.244437 0.739684 0.00192597 0.028478 -0.20708 -0.254861 
0.566079 0.693561 -0.84003 -0.811642 0.641059 -0.879268 -0.544383 -0.790089 -0.252956 0.616228 0.967308 0.0785357 -0.575276 0.558747 -0.878114 0.805773 -0.53817 0.794842 -0.867708 0.782788 -0.595815 0.427944 -0.600863 0.609455 -0.361113 0.957028 0.873817 -0.413492 -0.131962 -0.946381 0.00649645 -0.344308 
0.405787 -0.3779 -0.774937 0.534374 0.0547629 0.826543 0.608531 0.580317 -0.42001 -0.324818 -0.400515 -0.783781 0.647203 0.536112 -0.833497 -0.751391 -0.733053 0.831238 -0.0401331 0.0258145 0.422591 -0.458419 -0.177941 -1.0151 0.909327 0.191708 0.777757 0.757267 0.181165 -0.414232 -0.826546 0.784004 
-0.00742805 -0.0953428 -0.535565 -0.14187 0.461894 0.7412 0.968027 0.437605 -0.460431 0.440016 0.669491 0.20339 -0.837876 0.663991 0.00647058 -0.0541898 0.98573 0.270316 0.00312822 -0.597599 -0.668277 0.651056 0.657609 0.368227 -0.367139 -0.810265 -0.834057 -0.574733 -0.0969444 -0.779306 -0.733855 0.292089 
-0.926318 -0.602429 0.84478 0.634545 0.598335 0.850864 -0.497107 0.550223 0.986387 -0.0777259 0.442863 -0.766407 -0.118376 0.789635 0.530955 0.250673 -0.525853 -0.407471 -0.0615166 0.221086 0.491565 -0.0958488 -0.895186 -0.892044 0.530444 -0.776425 0.793824 0.249866 0.336341 0.612164 0.790706 0.897342 
0.88639 0.91547 -0.345355 -0.748464 0.859982 -0.953553 0.0592495 0.938509 -0.0553621 0.128078 0.206667 0.524189 0.74727 0.0732529 -0.270891 0.775734 -0.0176903 -0.345584 0.77641 -0.842821 0.450463 0.526331 -0.0330148 -0.850157 -0.176051 0.423395 -0.521033 0.540069 -0.469904 -0.563146 -0.0632202 0.575645 
0.309325 0.540759 0.644997 0.596479 0.189459 0.542094 -0.423415 -0.384317 -0.265462 -0.300849 -0.697139 -0.0145724 1.006 0.0291498 -0.04328 -0.314308 0.125831 0.959491 -0.419187 0.950195 0.618042 -0.935849 0.157405 -0.650974 -0.536905 0.722818 -0.851145 -0.162501 0.693846 -0.565787 -0.422752 -0.178637 
-0.414645 -0.239285 0.863637 0.0556892 0.844415 -0.0480466 -0.49343 0.248936 -0.963864 -0.203773 -0.533596 -0.207905 0.47995 0.978832 0.834022 0.0721897 -0.772806 -0.673042 0.577665 0.890296 0.175405 -0.332208 0.904162 -0.00946177 0.020533 0.0754358 -0.358552 -0.674556 -0.380155 -0.542495 0.938459 -0.781438 
-0.42612 -0.885874 0.794046 -0.960009 -0.57248 0.196077 -0.418027 0.444827 0.298065 0.707497 0.0174266 -0.883918 0.248611 -0.918893 -0.57909 -0.879612 0.248801 -0.24444 0.331069 0.511131 0.605788 0.760664 0.942256 0.0877644 -0.19878 0.140589 -0.538543 -0.54633 -0.732803 0.670445 -0.876586 -0.709796 
-0.177003 -0.624305 0.862511 -0.462375 0.425145 0.654559 0.540792 0.0387202 0.963645 0.96093 0.024483 -0.751936 -0.0380636 0.966412 -0.0906213 0.94425 -0.288201 0.452013 -0.814603 -0.179435 -0.480154 0.531156 -0.336063 -0.43494 -0.00791068 0.848519 0.20452 -0.0800787 0.0444293 -0.156248 0.779758 -0.476815 
-0.286844 0.90401 -0.180975 -0.0984127 0.462625 -0.280168 0.504675 0.118142 -0.217253 0.980174 -0.727074 0.444527 -0.781636 -0.778141 0.555894 0.6472 -0.721952 -0.688942 0.0861313 0.56235 0.275074 0.856674 -0.302682 0.716837 0.695689 -0.10246 -0.447008 -0.459168 0.239617 -0.825313 -0.278647 -0.166209 
-0.790744 -0.537713 -0.872995 -0.204345 -0.069278 -0.384093 -0.839222 -0.162622 -0.566634 0.825543 1.0112 -0.0985802 -0.969654 -0.690414 0.649447 0.972234 0.640917 0.51698 -0.0200389 0.303042 -0.996077 -0.0713793 0.417263 0.375727 -0.181844 0.612158 -0.573002 -0.891106 0.397722 -0.563823 -0.668612 0.950476 
0.0210983 -0.714115 0.676043 -0.923863 -0.689525 0.0602478 0.899451 -0.392922 0.509147 0.211564 0.798679 0.620292 -0.401419 -0.663232 0.647227 0.372525 -0.364184 0.904267 -0.555931 0.972721 -0.909896 -0.109855 -0.347009 0.881529 0.882181 -0.291269 -0.287815 0.0538422 0.367866 0.618338 0.231798 0.119908 
0.142468 0.938975 0.759845 -0.220266 0.262432 0.920055 0.599125 0.0374009 -0.861093 0.844752 -0.279482 0.540703 0.325911 -0.482659 0.566558 -0.612882 0.158942 -0.707623 -0.694932 0.834073 -0.233031 0.157724 -0.724862 0.786688 -0.228625 -0.719542 0.767408 0.143624 0.133707 -0.84912 0.0481312 -0.611646 
-0.3392 0.336242 0.229711 0.350429 0.500559 -0.31532 0.723731 -0.723088 0.276794 -0.828035 -0.0733494 -0.744621 -0.325633 -0.913551 -0.486928 -0.976021 0.416219 0.297779 0.230331 -0.227448 0.158725 0.321697 0.048784 0.502408 -0.701955 -0.371022 -0.491856 -0.331935 0.144402 0.473475 -0.595809 -0.523196 
0.124549 0.940767 0.371396 -0.116624 -0.191489 0.349905 -0.893895 -0.378032 0.382344 -0.0892652 0.928552 -0.291478 0.0995976 -0.75552 -0.145109 0.300765 0.779902 0.492666 -0.75555 -0.104775 0.27648 0.825647 -0.587678 -0.309711 0.766285 -0.0996369 -0.419121 0.187047 -0.772979 0.774534 0.236611 0.634452 
-0.939509 -0.0840875 -0.941404 0.421432 0.590224 0.48513 0.84089 0.928384 -0.784416 -0.1736 0.727211 0.834974 -0.329529 -0.730068 -0.996297 -0.479327 -0.630659 0.29584 -0.903271 0.909703 0.682576 0.223757 0.700904 0.171254 0.428827 -0.2745 0.355223 0.350199 0.664652 0.12084 0.495843 -0.273637 
-0.757231 0.248318 -0.868616 -0.207852 0.737516 0.655298 -0.673717 0.669595 -0.353927 0.44124 -0.272719 -0.361326 0.271534 -0.795087 -0.181824 -0.788905 0.969133 0.348928 -0.543085 0.245116 -0.503523 0.444186 -0.0088578 -0.570884 -0.326366 -0.570699 -0.371342 0.246071 0.956075 0.181002 -0.37171 0.776181 
-0.24527 0.476233 -0.238839 -0.147336 -0.281519 0.18732 0.00640479 0.478868 -0.891307 0.491533 0.71604 0.396602 -0.365472 -0.70453 -0.079803 0.362322 0.262512 -0.0270532 -0.798049 0.254654 0.569795 0.82494 -0.894551 -0.521443 0.638016 -0.982257 -0.519225 -0.77346 -0.215914 0.513334 -0.448107 -0.139939 
0.627847 0.978131 0.829541 -0.386403 0.727295 0.236318 0.4474 -0.788135 -0.527392 -0.232494 -0.378775 -0.336448 0.945687 -0.426739 0.0539107 -0.420452 0.687547 -0.475034 0.0967031 -0.00720167 0.94814 0.302219 0.999221 -0.829997 0.543339 -0.0437112 -0.776626 0.474837 -0.508108 0.689703 0.0653198 0.951412 
-0.0583033 0.791124 0.528521 -0.198866 -0.386954 0.616142 -0.499992 0.591046 -0.465778 0.447675 -0.362153 0.425748 -0.18031 -0.062816 0.266486 -0.963975 0.329193 0.551132 -0.050385 -0.451004 -0.560748 0.49522 0.931894 -0.482705 -0.138511 0.910951 0.119892 -0.937884 0.318183 0.345782 -0.342452 0.285674 
-0.202874 -0.913119 -0.908252 -0.770526 -0.526616 0.762615 -0.552339 0.405942 -0.298312 -0.123158 -0.511778 0.174669 0.285945 0.106619 -0.103756 0.840672 -0.0157864 0.585491 0.512453 0.378622 -0.162395 0.388295 -0.172471 -0.483445 -0.810423 -0.98332 0.719823 -0.770397 -0.00999218 -0.455754 0.894604 0.628854 
-0.287173 -0.876005 0.479281 -0.472168 0.423841 0.14203 0.539906 -0.0383354 -0.00871437 0.8334 -0.458366 0.780613 -0.690713 -0.0506316 0.809256 -0.0699747 0.809965 -0.43913 -0.635808 -0.86634 0.542928 0.768593 -0.238071 -0.443015 0.632949 0.476201 0.258521 -0.67254 0.0905748 -0.588595 -0.869067 -0.270629 
-0.701494 0.914811 0.816963 0.121425 -0.614093 -0.164123 -0.621838 0.511782 0.806789 0.0110259 -0.902744 -0.534669 0.296781 0.890955 -0.317698 1.01857 -0.325461 -0.953707 -0.278771 0.45555 0.922034 0.368469 0.853149 0.529018 0.225296 0.228173 0.305141 0.912205 0.41646 -0.795667 0.0934674 0.195497 
1.03529 0.37319 -0.00543594 -0.842485 0.753867 0.552938 0.24447 -0.505064 -0.657014 0.56586 -0.331096 -0.121687 0.447618 -0.599327 0.585603 0.957238 -0.461606 -0.254417 0.764896 -0.820161 0.417389 -0.151806 -0.978445 -0.0267751 0.881321 -0.236561 0.0264446 0.644294 -0.108601 0.137128 0.393009 0.213274 
-0.278973 0.738508 0.552918 -0.71694 -0.519975 -0.092055 0.538882 0.662169 0.833268 -0.0109967 0.038293 -0.649903 0.0588765 -0.586514 0.649646 0.80231 -0.821299 0.157505 -0.517123 -0.27094 -0.854004 -0.430696 -0.294828 0.0557342 0.84033 -0.447675 -0.412601 -0.0592046 0.554623 -0.0832905 -0.496864 -0.0589063 
0.625471 -0.121007 0.163477 -0.755041 -0.476548 -0.918277 -0.145297 -0.390204 -0.0244931 0.448512 0.941823 -0.296744 0.961429 0.0339542 -0.603966 -0.329029 -0.746129 -0.770962 -0.658529 0.617914 0.103963 -0.424264 -0.555678 -0.0394989 0.67915 -0.559739 0.994333 -0.29017 -0.867832 0.0270102 0.070354 0.55074 
-0.485658 0.855347 0.89613 -0.196364 -0.0918718 0.656184 -0.00264822 -0.50151 -0.16322 0.733466 1.19802 0.336281 0.00340671 -0.637552 0.388547 0.424366 0.239411 1.04 0.0453844 1.0641 -0.863837 -0.399189 -0.0605904 -0.780563 -0.433465 -0.312399 -0.333333 -0.501152 0.363056 -0.144199 0.663039 0.577236 
-0.755888 0.631323 -0.372819 -0.44165 0.225727 0.13082 -0.0231285 0.260244 0.240987 0.121364 -0.415994 0.487592 -0.120297 0.217737 0.489383 0.69357 0.383016 -0.533592 0.65242 0.201551 0.650468 -1.07317 0.769747 -0.31487 0.436253 0.63314 0.68808 -0.896956 -0.778192 0.666909 -0.83072 -0.441391 
-0.0635386 -0.310386 -0.762911 0.75673 0.375158 -0.726641 -0.110647 -0.399225 0.546289 -0.501178 0.937193 -0.276772 0.258514 -0.0580336 0.620657 0.038312 -0.113947 -0.637591 0.799258 0.0959601 -0.929386 0.438119 0.326947 0.134978 -0.0650678 -0.0341095 0.79023 -0.773251 -0.489556 0.37433 0.957397 -0.468039 
0.878992 -0.293843 -0.302191 -0.809423 -0.59323 0.0923364 0.606359 -1.01636 0.73285 -0.785772 0.714511 0.242936 0.843476 -0.438726 -0.0874141 0.233679 -0.727915 -0.809941 0.0872786 -0.590233 -0.559766 -0.83971 0.72241 -0.165367 0.32643 0.92408 0.557347 -0.0346086 0.281946 -0.850329 -0.280731 -0.765518 
0.78123 -0.861637 0.48412 -0.993626 0.692843 -0.121316 0.669083 -0.507044 -0.162003 -0.13371 0.620627 -0.37566 0.864925 -0.0877869 -0.754423 0.076833 -0.593041 0.760878 0.262293 -0.0926551 -0.33428 -0.349281 0.72606 -0.352396 0.857307 1.02009 0.915412 -0.157244 -0.342821 0.0462714 0.318384 0.745836 
-0.116908 0.692545 -0.540325 0.329101 0.351293 0.49812 0.951149 0.60711 -0.247412 -0.653128 0.387841 -0.0810844 0.196706 -0.384229 -0.201482 0.837964 -0.813701 -0.394164 -0.228685 0.22035 0.484605 -0.400738 -0.894866 -0.365347 0.609054 0.471336 1.07107 -0.534501 -0.239601 0.318538 0.0824214 -0.525979 
0.0808331 -0.958789 0.00330366 0.46362 0.71433 0.11002 -0.120413 -0.365845 -0.0721256 -0.243417 -0.0511927 -0.253046 -0.688724 0.625301 -0.707478 0.953027 -0.804786 -0.0904906 -0.171086 -0.531811 0.145688 0.12068 0.257401 -1.14007 0.46434 -0.14449 -0.918093 -0.0224969 -0.915284 -0.494062 0.864329 0.183524 
0.601287 -0.907828 -0.759192 -0.108738 -0.359198 -0.155511 0.193462 -0.448181 0.551578 0.262606 0.93451 0.969795 0.357337 -0.871036 -0.826603 0.605176 0.371565 -0.431966 -0.615603 0.560311 -0.792514 -0.839573 -0.539813 0.506056 0.759602 0.915567 0.361974 0.731529 -0.886193 -0.723516 -0.530353 0.860548 
-0.0635052 -0.505702 -0.279544 0.183757 -0.833235 0.723915 0.133821 0.338593 0.188978 -0.845037 0.250394 0.0853686 -0.358331 0.966685 -0.286246 -0.175621 0.381839 0.346175 0.277797 0.846483 0.567967 0.229343 0.396216 -0.306072 0.857985 0.307605 0.150716 -0.128173 0.034278 -0.661717 -0.484195 0.972681 
-0.808477 -0.629822 0.692509 -0.333585 -0.860979 0.328561 -0.433378 -0.641307 -0.211414 0.846824 0.257957 1.02986 -0.712455 -0.205458 -0.841256 0.233268 0.93828 -0.812431 0.0436987 -0.454068 -0.154525 0.226641 -0.797176 -0.945836 0.793885 0.1429 0.0182864 -0.570559 0.57601 -0.179656 0.884654 1.02014 
0.921057 0.66412 -0.986924 0.658057 -0.184194 -1.03901 0.826365 -0.914995 -0.254532 0.210402 -0.30482 -0.239778 0.0630757 -0.397098 0.955456 -0.634505 -0.396077 0.073848 -0.231705 -0.735582 -0.114636 -0.184694 -0.506546 0.273993 -0.231615 0.323887 1.02096 -0.0118804 0.750959 0.803876 -0.434499 0.912984 
0.480021 -0.0263931 0.244185 0.146733 0.30826 0.127647 0.945311 -0.810993 0.732752 -0.527176 -0.147298 0.355099 0.102942 -0.721036 0.743577 -0.720245 -0.831247 -1.02726 -0.491211 -0.749508 0.685379 -0.728261 -0.413487 -0.88145 -0.721909 0.491303 -0.800925 -0.0820566 -0.349317 -0.657492 -0.293472 0.312198 
-0.594357 -0.670972 -0.492917 -0.0240877 -0.0730398 0.225481 -0.728882 0.605286 -0.583874 -0.943521 1.16924 -0.556686 -0.822579 -0.130235 -0.884983 0.164415 0.420891 -0.971555 -0.834045 -0.638757 -0.231095 -0.809093 0.441108 -1.04243 -0.0276576 -0.209525 0.760355 -0.63363 0.645988 0.708148 -0.977957 0.518539 
0.364344 0.0213005 -0.979959 0.371684 -0.218536 -0.242356 -0.910067 -0.972881 0.326468 -0.217099 0.521578 0.0416568 -0.533876 0.743059 -0.535065 -0.529911 -0.808191 0.233887 -0.548625 0.477602 -0.000898956 -0.803973 -0.685529 0.802645 0.366094 0.894997 0.354446 -0.273453 -0.485592 0.339005 0.714465 0.191308 
-0.124797 -0.597515 -0.629515 -0.465823 0.746687 -0.534208 -0.027234 0.0453002 -0.956699 0.828958 0.298817 0.477451 -0.424886 0.54871 -0.547063 0.835158 0.302598 0.117627 -0.949616 -0.650244 -0.0795443 -0.310024 -0.852762 0.401169 -0.932913 0.327242 0.292291 -0.331034 -0.0871049 -0.760835 0.714713 0.641799 
0.507349 -0.48336 0.80632 0.894196 -0.789143 -0.877394 0.909409 -0.000749422 -0.718509 0.487641 0.971431 0.551553 -0.340483 -0.176667 0.968799 0.41521 -0.624661 0.706055 0.220207 -0.0325092 0.73654 0.775825 0.622888 -0.867978 -0.0359577 0.446341 0.00704728 -0.228234 0.267387 -0.473592 0.809914 -0.401238 
-0.968166 -0.35405 0.953778 0.632576 0.700839 -0.241813 -0.914635 -0.723492 -0.26368 -0.795229 -0.609144 -0.409566 0.779633 -0.498363 0.291918 0.45115 0.565872 -0.808867 -0.1732 0.223583 -0.129981 0.66265 0.473497 -0.498307 0.0950189 0.235023 -0.0902847 -0.444516 -0.270509 -0.415191 0.780165 0.54597 
0.651686 0.497514 0.744486 -0.0943187 -0.155009 0.231037 0.238222 -0.789516 0.807345 0.637757 0.676069 0.685922 -0.618343 -0.146573 -0.933087 -0.568883 -0.0918622 -0.243588 0.87785 -0.859364 0.914463 -0.70369 0.580935 -0.402059 -0.163268 0.738197 -0.364283 0.326429 0.681736 -0.795042 -0.180319 0.991228 
-0.604179 -0.847537 0.818526 0.472991 -0.899592 -0.31465 0.15529 0.31535 -0.0849818 0.173394 -0.674536 -0.547519 -0.846233 -0.833308 -0.303594 -0.683216 -0.537266 -0.00511229 -0.632155 0.862293 -0.640065 -0.618281 0.176011 0.777373 -0.829637 0.667749 -0.0512749 0.114665 -0.410364 -0.827649 0.243587 -0.0215736 
-0.494071 -0.810132 -0.129737 -0.122048 0.495733 -0.377634 -0.347132 0.629433 0.524338 0.00463777 0.34139 -0.559718 0.510321 -0.189442 -0.0538691 -0.906363 0.691179 0.184375 -0.61577 0.878696 0.385573 0.317706 -0.850753 0.709593 0.730973 -0.274238 -0.36107 0.146872 -0.697694 -0.316695 0.45118 -0.650505 
-0.551661 0.278179 0.411822 0.433029 0.259355 0.0627385 -0.891094 0.697371 0.241622 0.963349 0.984958 -0.658574 0.578328 -0.513688 -0.0726536 -0.832816 0.169083 0.261625 0.974044 -0.0853508 0.157869 0.794859 0.552066 -0.193544 0.790188 -0.0838703 -0.50453 -0.380618 -0.481841 0.146848 0.909147 0.111854 
-0.454522 0.224289 0.974901 -0.752836 -0.82627 -0.727261 0.73765 -0.843384 0.347917 0.49199 -0.796388 0.865133 0.738103 -0.79026 0.896993 -0.972705 0.505444 -0.264387 0.474526 -0.867081 -0.514908 -0.823608 -0.301313 -0.0858443 -0.846174 0.160468 0.199079 -0.793348 -0.548697 -0.0755346 0.598713 -0.0700681 
0.293997 0.358004 0.846532 -0.399062 -0.607874 0.992913 0.362404 0.0182447 0.505459 -0.459724 -0.495714 0.17474 -0.289751 0.78607 0.350611 0.225173 -0.488122 -0.665496 0.75585 0.330578 -0.185191 0.829922 -0.339793 -0.324965 -0.372253 0.0895394 -0.269757 -0.943115 0.36964 0.125475 0.142005 -0.221285 
0.0635019 0.726499 -0.987537 0.498666 0.49374 0.295295 -0.399573 -0.902709 0.564261 0.628051 -0.517006 1.00776 -0.342397 -0.525367 0.121121 -0.827376 0.209513 0.0324592 0.814475 -0.535386 -0.841274 0.720747 -0.889 -0.0328928 -0.640226 0.284228 0.231116 0.511526 0.644951 0.14558 0.776297 0.150291 
-0.436824 -0.695198 0.514778 0.547412 -0.464237 -0.783973 -0.30376 -0.716192 -0.740361 0.740457 0.360822 0.18639 0.703329 0.501298 -0.308913 0.337405 0.116658 -0.2081 -0.474037 0.959183 0.403309 0.799215 0.543808 0.583464 -0.14157 -0.603524 0.57229 -0.188797 -0.041362 -0.229082 0.00285475 -0.675359 
-0.701361 0.210431 0.0081771 -0.114912 -0.573432 -0.816268 0.0110466 -0.651244 -0.994933 -0.838202 -0.608908 0.199089 -0.448399 -0.124778 -0.012668 -0.872478 0.32376 0.42688 -0.624536 -0.897406 0.201773 0.140344 0.839069 -1.18547 -0.388911 0.582044 0.147134 0.367088 -0.107198 -0.82752 -0.549466 -0.27902 
0.686424 -0.868413 0.117431 -0.140944 0.412078 0.549758 -0.219882 -0.533051 -0.258662 0.30734 -0.065702 -0.118514 -0.294952 0.24172 -0.988119 -0.64486 -0.139164 0.927443 -0.718881 -0.378385 -0.854797 -0.730945 0.00246572 0.130708 0.443757 0.480174 0.450424 -0.323033 0.257161 0.121077 -0.0728158 0.0660323 
-0.565013 -0.252284 -0.761549 -0.106042 0.914859 0.383313 -0.255276 -0.305716 0.15995 -1.02136 1.09762 -0.633324 -0.789779 -0.605893 -0.955338 -0.165875 0.422586 0.926804 0.33077 -0.168838 -0.14667 -0.00657084 -0.457869 -0.916124 0.427985 0.970557 -0.57107 0.658886 0.308605 -0.952493 0.792733 0.0665288 
0.214027 -0.750174 0.166333 -0.932484 0.227865 1.00041 -0.962162 -0.166771 -0.227023 -1.05959 -0.126901 -0.973236 -0.768449 0.0270018 -1.02029 1.00463 -0.814555 0.81097 -0.139525 -0.77228 -0.524108 0.324727 -0.622296 -0.874774 -0.686908 -0.420955 0.475684 0.215303 0.376659 -0.274467 -0.185733 0.233866 
0.239061 1.17943 0.601031 -0.491859 -0.575038 -0.787465 -0.812173 0.00182222 -0.777674 -0.856759 1.21521 -0.870899 -0.312219 -0.863693 -0.939708 -0.0978688 -0.402761 0.0142262 0.167685 -0.238768 0.29571 -0.094609 -0.11572 -0.525724 -0.78516 0.956382 0.699853 0.849451 -1.00856 -0.133608 0.381736 -0.383654 
-0.0829374 -0.665293 0.2509 0.2047 -0.625189 0.86828 -0.479224 0.152903 0.608744 -0.318584 0.176818 -0.487575 0.464785 -0.114607 0.954198 -0.350909 -0.778207 0.135866 0.320284 -0.253198 0.358698 -0.666615 0.665546 -1.49411 -1.58487 1.07244 0.42985 -0.61825 -0.587213 0.48849 -0.865231 1.1718 
-0.443348 0.142661 0.985035 0.349314 -0.564184 0.66666 -0.546343 0.448039 -0.615988 -0.924476 0.479184 -0.172458 -0.922723 0.274305 0.0314089 0.0733006 0.0585447 0.214517 -0.327914 0.560004 0.247958 -0.244228 0.127622 -0.54572 -1.35058 0.22809 0.43771 0.314993 0.312984 0.0478378 -0.199546 1.28043 
1.09594 0.915762 0.538408 -0.458206 -0.517051 0.687599 -0.410364 -0.700556 -0.899733 -0.738709 1.14747 0.788027 -0.238257 0.334141 0.15731 0.00883568 -0.272483 1.41604 -0.127896 0.282839 0.131327 -0.404604 0.707605 -0.976797 -0.926094 0.932878 0.255623 0.211803 -1.15319 0.666938 -0.452804 1.28833 
0.841574 0.55126 -0.122583 -0.459675 0.504135 0.573555 0.353311 -0.212463 -0.402258 -1.16366 -0.0768099 0.159641 -0.0734092 -0.510582 0.126544 0.966523 -0.0280493 -0.306439 0.838655 -0.291225 0.497895 -0.0546079 -0.697829 -1.17056 -1.13881 -0.0771658 0.379196 0.906223 -0.378694 -0.805791 -0.0407391 -0.454781 
0.130437 0.490518 0.673863 0.308086 0.701051 -0.499602 -0.423491 -0.694602 0.0439198 0.0325409 0.18934 0.465243 -0.521434 -0.387075 -0.240281 -0.16897 -0.660619 -0.399968 -0.745819 0.230129 0.539826 0.657776 0.711854 0.12373 -0.352087 -0.171244 0.941828 0.480972 0.230557 0.560542 0.121444 0.0298345 
-0.0694754 0.539015 -0.685951 0.889734 0.127223 -0.106525 -0.411953 0.119394 0.775251 -0.43511 0.0125804 -0.072122 0.538864 0.804745 0.162878 0.14592 0.0859209 0.881488 0.225997 -0.983658 0.657918 -1.16106 0.20205 -0.577232 -0.676021 0.76522 1.15893 0.20912 -0.602535 0.718067 -0.0130509 -0.580745 
0.568011 0.714916 0.453369 0.727713 1.07607 -0.790256 0.0806123 -0.792122 -0.517156 0.178517 0.310518 0.182483 -0.939739 -0.370865 0.38306 0.713771 0.203596 -0.801734 -0.173426 0.29231 -0.935437 0.547517 0.567804 -0.147905 0.717734 0.33359 -0.220831 0.0513984 0.479041 0.850354 -0.501628 -0.208246 
-0.0190469 0.376287 0.514531 -0.722946 -0.591647 0.200108 0.292053 0.0114645 0.259797 -0.177734 -0.384825 -0.553154 -0.660146 0.69286 -1.001 0.627459 -0.207878 0.701865 -0.363102 0.738358 0.656363 0.692794 0.842889 0.0258433 -0.363532 0.0422653 0.769307 -0.117377 -0.28408 -0.432163 -0.261001 -0.512934 
-0.323153 -0.0534251 0.388907 0.560179 0.449261 0.352341 1.47377 0.342552 0.190347 -0.824213 0.607499 0.703133 -0.694052 0.885805 0.52651 0.0431108 -0.451612 -0.706354 0.19117 1.04354 -0.766832 -0.144183 0.632213 -0.876325 1.15484 -0.12645 0.954117 -0.775764 -0.533064 -0.329705 0.719305 -0.489622 
0.156333 -0.169557 -0.820014 -0.182952 -0.173425 0.295624 1.08479 -0.0216213 0.0752031 0.191261 0.555377 0.274723 -0.792211 0.276035 0.756749 -0.274562 -0.61839 0.0972776 -0.203704 -0.486272 0.28332 -0.310069 0.946044 -0.94089 -0.362489 0.757913 -0.166759 0.95832 -0.409012 -0.564758 0.656268 -0.0985618 
0.257676 0.988742 0.226771 -0.479328 0.950117 0.879165 0.199335 0.338377 -0.628724 -0.0917952 -0.622402 -0.418358 -0.519833 0.0419454 0.38814 0.922239 -0.830054 -0.71189 -0.817322 -0.711291 0.354214 0.437789 0.220388 -0.816991 -0.238523 0.497594 0.319332 -0.158043 0.846538 -0.0818231 -0.657653 0.77048 
0.404494 -0.350445 0.945134 0.677008 0.771224 0.241026 -0.606985 -0.977226 -0.622375 0.625919 -0.744319 0.874718 0.310682 -0.843576 -0.054627 0.142864 0.615864 0.1358 -0.810325 -0.154565 0.827887 -0.437231 0.803775 0.677869 -0.670335 -0.903065 1.08928 -0.523082 0.0537664 -0.00315759 -0.515396 -0.922861 
0.462866 0.631222 0.834462 0.0580166 0.140804 -0.688615 -0.931073 -0.48252 0.696725 0.492404 0.707234 0.745868 -0.491701 -1.13456 -0.966347 0.134356 -0.620034 0.194891 -0.0220213 0.49252 -0.42153 -0.553873 0.455442 0.843577 -0.744779 -0.526106 -0.743395 -0.386752 0.403484 0.983088 0.484382 -0.674852 
1.00662 0.208399 0.365049 -0.442555 -0.634762 0.0648359 0.182497 -0.132651 -0.141723 0.551821 -0.314556 -0.931471 0.777116 0.63814 -0.17895 -0.332176 0.124919 0.138745 0.990351 0.175777 -0.816696 -0.584417 0.828557 0.715311 -0.197039 -0.946477 -0.299422 0.33521 0.654602 0.615258 -0.289406 -0.131535 
0.614524 -0.628421 -0.653869 0.0509056 0.238255 -0.569398 -0.553753 0.934036 0.530759 -0.390365 -0.323923 -0.741772 0.98567 0.77353 -0.47975 0.978758 0.763495 0.701911 0.834333 -0.831259 0.168578 -0.901571 0.241809 -0.611444 0.482304 0.11592 -0.599242 -0.712679 -0.318752 0.752329 -0.0613773 0.366148 
-0.25831 0.0747333 -0.357864 0.335746 -0.33105 0.253323 0.788378 -0.971349 0.940405 -0.875617 -0.71264 -0.929725 0.355867 0.877495 -0.0825454 -0.421546 -0.0604951 -0.41814 0.406261 -0.585135 -0.940657 0.633411 0.515805 0.278623 -0.123254 0.82019 -0.605819 0.822383 0.200883 -0.940558 0.829306 -0.852729 
-0.712759 0.920427 0.913908 0.540489 0.656143 0.511624 -0.391833 -0.863064 0.582778 0.102113 0.32504 0.955346 -0.158909 0.867746 0.905445 -0.0435603 -0.943993 0.0486034 -0.0223689 -0.397114 0.253023 -0.343874 0.340849 -0.451003 0.714804 -0.57867 -0.5123 -0.323861 -0.494325 0.904792 -0.976563 0.549613 
0.297604 -0.544387 0.0627748 0.0914069 -0.33995 -0.970567 0.350482 0.366578 -0.421146 -0.860447 0.999338 0.401866 0.125301 0.502443 -0.369698 -0.0770509 -0.282621 -0.794408 -0.15357 0.913365 0.555325 -0.519472 0.851791 0.679343 -0.365053 0.594024 0.457546 -0.201908 0.504006 0.626311 0.842739 -0.526448 
-0.564657 0.621919 0.77365 -0.253753 0.299675 0.238875 -0.0884787 0.455625 -0.00700354 0.0788519 0.923981 0.464111 -0.516986 -0.485082 0.0920981 -0.0268647 0.89425 0.590792 0.729531 -0.419236 0.108225 -0.468395 -0.337884 -0.983082 0.58216 0.334747 0.833587 0.693574 -0.305456 -0.638779 -0.875467 -0.339041 
0.972805 0.78145 -0.391106 -0.199339 0.0120217 -0.754063 -0.557235 0.669663 0.48088 0.733922 0.0920278 -0.621461 -0.447384 -0.340005 0.277707 0.693555 -0.129386 -0.482608 -0.394082 0.35474 -0.645116 0.204423 0.991801 0.215436 -0.784216 -0.536508 -0.708365 0.800597 -0.932858 -0.497052 -0.507584 0.606788 
0.798274 0.335386 -0.928952 -0.72644 0.161016 -0.809347 0.947864 0.45235 0.596347 0.880295 0.233989 0.848277 0.0525767 -0.317101 0.172539 -0.472385 -0.681984 -0.574555 -0.436514 0.351766 0.589146 -0.455913 4.11652e-05 0.39108 0.915146 -0.746122 0.638658 0.868271 0.204591 -0.0278862 -0.272291 0.536697 
0.585375 0.893308 0.633999 0.826856 0.132362 0.779774 -0.480809 -0.114518 -0.0888808 -0.0618838 0.135658 -0.563827 -0.939316 0.350381 -0.321102 0.856203 0.647765 -0.940356 0.26078 0.404046 0.621952 -0.659804 -0.0870413 0.454657 0.0474516 -0.0323239 0.335918 -0.288633 -0.00831333 0.604592 0.932015 0.576782 
-0.00788487 0.93131 0.615539 0.687734 -0.509275 0.887534 -0.583327 0.73107 0.596954 0.43185 0.291464 -0.0327211 -0.413343 0.610677 -0.298814 -0.44452 0.01459 -0.379218 -0.189037 0.42977 0.191758 0.740165 -0.962223 -0.422664 0.118196 0.0690786 0.350126 0.0354644 -0.669076 -0.400263 0.169874 -0.185675 
-0.487961 0.955499 -0.180979 -0.201776 -0.386477 0.814418 0.561411 -0.846554 0.06572 0.101048 -0.506011 0.937126 -0.549499 -0.383358 0.490064 -0.733 0.406618 0.388788 -0.499907 0.597295 -0.349162 -0.215952 -0.164039 -0.50967 -0.197802 1.00763 0.576601 -0.376256 -0.656412 0.418293 0.27393 -0.669124 
-0.0533095 -0.0238133 0.504214 -0.72341 -0.390072 -0.557023 -0.285499 0.824991 0.674764 0.274682 1.04355 0.572907 -0.749266 -0.902124 0.340264 0.324046 -0.396386 0.38625 0.395737 -0.335661 -0.402111 -0.406197 0.394282 0.481264 -1.03088 0.590035 -0.499649 -0.418798 0.506642 0.29507 0.97503 -0.650956 
-0.172236 -0.988015 0.864444 0.512573 -0.62004 -0.056767 -1.2796 0.247861 -0.627795 -0.246934 0.839519 0.47153 0.286208 -0.585692 0.693601 0.670273 0.227103 0.969614 0.142863 0.226556 0.843936 -1.29897 0.718999 0.357425 0.499561 0.255945 0.784453 -0.376873 -0.134724 -0.922334 -0.268123 1.15514 
0.330545 -1.05958 1.05055 -0.607999 -0.818644 0.476257 -1.12922 0.755354 0.15776 -0.135948 -0.521399 -1.01371 -1.024 -1.03233 0.596111 0.756363 -1.11246 0.337501 0.0570427 0.473132 -0.106017 0.184298 0.680358 -1.02842 -1.21617 0.3344 -0.407523 -0.149627 0.182041 -0.915969 0.592561 -0.479378 
0.332495 -0.196958 0.186677 0.63987 0.277154 0.364777 -0.10458 -0.078356 0.551122 0.242048 0.311874 -0.79395 -0.856001 -0.134817 -0.901155 0.850708 0.094311 0.419059 0.0992169 -0.830131 0.225638 -0.276005 0.733082 -0.445602 0.126001 -0.166263 0.693982 -1.04749 0.103904 -0.123915 0.830455 -0.384822 
-0.442544 -0.0391838 0.808209 0.442991 0.623332 -0.0581264 0.212355 -0.102634 -0.790643 -0.208632 0.471178 0.236549 -0.232313 -0.0950752 0.988885 -0.300741 -1.18376 0.0724144 0.00545168 0.306608 0.115951 -0.69456 -0.287238 -0.33193 -0.729367 -0.252314 -0.224209 0.613182 -0.0714081 -0.360876 0.680852 0.257665 
0.348326 0.173461 -0.289085 -0.167313 0.963186 -0.787908 -0.847271 0.55267 -0.988388 -0.562937 -0.407664 -1.08753 0.269604 -0.739935 0.832469 -0.118795 0.402026 0.661235 0.560205 -0.189678 1.23999 -0.320243 -0.555441 0.422174 -1.58003 0.0339668 0.492706 0.592872 -1.18914 -0.326811 0.671233 -0.420985 
0.697912 -0.685624 0.961876 0.987651 0.67366 -0.668712 -0.46551 -0.19995 -0.326148 0.031871 -0.306221 0.0405928 -0.818107 -0.908789 -0.017433 0.545449 -0.722504 0.926195 0.378762 0.131218 -0.33792 0.920299 -0.718279 -1.15426 0.155908 -0.42068 -0.189288 -0.567742 -1.09927 0.283683 0.931274 0.36508 
0.289768 0.0658039 0.582548 0.78626 1.1626 -0.109329 -1.17835 -0.207284 -0.0581856 1.10934 -0.0505037 0.186019 -0.775352 0.181996 0.478259 -0.456565 0.983664 -0.733362 0.401275 -0.303276 -0.300512 -0.180223 0.336394 0.00432629 -1.06745 -0.618461 0.571885 0.185596 -0.23492 0.564469 -0.493103 -0.0575562 
-0.59409 -1.11529 0.331771 0.584402 1.11899 -0.198778 -0.453061 -0.1108 -0.280886 0.179089 -0.346232 -0.0410752 -1.03626 -1.10043 -1.05608 0.499664 -0.452225 0.390256 -0.111959 0.716572 -0.737053 -0.763341 0.172874 -0.412128 -0.047072 1.03904 0.841687 -0.247074 -0.00638002 -0.76914 0.33194 1.12203 
0.661555 -0.270276 1.03373 0.153958 1.30289 -0.430785 0.111115 0.442586 -0.116478 0.142116 0.637524 -0.564905 -0.162697 0.717358 -0.508737 0.24828 0.606603 0.817629 0.274921 0.292505 -0.132799 -0.263331 0.578182 0.137991 -0.0707168 -0.0408072 0.760209 0.221899 -1.09597 -0.00240515 -0.135837 -0.413961 
-0.280008 0.85314 -0.847804 -0.605948 0.165101 0.179826 0.712628 0.441165 -0.349416 -0.606479 -0.633535 -0.287483 -0.346387 0.981144 -1.00426 -0.705664 0.911421 -0.0371558 -0.346356 -0.572326 0.269579 -0.228749 -0.937236 -0.0689992 -0.520693 0.413102 1.02752 0.496418 -0.859821 1.01293 0.821514 -0.250935 
0.129876 0.187761 -0.893524 -0.536416 0.498934 -0.812977 -0.262046 -1.03597 0.594535 0.935429 -0.873804 0.573425 -0.033545 0.284929 0.721928 0.699584 -0.316465 0.678236 -0.584307 -0.782553 -0.565643 0.628062 -0.817079 -0.708919 -0.344875 -0.784825 -0.13126 -0.0557695 -0.141737 -0.800334 -0.293098 0.631952 
0.00909598 -0.0161487 -0.786866 -0.801749 0.577235 -0.222428 -0.229158 0.165513 -0.337582 0.363573 0.800561 0.559384 0.951347 -0.137631 -0.73104 -0.670832 -0.180393 -0.0345225 0.404428 0.192792 -0.881498 -0.0218915 -0.853633 0.531633 0.092136 0.0736053 0.719012 1.30009 -0.806712 1.18437 -0.326375 -0.37055 
-0.136476 0.657792 -0.755845 -0.0383985 -0.721148 -0.664588 1.14757 0.361278 1.00904 0.900053 0.0325487 -0.526263 0.954802 -0.0417854 -0.710057 0.856637 0.913085 0.623401 0.1763 -0.111252 0.0393207 -0.0914087 -0.319289 -0.0505721 0.205573 -0.315332 0.996437 -0.567357 0.0995705 -0.172335 0.150803 -0.395823 
-0.201818 0.815942 0.170412 0.89088 -0.916995 0.72038 1.13452 0.578982 0.487002 -0.139416 0.0530225 -0.143076 -0.120485 -0.2672 0.224909 0.138773 1.21096 0.757777 0.536945 -0.0444979 -0.373667 0.0118753 -0.0868836 -0.753876 1.08494 0.518414 -0.558388 0.581044 -0.0682151 0.313629 -0.285533 0.122835 
0.753981 0.365394 0.0190276 0.730208 -0.0949444 0.652976 -0.389604 0.815279 -0.253693 0.713909 -0.918811 -0.0191734 0.417948 -0.739502 -0.844151 -0.859745 -0.659791 -0.611075 -0.725269 0.0749136 0.238486 -0.764692 -0.106792 0.160483 0.541926 -0.830083 0.294845 -0.647118 0.790041 0.396568 0.151783 -0.508232 
0.38241 -0.34249 0.0496264 0.611588 0.0764825 -0.362762 -0.396619 0.0720513 -0.775584 0.827543 -0.41156 -0.379711 0.776083 0.805085 0.356906 -0.774639 0.0108769 -0.176841 0.949897 -0.12058 -0.534697 -1.01164 -0.553979 -0.258948 0.0580051 0.635363 -0.339209 0.153645 -0.511354 -0.75671 -0.832601 0.874153 
0.296051 -0.788364 0.295892 0.757356 0.307087 -0.641302 -0.430964 0.516154 0.611477 -0.380798 0.787985 -0.353936 0.932922 -0.695224 0.783822 0.485828 0.582103 -0.622826 0.0939282 0.205174 -0.800287 0.488994 0.414497 -0.999672 -0.951769 -0.45528 -0.506445 -0.527281 -0.124381 -0.573681 -0.733234 0.444706 
0.723674 -0.471105 -0.559314 0.857883 0.17859 -0.488366 0.520824 -0.961003 0.743221 0.317263 -0.786881 -0.911731 -0.282397 -0.789382 -0.48791 0.552529 -0.154165 -0.58011 -0.0321654 0.785169 -0.561235 -0.579021 -0.26979 -0.0240205 0.19753 0.792719 -0.133853 0.33955 0.95384 0.866822 0.380031 -0.135037 
0.21408 0.467253 -0.915415 -0.377981 -0.287574 0.281394 -0.0604835 0.543681 0.134071 -0.661336 -0.676028 -0.209148 -0.941158 0.199068 -0.291062 0.335858 -0.567952 0.0695353 -0.0389633 0.113181 0.0041361 0.513517 -0.11344 0.321649 -0.253992 -0.666535 -0.694416 -0.852263 0.602594 0.679983 0.621721 0.328409 
-0.920217 0.224582 -0.0615165 0.613072 0.357906 -0.350494 0.890933 0.644363 0.113796 -0.456803 0.403875 0.914617 -0.712327 -0.607064 -0.495801 -0.925581 -0.244884 0.104061 0.814362 -0.244552 0.0909422 -0.204427 -0.408669 -0.214367 0.488186 -0.203523 0.0614845 -0.122874 -0.186809 0.928826 0.659226 -0.60173 
0.97721 0.419929 0.810322 -0.425225 0.0322417 -0.518541 -0.711395 0.143295 0.0927278 0.108129 0.15356 0.998479 0.173114 0.994967 -0.324421 0.894025 0.274604 -0.180664 -0.172008 -0.0117543 0.942714 0.116323 -0.0549337 0.984748 -0.178235 -0.41347 -0.0761366 0.305115 0.0932 -0.806312 0.074367 0.311442 
0.707965 -0.595432 0.15165 0.691226 0.343621 0.839809 -0.998807 0.318153 0.729887 0.640604 -0.669367 -0.153983 -0.540578 -0.340661 0.981656 -0.425804 0.0337364 0.535952 -0.0841478 0.150922 -0.00947744 -0.884428 0.586329 0.285303 -0.205844 0.82561 0.451753 -0.0845274 -0.6596 0.0741333 -0.449786 0.602614 
0.252839 0.19048 -0.0788213 -0.609563 0.0898146 0.5011 -0.177383 -0.423839 0.831302 -0.59748 -0.273022 -0.0438102 0.50338 -0.871028 0.854366 0.713119 0.687971 -0.942875 -0.486128 0.465599 0.622508 0.936364 -0.29049 0.800291 -0.690562 -0.665043 -0.683447 -0.823235 -0.888814 -0.174319 0.379889 -0.880036 
-0.519697 0.921371 -0.0793895 -0.00403876 0.834001 0.557159 -0.212583 -0.794161 -0.634183 0.59346 -0.3927 -0.547967 -0.731644 -0.541794 0.00380135 -0.318338 -0.784757 -0.243845 0.409789 -0.240023 1.04178 -0.571548 -0.282984 0.232539 -0.877399 0.932172 0.587466 -0.348141 -0.815642 0.654677 0.684714 -0.324029 
0.745971 -0.844908 -0.272123 -0.503449 0.364579 -0.566426 -0.00401624 0.116937 -0.0658983 -0.290104 -0.179737 0.54496 -0.727401 0.621579 -0.654518 0.839377 0.445311 -0.514884 0.282312 -0.422364 -0.301078 0.114284 -0.926474 0.52756 -1.02151 -0.794581 -0.384127 -1.14133 0.515562 -0.324469 -0.550941 0.671657 
0.245555 -0.805339 0.310558 0.717036 0.334793 0.795093 -0.796969 0.199149 0.184061 -0.180783 -0.250687 -0.403978 -0.812198 -0.357781 0.268322 0.661487 0.199383 0.803056 0.146041 -0.744578 0.6573 -0.80509 -0.366054 -0.762062 0.604371 0.736132 -0.0739023 0.817876 0.280113 0.0183671 -0.00392128 -0.829005 
-1.05769 0.975102 0.805614 0.495223 -0.669171 0.736833 -0.112853 0.0549727 -0.640161 0.136937 -0.603432 0.543601 0.445853 -0.51116 -0.173849 0.358581 -0.947156 0.866904 -0.408787 -0.684687 0.58269 0.407549 -0.471865 -0.583485 0.269187 -0.184643 0.260327 0.472256 -0.714564 -0.875176 1.00915 0.71013 
-0.237042 0.231664 0.289565 -0.83444 0.465067 -0.69762 -1.36682 0.504943 0.47444 -0.823321 -0.479797 -0.11646 0.668954 -0.620574 0.511571 0.312254 0.3331 0.392674 -0.454503 0.705105 0.516861 -0.142295 0.300611 -0.788492 -0.246752 0.550231 -0.922369 -0.341061 1.06202 -0.974768 0.400139 0.548422 
0.740669 -0.868237 -0.664226 -0.484619 0.334864 -0.0243424 -0.297311 1.02031 -0.225463 -0.881575 0.747309 0.175597 0.305122 -0.196458 -0.0084638 -0.799182 0.711592 0.22155 -0.560772 -1.29387 0.0423453 -0.374653 0.0336906 0.67761 0.358567 -0.832953 -0.937864 0.111123 -0.656492 -0.681298 -1.02494 0.823229 
0.673485 0.85953 1.08269 -1.05932 -0.996174 -0.0134494 0.0173317 -0.12736 -0.851634 0.588766 0.632055 0.691289 -0.553404 -0.379708 -0.755256 0.147832 0.395442 1.17519 1.19798 -0.268209 -0.490883 0.281641 -0.814582 -0.109835 -0.539758 -0.0286316 -0.310281 0.0062673 0.0315028 -0.725892 0.718334 0.0451807 
-0.17035 0.272807 0.365168 -0.412432 0.9201 -0.160764 -0.720159 1.11948 -0.0453419 -0.790788 0.03489 -0.391054 -0.791164 0.599508 -0.969587 -0.508668 -0.0941966 0.442363 1.35082 -0.66622 0.760495 -0.262328 -0.608081 1.02216 0.258981 0.281742 -0.00730868 -0.451907 -0.711146 0.845801 -0.0673131 0.267086 
0.942298 -0.476234 0.772647 -0.751005 0.237277 0.966672 -0.0636463 0.407544 -1.40186 0.0711612 0.254812 0.275328 -0.540736 0.539214 0.210303 0.112451 1.1791 1.01561 1.27497 0.102873 -0.821574 0.193532 0.593637 -0.20707 0.955255 0.166088 -1.10166 -0.147099 -1.55551 -0.679229 -0.222472 0.284199 
0.398879 0.464842 -0.0727801 0.503839 0.166381 -0.252485 -0.595826 1.16216 -0.887688 -0.121657 0.157317 -0.178299 -0.324072 -0.125084 -0.381702 0.442798 -0.224291 -0.330922 -0.244962 -0.241414 -0.44315 0.160077 -0.579099 0.26728 0.222766 0.842661 0.290475 -0.0296587 0.278753 -0.00762084 0.496435 0.784051 
0.211739 -0.926734 0.658626 -0.373679 0.418443 0.38503 0.307865 -0.0990063 -0.120077 0.0617477 0.70113 0.345401 -0.896199 0.132274 -0.734682 -0.361049 -0.334664 -0.761117 0.119651 0.448284 -1.84202 0.218154 0.791036 -0.410599 -0.734159 0.462914 -0.82413 -0.530707 -0.211297 -1.02849 1.09136 -0.319053 
0.536093 0.381175 0.425195 0.351758 0.056965 0.25104 -0.132643 -0.279947 1.36398 -0.523784 -0.497232 0.61196 -0.251292 -0.438032 0.127077 -0.158477 0.468493 0.430121 0.380857 0.570981 -0.881591 0.0614296 -0.410978 0.165063 -0.514184 0.340535 -0.13569 0.489229 -0.563476 -0.48991 0.550942 0.3887 
-0.955839 0.0394921 0.579826 0.947074 0.428783 -0.418416 0.145254 0.641974 -0.635522 -0.103219 -0.182031 0.706145 -0.751827 0.144684 -0.776027 -0.644471 -0.892945 0.424702 -0.180556 -0.548355 -0.715973 1.00843 0.354685 -0.492187 0.103501 -0.25865 0.478172 -0.537285 1.11333 0.107841 0.689301 0.635682 
-0.174593 -1.1101 -0.0963372 -0.437089 0.811377 0.129914 -1.14224 -0.748004 0.359125 -0.764902 0.0576288 0.811559 -0.0711929 -0.547002 -0.750356 0.214161 0.685174 0.644574 0.91683 0.113382 -1.34761 0.394774 0.0722648 0.451529 -0.811172 -0.553362 0.630842 0.264935 -0.188287 0.530031 0.209794 0.836119 
-1.23813 -0.0691312 0.792537 0.462452 0.647105 -0.164127 0.341531 0.69313 0.107308 -0.408407 0.0134289 0.548266 -0.0515948 -0.553787 0.459503 0.234972 0.368191 0.970025 0.468293 -0.676724 -0.178232 0.0777145 0.331407 -0.59654 -0.0672368 -0.226896 1.1476 0.0542835 0.734135 0.0168855 -0.264689 0.316762 
0.692316 -0.13471 0.524564 -0.288749 0.740376 0.141111 0.469341 -0.267002 -1.06732 -0.663008 0.655844 -0.81434 0.101987 0.480483 0.310582 0.430793 0.716912 -0.228275 0.365263 -0.366441 0.338774 -0.61672 0.423388 0.451045 0.443891 0.612714 1.18945 0.0677835 0.160276 0.406879 0.698611 -0.287825 
0.342855 0.587023 -0.593926 -0.00757554 1.03691 -0.526517 -0.394092 0.241297 0.0835687 -0.394312 -0.842956 0.856145 -0.95564 0.646455 -0.62871 -0.438694 0.83142 0.520007 -0.471516 1.01279 -1.00873 -0.604719 -0.509502 -0.801836 -0.275707 -0.541475 1.1528 -0.171555 -0.614944 0.362732 -0.894595 -0.228168 
-0.205612 -0.750656 0.84716 -0.762049 -0.253265 0.89188 0.844818 -0.505515 -0.116699 -0.846917 -0.222919 -0.00239282 0.514352 0.00809205 -0.831956 -0.257567 0.424771 0.192786 0.360312 0.287828 -0.115273 0.807982 -0.287833 0.289602 0.428606 -0.187874 -0.206629 0.347066 0.385932 0.859241 -0.242512 -0.0181644 
0.78996 -0.615707 0.747911 0.786374 0.589307 -1.11421 -0.344667 -0.431839 -0.0483983 -0.782943 -0.771283 0.834274 0.820322 0.220215 -0.804525 0.406756 0.778636 -0.288694 -0.731267 0.0710851 0.36794 0.188514 0.414988 -0.448117 0.0955493 -0.874762 -0.619818 0.0525937 -0.0206111 0.57031 -0.313897 0.278167 
-0.708659 0.0571806 -0.0861213 -0.396124 -0.352502 -0.791914 0.933055 -0.414621 0.211075 -0.273229 0.197633 0.64851 1.19828 0.854481 0.0280823 0.00364093 -0.0664753 0.157232 -0.637181 -0.939199 -0.701876 -0.101285 -0.149166 -0.678161 0.871173 -0.752704 0.768989 0.225678 0.623379 -0.417869 0.213034 -0.406447 
0.55267 -0.369769 -0.0587034 -0.118527 -0.139394 -0.434966 -0.373498 -0.628651 -0.274616 0.31071 -0.425105 0.119097 -0.713327 -0.574055 0.669852 -0.00573986 -0.415469 -0.14098 0.147255 -0.587586 -1.01045 0.749799 0.921531 -0.280518 -0.559032 -0.518853 0.709056 0.179552 0.233761 0.235322 0.289288 -0.290356 
0.750298 -0.661761 0.159966 0.419475 -0.0948048 -0.136894 0.551487 0.228536 -0.151627 0.18506 0.0989409 0.110179 0.393622 -0.586961 0.616596 0.967407 -0.762742 0.135594 0.042128 0.476083 0.167845 -0.431716 0.27782 0.955019 -0.153725 0.468774 -0.304001 -0.869574 0.225365 0.277335 -0.0623245 -0.289502 
-0.965409 -0.576904 -0.0202222 0.37379 -0.82579 0.204895 -0.921251 0.00733392 -0.709912 0.281592 0.290403 -0.793017 0.673469 -0.691136 -0.927575 -0.48044 -0.273435 -0.705773 0.0162097 0.591461 0.708647 0.767274 0.774527 -0.0699728 0.700042 0.131015 0.318929 -0.338353 0.119848 0.102152 -0.241831 0.858101 
-0.556646 -0.368156 -0.210336 -0.839503 0.521359 -0.903816 -0.00565304 0.111159 0.643989 0.458125 -0.774367 -0.389404 0.684577 0.353991 -0.046653 0.897468 0.450069 0.660925 0.404214 -0.931206 -0.020702 -0.546241 -0.0719338 0.0823014 0.826615 0.482753 0.406735 -0.40059 0.162548 0.636139 -0.145111 -0.892447 
-0.334467 -0.811272 0.33658 0.506608 -0.624925 0.378329 0.583761 0.313247 0.25323 -0.428745 0.826378 0.379162 0.737005 -0.779521 0.837353 -0.253178 0.25637 -0.146572 0.502278 -0.771354 0.974034 0.141642 -0.0789359 0.0978186 -0.845015 -0.938239 -0.369664 0.909147 0.661621 -0.421691 0.631727 0.393042 
0.368021 0.114911 -0.364008 0.568035 0.590309 0.967963 -0.297226 -0.938212 0.647476 -0.670769 -0.409686 -0.428742 -0.405024 0.999053 -0.830819 -0.340658 -0.37695 -0.172957 0.949333 -0.272784 -0.280164 -0.913982 0.973438 -0.155059 -0.854035 0.534372 0.0697397 0.108467 0.324489 -0.844367 0.0130593 -0.780568 
0.61758 0.801149 0.46407 0.00838898 0.102631 -0.373681 0.299315 -0.0904065 0.543089 0.324146 -0.0138008 -0.478001 -0.946386 -0.492415 -0.994796 -0.167377 0.0952165 0.0513163 -0.253327 -0.159181 -0.665147 -0.0563198 0.402006 -0.906872 -0.98502 0.0856928 0.665726 -0.728514 0.182795 0.105183 -0.469085 -0.566755 
0.192563 0.508025 -0.732295 0.376132 -0.0158133 0.0721375 -0.465126 -0.133493 0.681865 0.477364 -0.145606 0.0742871 -0.316575 0.0463851 -0.391614 0.659095 0.940028 -0.267679 -0.696972 0.271408 -0.332221 -0.487208 -0.883044 -0.614378 -0.536866 0.40263 -1.02181 -0.578425 0.775322 -0.165872 0.919917 0.796877 
-0.685701 0.701365 -0.434324 0.786129 0.474122 -0.489611 -0.69721 0.0284302 0.850528 0.407798 -1.05571 -0.939907 0.228018 0.951126 -0.23327 0.364047 -0.93031 -0.504955 0.969432 0.507381 -0.476118 -0.834871 -0.118531 0.753617 0.445068 0.697144 -1.11116 -0.873096 -0.492244 -0.927712 -0.0570433 -0.600177 
-0.66646 -0.511409 -0.568995 0.0457266 0.269924 0.516568 -0.509518 -0.286251 -0.187882 0.416955 -0.82556 -0.472018 0.0662282 0.621009 0.0831229 -0.14617 -0.162931 0.30969 -0.659782 -0.332872 -0.552217 -0.344132 0.14811 -0.819721 -0.482336 -0.579245 -0.306924 0.616105 0.567922 0.183699 -0.345612 -0.469416 
-1.22787 -0.913295 -0.441842 0.325112 -0.832347 0.300465 -1.33213 0.588845 -0.34907 0.823761 0.0259075 -0.765944 -0.330117 -0.6207 -0.907259 0.0656954 0.86561 0.655014 -0.431921 0.096573 0.186737 -0.287585 0.253485 0.347624 -1.2688 -0.672569 -1.02525 0.0388683 -0.686514 0.0594146 0.730671 0.879829 
0.338388 -0.358612 -0.104134 0.0786173 -0.047141 0.947208 0.142931 -0.163281 -0.444378 1.20595 0.515609 -0.497854 0.0703013 0.455135 0.830438 0.240286 -0.641213 0.866594 0.700317 -0.18742 -0.252749 -0.946974 -1.1674 -0.738065 0.507556 -0.865394 -0.309412 -0.555838 0.380294 0.503046 -0.141808 0.990845 
-0.203866 -0.252792 0.600321 -0.354751 0.28723 -0.476386 -1.43299 0.466368 0.351543 -1.00807 -0.857475 0.728671 -0.287416 0.590617 -0.339376 -0.372047 0.83405 0.295978 0.311849 -0.556777 -0.0561785 -0.217682 -0.303811 -0.00609431 -0.267069 -0.675965 0.356732 -0.217273 -0.502631 -0.609344 -0.711824 0.42879 
-0.569339 -0.712143 0.335428 -0.168897 -0.192242 0.29819 -1.7974 -0.568341 -0.107849 0.701047 -0.112222 0.140907 -1.26688 0.292836 -0.865943 -0.207956 -0.478897 0.661655 1.01984 -0.0869392 0.603894 -0.637748 -0.107469 -0.486414 0.781619 -0.216341 0.0493884 0.0174958 0.858437 -0.230031 0.0676311 -0.232172 
0.39649 -0.64812 1.03395 0.310207 -0.280369 0.140699 -0.30869 -0.265703 0.478424 0.566814 -0.940307 0.138228 0.940946 -0.247331 -0.538236 0.519799 0.439967 0.791368 0.562614 -0.0108641 0.388932 0.847348 0.581462 0.437032 0.338868 -0.401291 -0.368394 0.123844 -0.00410981 -0.718335 0.365937 0.665816 
-0.596072 0.254544 0.851695 0.414941 0.465447 -0.340077 -0.145032 0.00146311 -1.28338 0.69803 -0.509725 -0.424747 0.346975 0.706894 0.328609 0.451688 0.509533 0.674218 1.39491 0.791409 0.725743 -0.569781 0.669934 -0.418571 0.704461 -0.0363982 -0.021864 0.0735043 -0.127432 -0.939727 0.564978 -0.0119487 
0.559182 0.509341 -0.808268 -0.347436 -0.397039 0.518076 0.485045 -0.612072 -1.54632 -0.205214 -0.197128 0.403323 -0.584041 0.485157 -0.546822 0.230039 -0.654709 -0.318466 0.718461 0.105799 0.0629757 0.632279 0.390758 0.50442 -0.975742 -0.260151 0.874873 0.947449 -0.998726 0.106432 1.32584 0.468472 
0.273446 0.175914 1.3992 -0.691704 0.0159986 0.238922 -0.529535 0.00437918 -0.196089 0.35004 -0.269588 -0.27825 -0.0521267 -0.0857129 -0.473913 -0.0271387 -0.925998 0.837013 0.302112 -1.18996 0.144414 -0.42125 0.906689 -0.636074 -0.171821 1.47001 -0.0995206 0.35779 -1.21443 0.275574 0.418263 -0.867605 
0.580304 0.657354 0.988387 0.909899 -0.00859008 -0.86055 0.571871 0.876706 -0.296495 -0.472587 0.175982 -0.0572299 0.669469 -0.878426 -0.399232 -0.0939496 -0.856612 0.240177 0.416806 -0.204583 0.629555 0.925237 -0.0214577 0.192762 0.0889871 1.52084 0.225847 -0.354839 -1.29518 -0.141417 -0.00562521 -0.823094 
0.536616 -0.286728 1.65518 1.00997 0.592135 -0.6847 0.19798 0.420045 0.452588 -0.0711362 0.599149 0.556762 -0.0327913 -0.323733 0.504627 -0.392383 -0.0789531 0.29664 -0.26136 -0.138431 0.239233 0.59079 -0.657564 0.432152 -0.18198 1.29108 -0.257122 -0.0263198 0.768208 -0.84676 1.15996 -0.535183 
-0.193569 0.230838 0.285717 0.854748 0.534842 -0.283445 -0.69094 0.336185 0.266626 -0.188693 -0.37504 -0.0912708 -0.470396 0.0977885 -0.500356 0.648227 -0.718719 1.04187 0.490755 -0.600375 0.30245 -0.629759 0.673766 -0.916155 -0.844506 0.503842 -0.661729 0.264942 0.92334 0.0271653 0.403713 0.135801 
-0.769645 0.891169 -0.109498 0.794951 0.0784868 0.1327 -0.910198 -0.0561972 -0.169062 -0.873465 0.348914 -0.0461185 -0.560624 -0.386281 -0.645449 0.348627 -0.740226 -0.731367 -0.508111 0.573877 -0.532675 -0.210906 0.388716 0.273501 -0.360025 1.18676 0.757816 -0.600679 1.04615 0.156926 0.821934 -0.0653687 
-0.501981 -0.0758399 0.728972 0.623641 0.160118 -0.200909 0.215439 0.787254 0.245503 -0.641064 -0.432733 -0.319525 0.245409 0.6438 0.448791 -0.513142 -0.267357 0.312046 0.0982134 -1.00918 0.350064 -0.0830474 -0.647297 -0.718757 -0.0593607 0.295771 0.575379 -0.371928 0.284029 0.422428 0.271045 0.134038 
-0.828834 0.0998342 -0.564485 0.282341 -0.579833 -0.0438432 -0.559612 -0.876425 0.2787 -0.75232 -0.169392 -0.406488 0.481217 0.731714 -0.196459 -0.652812 -0.793231 0.10271 0.139136 -0.0126784 -0.312718 -0.188542 0.320504 -0.840123 0.388196 -0.108387 0.694108 -0.135607 -0.104527 -0.281297 0.0129849 -0.154008 
-0.691806 -0.98556 0.675047 -0.330786 0.00913865 0.82594 -0.742077 0.365314 0.411546 0.711666 -0.291194 0.923612 0.154354 0.306244 -0.415912 -0.692407 0.461716 -0.585146 0.733327 -0.536018 -0.610719 -0.78821 0.146554 0.751651 0.362054 0.808593 -0.305631 0.214363 0.206898 1.01074 0.797637 0.33453 
0.470235 -1.07732 0.202776 0.203859 0.33008 0.201395 0.0884637 -0.5049 0.595331 -0.194414 0.441643 -0.132609 0.768279 0.847068 0.13132 -0.640748 -1.40276 0.807889 -0.45206 0.0804282 0.15504 -0.294652 0.496346 -0.0422411 0.468758 -0.143499 1.30122 0.623669 0.0430331 -0.0277323 0.775261 0.311982 
-0.344303 0.0327778 0.852475 0.9289 -0.84976 0.485714 0.683402 0.367493 1.041 0.63148 -0.89433 -0.824808 0.253711 -0.460373 0.00958965 -0.276908 -0.954439 0.23985 -0.495788 -1.31902 -0.482155 -0.70544 0.725211 -0.670824 0.490854 -0.314844 0.521387 -1.03304 -1.16797 0.0705497 -0.318431 0.160961 
-0.45763 -0.928457 0.739888 0.222143 -0.435168 -0.76532 -0.352346 0.0502866 -0.398607 -0.85952 -0.580238 0.813802 0.71339 0.287919 -0.716989 0.171312 0.461835 -0.127956 0.429647 -0.833749 -0.444881 -0.284097 0.00491929 0.233106 0.966756 -0.142824 0.0162992 0.619867 -1.49671 0.117762 -0.841086 -0.33578 
0.990861 -0.91139 -0.784006 0.967686 0.502138 -0.915731 -0.619043 -0.877712 -0.403648 0.324102 -1.12752 -0.329526 0.911481 0.515749 0.467686 1.26709 0.798376 -0.582948 -0.518859 -0.329613 -0.855014 0.353438 0.330779 -1.05825 -0.33088 -0.563806 -0.406442 0.437522 -0.223505 0.252204 0.166882 -0.587626 
0.731999 -0.370006 0.691901 0.863196 0.118136 -1.18808 -0.192055 -0.0404447 -0.512308 0.839194 -0.338366 -0.0540242 0.747588 1.03443 -0.592916 -0.0637224 0.819997 -0.0458906 0.731754 -0.509712 -1.06714 -0.948638 0.803945 -0.567248 0.152646 0.108459 0.576773 -0.939478 -0.781256 -0.66093 1.02579 0.689927 
0.48669 -0.393304 0.29891 -0.64484 0.249547 -0.322301 -0.122612 0.0336281 0.652781 0.888774 -0.271691 -0.535318 0.00462935 -0.447088 -0.666014 -0.0807707 -0.293982 -0.894207 0.465012 -0.461783 0.718941 -1.00728 -0.268729 -1.02172 0.16731 0.562982 0.49579 -0.817489 0.0755222 0.727493 0.460423 -0.384703 
0.53823 0.595661 0.126393 0.88648 -0.171862 -0.103478 0.0393617 -0.904573 0.0148957 -0.27166 0.780694 0.353075 0.394445 -0.605103 0.0255052 -0.806299 -0.709736 -0.463101 -0.149754 0.772231 0.969794 0.645797 0.205137 0.982706 -0.0260687 -0.348062 0.700632 0.727052 -0.154244 -0.725296 0.411394 0.489483 
0.635218 -0.371515 -0.318374 0.451535 0.640027 -0.570606 0.956605 0.564186 -0.25062 0.0084557 0.0273534 0.318588 0.0795729 0.734625 -0.265711 -0.509962 -0.975233 -0.34938 0.93868 -0.654469 0.988431 0.144578 -0.916787 0.191005 0.318991 -0.220581 -0.979027 -0.217758 0.237769 0.263418 0.25447 -0.840153 
0.367035 0.956469 0.709297 -0.835181 0.885457 0.89543 -0.782819 0.637855 -0.968282 0.411026 0.602409 0.406521 -0.0155002 0.356092 -0.789371 0.229014 0.143855 0.876863 0.649032 -0.0273452 -0.173711 -0.264118 0.170983 0.444701 0.576698 -0.569275 0.260533 -0.854167 -0.217196 0.36338 0.766333 -0.19019 
0.698949 -0.551007 -0.270237 0.479595 -0.86595 -0.119438 0.639352 0.953498 -0.0558902 -0.891286 -0.8036 -0.61258 -0.555567 0.561693 0.823435 0.14762 0.0369981 -0.00925896 0.938028 -0.290145 0.355256 0.0456765 0.796331 -0.650251 -0.944012 -0.781355 -0.664444 0.846856 -0.543075 0.656435 0.069687 0.855087 
-0.225471 0.809513 -1.01827 0.843206 -0.689104 0.09878 -0.792535 0.24163 0.814723 -0.0651418 0.773321 0.847745 0.205749 0.102658 0.0547892 0.275432 0.454854 0.32909 -0.307356 -0.0121699 0.676809 -0.836274 -0.4747 0.518831 -0.970315 0.509904 -0.327643 0.547422 -0.12314 0.0285304 -0.697064 -0.679338 
0.13618 0.577672 -0.429278 -0.805889 0.556012 -0.137773 -0.130418 0.0961293 -0.282407 -0.540921 0.690499 0.357083 0.310106 0.790228 0.643415 -0.0876283 0.00563837 0.672519 0.248103 -0.251049 0.234471 -0.537513 -0.489248 0.760129 -0.130149 0.0493256 -1.06311 -0.1753 0.569571 -0.635611 0.78938 0.848815 
-0.910933 0.161166 0.179558 0.898035 -0.399189 -0.701359 -0.355675 0.500252 0.980499 -0.20561 -0.29587 -0.36799 -0.249664 0.497849 0.872119 -0.571223 -0.0789683 -0.519738 0.0204098 0.457477 -0.105177 -1.02217 0.320455 0.0810199 0.621082 0.520682 0.677695 0.327923 -0.306917 -0.111377 0.574788 -0.766693 
-0.184973 0.201989 -0.189104 0.858777 -0.866937 -0.500211 -0.840161 -0.41949 -0.549349 -0.163917 0.389465 -0.34425 -0.610494 0.619574 -1.04518 0.619161 -0.650594 0.781439 0.858773 -0.494813 1.5005 0.0340159 -0.265273 -0.579982 0.362256 -0.36671 0.0603687 -0.238512 -0.855551 0.152237 0.348563 -0.12812 
0.476048 -1.24201 -0.70025 -0.120531 -0.370759 -0.364656 -0.0581317 0.34543 -0.693757 -0.790498 -0.786048 0.302462 0.303576 -0.028503 -0.129909 -0.574539 -0.467872 0.448102 -0.330668 -0.112755 0.596582 0.609621 0.510639 0.809422 -0.623941 -0.13633 -0.757612 0.64077 0.69791 0.757983 0.377498 0.953978 
-0.158216 -0.727653 -0.865911 -0.483331 -0.3615 0.343314 -1.55772 0.113861 0.158897 0.391323 0.214692 0.148484 -0.757997 1.1414 0.528806 0.599862 0.44018 1.1133 -0.226054 -0.630525 -0.268357 0.242317 -0.491224 0.439767 1.11946 0.670673 0.991535 0.0510897 -0.18424 0.980495 0.541415 -0.212139 
-0.218692 -0.420107 0.0829705 0.630206 -0.548247 -0.315939 0.251488 0.0482257 -0.0989462 0.605913 0.0947046 0.282547 -0.494025 0.642308 0.52066 0.0321771 0.498649 0.856698 -0.140007 -0.305568 0.325999 0.182811 -0.726991 -0.284898 -0.432517 -0.398718 0.669176 0.390058 0.140048 0.0402844 0.00623367 1.03157 
0.989865 0.553176 0.92135 0.382858 0.137144 -1.05164 -0.0377336 0.114803 -0.19266 -0.328975 -0.454352 -0.100947 0.00939827 0.188607 -0.7249 0.095732 1.20235 0.780413 1.59072 0.606906 -0.0624387 -0.234331 0.783285 -0.0428693 0.230299 -0.15971 0.206728 0.455582 0.947973 0.328981 0.0927482 1.34666 
-0.308309 0.242882 0.359054 0.488125 -0.492687 0.105246 -0.35772 0.177675 -0.398955 0.600293 -0.0417083 0.700694 0.0713866 0.0547195 -0.582041 0.408185 -0.483382 0.33313 1.19602 0.321315 0.599655 -0.0531727 -0.207818 0.24315 0.472292 0.402664 -0.253983 -0.549991 0.55078 -0.5816 -0.12894 0.823555 
0.470916 -0.320685 0.275116 1.18296 0.278765 0.0505453 -0.188501 -0.14937 -1.45721 -0.0722626 0.966218 0.856334 1.27676 0.575834 -0.755247 -0.00351068 -0.423529 -0.337257 1.15269 0.856154 1.13754 0.863935 0.0482165 0.418274 -0.0822537 -0.502586 -0.306538 0.531361 0.0715806 -0.239558 0.781507 0.368696 
1.05756 -0.101148 -0.251314 -0.118912 1.19316 -0.254491 0.828782 0.91557 -0.290087 -0.620527 -1.06565 -0.929514 1.17176 0.483342 -0.893524 0.470658 -1.01299 0.810948 -0.221152 -0.222988 1.81874 0.470178 1.00168 -0.216788 0.253903 0.267545 0.122145 -0.136756 -0.270597 -0.341139 0.251054 -0.614995 
0.60714 0.743308 0.707612 -0.0129733 0.429217 0.302068 0.505492 0.613251 0.683306 -0.577225 -0.0117552 1.25463 0.13113 0.235907 -0.0887484 -0.0376746 0.287232 -0.170686 0.1193 0.0036661 1.27236 -0.0484292 0.243109 0.620703 0.0857383 1.22762 0.742683 0.21488 0.254552 -0.0924104 0.659684 0.639568 
0.923296 0.502182 1.23805 -0.904999 0.357512 -1.03722 0.0927137 -0.474206 -0.504418 -0.962822 0.957816 0.608189 0.194265 -0.882993 0.328487 0.719699 0.0429252 0.134142 -0.068264 0.756987 -0.206328 -0.96379 0.864533 -0.583718 -0.753261 0.609726 -0.573465 0.0684337 0.818901 0.0584353 0.343476 -0.361188 
0.48768 -0.347027 -0.302872 0.507728 0.487991 -0.281587 0.0230182 -0.201398 -0.963086 -0.391346 -0.30146 -0.0915636 1.39547 0.950237 -1.33282 0.144806 0.467857 -0.123854 -0.086726 0.435839 0.579037 0.119574 -0.299868 -0.189811 -0.774065 -0.62938 -0.751453 0.429028 1.17005 0.062016 1.61121 0.0490364 
0.589711 0.64168 0.846044 0.158525 -0.317019 -0.242755 -0.464175 0.576532 0.190934 0.3656 0.0296997 0.0553274 0.557503 -0.296937 -1.15849 -0.507195 -0.652573 0.92657 0.528458 -0.0553938 -0.377235 -0.177717 0.709884 0.560476 0.463668 0.239669 0.497774 -0.126539 -0.290368 -0.660255 0.750579 -0.199146 
-0.939753 0.193016 -0.242314 0.840888 -0.178765 -0.503538 1.02022 -0.0337581 -0.218425 -0.293153 1.20493 0.524367 0.52364 0.68221 -0.455946 -0.330577 -0.447828 0.337593 0.180041 -0.2139 -1.33756 0.0677106 0.30569 -0.340345 -0.886356 0.381413 0.230306 -0.156471 0.173814 1.22977 1.63507 0.0196649 
-0.68734 -0.43941 -1.08921 -0.503082 0.99123 -0.64761 0.137324 0.197265 -0.584628 0.604054 -0.422965 0.371358 0.543267 0.586606 -0.406286 -0.664544 -0.356772 0.365744 0.0995582 0.492011 -0.380814 -0.0451604 0.315653 0.547925 -0.364731 1.13058 0.441195 -0.34134 -0.0742944 0.920444 -0.0109919 0.503691 
-0.549851 -0.0379526 0.473681 1.36084 0.312148 -0.351182 0.82409 -0.737813 0.57431 0.245203 0.33819 -0.565905 0.564931 0.271595 0.813982 0.126928 0.117059 -0.0938839 -0.473657 -0.254824 -0.372422 0.032955 0.899678 0.96263 -1.45289 0.138006 0.388593 -0.4506 0.662221 1.23463 0.637834 -0.463126 
-0.314107 -0.132273 -0.561673 1.14308 -0.533 -0.809925 0.168801 0.63354 0.0782268 0.246149 0.184865 -0.320069 0.226448 0.273086 0.345319 0.456555 -1.41672 -0.0338514 -0.27199 -0.950327 -0.527966 -0.504821 0.827494 0.856263 0.233022 -0.419796 1.35458 -0.184347 -0.701768 0.832174 -0.279418 0.0160786 
-0.324865 -0.234454 -0.880703 -0.485603 0.112588 -0.139455 0.497372 1.04297 -0.801443 -0.613182 -1.01554 -0.129969 0.134546 0.292064 -0.926147 -0.571718 -0.339475 0.404374 -0.011591 0.0265533 0.152463 1.04488 0.202304 0.87579 -0.6267 0.411388 1.40544 0.421122 -0.487166 0.0839482 0.729049 -0.345434 
-0.0334765 -0.575702 0.715604 0.056358 0.793084 -0.0714297 0.985168 -1.03839 -0.33421 0.730184 0.357601 0.407676 -0.229385 1.24373 -0.303715 -0.977939 -1.02672 -0.890568 -0.461177 0.305408 0.514787 -0.385404 -0.793764 1.02627 0.812356 -1.0029 0.831613 -0.235352 -1.0997 -0.0605752 -0.782608 0.0323427 
-0.153206 0.0330246 -0.0131879 -0.349235 -0.277153 -0.638917 0.30991 -0.234432 0.15365 -0.0512569 -0.558793 1.32255 -0.360748 0.459805 0.260061 -0.0989372 -0.785549 0.16054 0.301436 0.217615 -0.742511 0.801424 -0.912702 -0.120179 1.01366 -0.642252 -0.439203 -0.0834661 0.246292 0.882426 0.491564 0.701803 
0.748684 -0.475118 0.688458 0.129517 0.210716 0.0516397 -0.319661 -0.712212 0.166065 -0.547757 -0.36664 -0.457731 -0.477304 0.594333 -0.185049 -0.262023 -0.980009 -0.825916 -0.724157 0.00335972 0.725722 0.56068 -0.0995044 -0.113386 0.732185 -0.0391307 -0.036677 -0.298752 -0.811623 -0.193412 -0.811503 -0.564674 
-0.521584 0.22831 0.0550492 0.0693791 0.690871 0.764018 0.607528 0.9754 -0.617529 0.994428 0.714736 0.353993 -0.81014 -0.373056 -1.01046 -0.468595 0.693655 -0.241618 -0.817699 -0.112364 0.22117 0.727393 -0.337112 -0.892125 -0.325424 0.282136 -0.663824 0.511237 0.269626 0.00247922 0.821009 0.20585 
0.748966 -0.683851 -0.936285 -0.872888 -0.872457 0.24608 -0.930637 -0.483721 0.490841 0.405143 -0.195743 0.351779 0.0384354 0.364234 -0.144237 -0.868908 -0.626734 -0.510844 0.624046 -0.847333 0.13899 -0.657732 0.068831 -0.780766 0.208121 0.78985 0.324684 -0.557143 0.748154 0.479043 0.30615 0.927433 
0.870939 -0.688991 -0.469246 0.963331 0.697529 0.716417 -0.401586 -0.593206 0.0988054 0.552914 -0.370588 0.585362 0.934203 -0.850257 -0.522582 -0.243205 -0.377184 -0.667369 -0.111558 -0.563566 -0.804523 -0.428455 0.539445 -0.0960027 0.0756385 0.294314 0.615142 -0.222533 -0.637817 -0.351557 -0.154127 0.449033 
-0.591834 0.0789331 -0.289201 -0.00222638 0.692405 0.774167 0.366678 0.262255 0.0415217 0.491023 -0.429604 -0.145296 -0.79169 0.744882 -0.904672 0.852179 0.747398 0.59429 -0.832014 0.442795 0.824348 0.695548 0.554576 -0.178172 -0.270054 0.412782 -0.481285 -0.85268 0.474062 -0.446184 0.0889771 -0.993626 
-0.000594206 -0.0192323 -0.755446 0.569165 0.0198428 0.654121 0.756509 0.416171 -0.796104 -0.540218 0.31746 -0.855126 0.623786 -0.742135 -0.160899 -0.850027 0.145049 -0.550592 0.928568 -0.874083 -0.726351 -0.0531334 -0.717212 0.411902 -0.846898 0.189474 -0.953068 0.0743432 -0.88146 0.829664 -0.520845 0.732594 
-0.681234 -0.801911 0.127136 -0.678465 1.09388 -0.616571 0.0317604 0.696952 -0.59481 -0.444568 -0.803045 0.00201331 0.0330905 0.616698 -0.0282652 -0.930985 -0.694649 0.415742 -0.0834157 0.246109 -0.430621 0.731781 0.296426 0.697875 -0.921762 -0.584451 -0.914145 -0.611511 0.555982 0.885328 -0.56855 -0.840394 
0.447494 -1.14389 -0.367422 0.238814 1.00449 0.042737 -1.01051 0.553207 0.427276 0.553494 0.211879 0.263387 0.776145 0.810852 0.914971 0.750059 -0.663103 0.308851 0.545459 -0.00470639 1.1281 -0.916738 0.200304 0.42167 0.533874 0.0101284 -1.19719 0.837431 -0.550581 -0.977011 0.0612091 -0.730317 
0.294428 -0.212754 0.652958 0.365914 -0.383337 0.409234 0.0574182 1.11212 -0.709162 -0.250178 0.721531 0.969914 0.0323333 0.733642 0.803545 0.285193 -1.12248 0.634961 -0.294968 -0.295121 0.0663368 0.436039 0.0389415 0.908736 -1.06279 -0.0835674 0.730114 0.53684 0.713813 -1.31277 0.465712 -0.728569 
0.213123 -0.348864 -0.734961 0.70111 0.621263 -0.548227 -0.561801 -0.131919 0.784738 0.125518 0.547292 -0.898065 -0.0342825 -0.105886 -0.278216 -0.319098 0.636993 0.815324 -0.0282163 -0.606789 -0.604155 0.428183 -0.967837 0.53064 0.367575 -0.089727 0.373678 0.203222 -0.47436 -0.360531 0.579335 0.765522 
-0.677562 -0.891317 -0.578014 -0.136011 -0.678284 -0.640889 -1.47208 -0.38443 0.0428269 0.771367 -0.176079 -0.0540894 0.250657 1.17816 0.610326 0.0917566 0.705461 -0.624332 0.167499 0.24038 0.537316 0.00039064 0.383505 0.503357 -0.111572 0.173808 -0.465916 -0.178384 0.129276 1.0601 -0.0399238 0.074443 
0.632191 -0.074923 -0.125957 0.368706 -0.58874 0.141522 -1.64492 -0.305117 0.0961279 0.155545 0.0144788 -0.544047 -0.091715 0.561001 0.478087 0.773233 -0.844874 0.133645 -0.357335 0.258022 -0.0770329 -0.0867938 0.543537 1.08704 -0.537958 0.175037 -0.275886 -0.74172 -0.26841 0.888788 0.835514 -0.41368 
0.182367 -0.379229 -0.0541003 -0.183987 0.883595 0.364166 -1.13178 0.481321 -0.00683328 -0.0944787 0.769974 0.197843 1.16166 0.0445702 0.694149 -0.185608 0.136092 0.398405 -0.0362561 0.131413 -0.334215 0.611128 -0.89498 -0.0759058 -0.161756 1.0024 -0.252256 0.135716 0.567384 0.861038 0.0106948 0.654904 
-0.45346 -1.15956 -0.507233 0.400677 -0.209296 -0.225744 0.465272 0.355213 0.509275 -0.0851424 0.262661 -0.490989 -0.677616 0.898695 -0.477009 -0.432776 0.101775 0.774828 0.905754 -0.687999 0.096637 -0.617521 0.327136 0.490963 -0.365367 -0.674745 -0.484716 -0.149375 0.430316 0.746397 1.11508 0.811017 
0.575821 0.0853597 0.763677 0.137167 -0.196561 0.230415 0.520496 0.687202 -1.01144 1.37992 0.553164 -0.0819694 -0.271221 -0.283268 0.20725 -0.45965 -0.247228 -0.458031 0.867761 -0.194273 0.906544 -0.182799 -0.769132 0.465308 0.449318 0.205741 -0.623 0.341873 -0.676774 0.0722283 -0.203432 -0.859663 
0.768192 0.512505 -0.143199 0.374442 -0.205775 0.462774 -0.655133 -0.516014 -1.36864 0.439759 -0.549147 0.731006 0.746891 -0.915207 -0.3329 0.234374 -1.47021 -0.177189 1.816 0.593724 0.58031 -0.0141059 0.533277 -0.266096 0.427882 -0.0816389 0.737893 -0.0657109 -0.503195 0.581991 0.689443 0.675083 
0.767453 -0.717618 0.474671 -0.315859 0.777054 0.524711 -0.651922 -0.205665 -0.977984 0.263676 0.031863 0.446255 0.521759 -0.580299 0.230009 0.703552 -0.0703077 -0.419263 0.425619 -0.374107 1.33203 -0.430783 0.416052 0.179173 0.526959 1.22786 -0.133355 0.687937 -0.580405 -0.428235 -0.117687 -0.207014 
1.13297 0.261108 1.02057 -0.139678 0.617166 -0.885921 -0.43078 0.276584 -0.489382 -0.129665 -0.908282 0.527527 0.658374 -0.000291715 -0.848809 -0.679074 -1.1334 0.191117 -0.354214 0.671615 1.90149 0.647183 0.920756 -0.0432641 -0.258337 1.63638 0.199107 -0.254189 -0.555992 -0.0456617 0.101732 -0.22017 
-0.214613 -0.311946 0.391668 0.169496 -0.159854 -0.360558 -0.45532 0.404157 0.379579 0.199624 -0.791247 0.390148 0.451507 -0.334841 0.575422 0.879775 0.0344309 0.354067 0.765008 0.830619 0.520166 0.76195 0.752789 0.395229 -0.652695 0.551937 -0.720702 1.16544 0.589833 -0.39517 0.0272669 0.194721 
-0.641862 0.385161 0.301838 -0.71653 0.968022 0.293112 -0.0164727 0.637994 0.402325 -0.85949 0.0725059 0.463498 0.53061 0.0653469 0.0586369 0.63686 0.185614 -0.866311 -0.0920004 -1.13066 0.798247 0.564549 -0.118812 0.883035 -0.498477 0.641457 0.0885406 -0.768395 0.445131 -0.00963101 0.929031 0.184541 
-0.831281 0.41587 -0.483687 0.63057 -0.299957 0.110631 0.0119343 0.720339 0.30656 -0.40821 -0.481631 -0.0500703 0.467829 -0.149956 -1.26165 -0.542378 0.448957 0.0547302 -0.368353 -0.414442 0.214546 0.744569 -0.0835983 0.428057 -1.05562 0.0539525 0.269927 0.372534 0.370267 0.261564 1.62371 0.842535 
-1.21744 -0.70101 0.452501 -0.107399 0.597341 -0.262762 -0.429906 0.378254 -0.259397 0.0527495 -0.763477 -0.562706 1.12244 0.459407 -0.871089 -1.31883 0.274828 -0.607719 0.412607 -0.983193 0.24941 -0.689999 1.05043 1.44053 -0.609043 -0.302424 -0.186855 0.00590796 0.672824 -0.575705 0.918176 -0.797388 
-0.110423 -0.882156 0.709625 0.732898 -0.524784 1.02912 -0.301727 0.164605 -0.641742 0.24895 -0.762597 0.0689738 -0.471861 0.975726 -0.148203 -0.534062 -0.337824 -0.194714 -0.0150933 0.409704 -0.103602 -0.129583 0.0136005 0.551342 -0.379958 0.514513 0.147036 -0.549188 0.0151961 1.10998 1.17911 -0.321913 
-0.149304 0.549073 -0.165094 -0.0774481 -0.0885655 0.411621 -0.578615 -0.135686 -0.984863 -1.07514 -0.364075 0.731422 0.282143 0.753796 -0.815707 -0.181103 -0.991328 0.592581 -0.413834 0.0675424 -0.846211 0.596362 -0.0225408 0.0784648 -0.0591655 -0.553712 1.00726 -0.424164 -0.747864 0.035563 1.13817 0.0731454 
0.0709338 0.871224 -0.785535 0.697706 0.443993 -0.490656 -0.259273 -0.0892975 0.180335 0.00457913 0.0433772 -0.069835 -0.505425 0.937674 -0.567635 -0.197952 0.125533 0.130284 0.988274 0.0610498 -0.568278 -0.451374 0.2355 0.385126 -0.13145 0.096683 1.274 -1.56485 0.120183 1.55989 0.559325 -0.675505 
-1.37141 0.129705 0.275255 -0.0943946 0.0769189 0.568998 -0.204014 0.224692 -0.654386 0.0624793 -0.0864714 0.292312 0.420152 0.183696 0.844739 -0.151431 -0.170682 -0.0311415 -0.137601 -0.598617 -0.302544 1.53713 -0.622434 0.306406 0.640036 -0.208356 1.14711 -0.57614 -0.175776 0.277013 0.801525 -0.313662 
-0.489215 -0.497823 0.0182894 1.02508 -0.270501 -0.329927 -0.742773 -0.028501 0.426954 -0.485675 -0.678258 0.383258 -0.398792 1.37517 -0.512866 0.604238 -0.133018 0.0348396 0.282757 -0.969411 -0.286937 -0.498963 -0.160835 1.49271 1.01616 0.309576 -0.252138 -0.117928 0.478652 0.661211 -0.568114 0.861481 
0.484408 0.343118 0.0611544 -0.543348 -0.239372 -0.734341 0.242117 -0.871325 0.226601 -0.544643 -0.509831 0.0687057 1.07174 0.751768 -0.0943159 0.847307 -0.580424 -0.571714 0.385092 -0.962658 -0.309315 -0.417626 0.979139 -0.448157 1.35128 -1.54617 0.159009 -0.175939 0.0529176 1.19107 0.395534 -0.665064 
0.659845 -1.27113 -0.0703841 0.428058 0.266437 -0.63465 0.236614 -0.899119 -0.765066 -0.734469 -0.790324 0.72817 0.900981 0.0678141 -0.224215 -0.212526 0.617953 -0.694018 -0.169099 -0.78858 -0.12445 -0.505954 -0.534815 0.902976 0.610495 -0.469901 0.00759227 -0.286831 0.00798617 0.295176 -0.748294 0.557807 
0.19516 -0.361645 0.845965 0.149765 0.997887 -0.921353 0.236716 0.12809 -0.0195332 -0.753461 0.000910666 0.678498 0.965781 0.133778 0.282552 -0.786365 0.829742 -0.557832 0.063693 0.93948 0.87349 0.448262 -0.593751 -0.504766 0.282075 -0.0591741 0.749251 -0.0107394 0.935543 -0.194305 0.247194 0.23342 
0.115177 0.808757 0.522253 -0.943016 -0.0796475 0.67879 -0.55822 0.0568835 -0.528525 0.617032 0.207257 0.668154 0.731224 0.137862 0.481587 0.958738 0.0375154 0.308022 0.735416 0.604587 -0.5225 -0.350271 0.147224 -0.382268 -0.336678 -0.148316 -0.558053 0.771344 -0.404576 -0.923675 -0.0746913 0.399861 
0.0646704 -0.144235 0.123323 -0.332427 -0.26205 0.837871 0.137028 -0.671274 0.306848 0.844704 0.294514 0.454559 -0.727541 -0.859465 0.691038 0.105607 -0.0527431 -0.387059 0.1773 0.364434 0.317299 -0.292998 0.534357 -0.128401 0.878116 -0.38855 -0.930437 0.890715 0.102294 0.788319 0.0827428 0.733964 
0.737342 0.00414945 -0.0714515 0.420376 0.942802 0.802969 0.121771 0.315881 -0.0234408 0.972489 0.931099 0.725618 -0.672485 -0.762756 -0.327571 -0.153848 -0.914645 -0.952916 0.471856 0.52967 -0.561388 -0.40592 -0.716259 -0.370866 -0.791526 -0.87413 0.071288 -0.792104 -0.63082 -0.0818442 -0.458886 0.99929 
0.431473 0.929849 0.496039 -0.379507 0.682991 0.534818 0.019244 0.663986 0.437682 0.311366 -0.268857 -0.453469 0.0199837 0.848258 0.256301 -0.107267 0.36866 -0.497442 -0.720026 0.300132 -0.323338 -0.994858 -0.250058 -0.266638 -0.863733 -0.0981566 -0.105934 0.298066 0.795563 -0.043986 -0.879668 0.968612 
-0.299881 0.578085 0.747573 -0.68909 -0.538111 0.401192 -0.462924 0.390221 0.11004 0.143215 0.0507852 -0.59368 0.203104 0.72056 0.945342 0.81412 0.0695442 0.932741 0.558095 -0.3144 0.471484 -0.393083 0.425117 -0.690421 0.0531236 0.321195 -0.761884 -0.131425 0.686677 0.128202 0.990605 0.408516 
-0.102011 -1.09748 -0.93115 0.910732 -0.642999 -0.0283028 -0.071548 -0.216333 -0.11979 -0.00618466 -0.481101 -0.347507 -0.839471 1.1301 0.780823 -0.820143 0.106315 -0.625586 0.997777 0.753855 -0.479873 -0.857004 0.622645 -0.738752 0.426829 -0.260003 0.592637 0.465095 -0.129882 -0.464013 0.130615 0.37842 
-0.595939 -0.29864 -0.173889 -0.0900668 0.216782 0.0822059 -0.193593 -0.861814 0.874446 0.269478 0.604502 0.573968 -0.67079 0.0276098 -0.545632 -0.182431 -0.0591947 0.813117 0.816889 -0.70885 0.482583 0.634181 -0.851049 0.629916 -0.45007 -0.310347 -1.06091 0.456925 -0.0313906 -0.436338 0.109285 -0.174418 
-0.450531 0.0459361 -0.309307 -0.106012 -0.0239397 -0.45591 -1.20298 0.619773 -0.709855 -0.192718 -0.0341764 0.563141 0.0799063 0.667973 -0.227187 -0.489084 0.54773 0.333489 0.206813 -0.781581 -0.170355 -0.614022 -1.02307 -0.535928 -0.335869 -0.456879 -0.816737 -0.305351 0.201144 -0.568423 -0.717373 0.281271 
-0.253097 -0.637656 -0.701428 0.0111599 0.600324 -0.907264 -0.0800392 0.165898 0.277197 0.970446 0.862045 -0.211408 0.560919 1.25577 -0.431837 0.355321 0.687874 -0.527596 0.572748 -0.0493016 -0.198862 1.04088 -0.672849 0.829721 0.210888 -0.297142 -0.500594 0.880132 0.0228775 0.122554 0.562343 -0.668455 
-0.0621364 -0.427011 -0.502477 0.895303 0.290307 0.258468 -0.940957 0.733962 0.455815 0.176725 0.168318 0.0220277 -0.685515 0.647415 -0.534343 0.836435 0.747966 0.196068 0.556107 -0.510791 1.15099 -0.674933 -1.01088 -0.760905 -0.218494 -0.786164 0.119361 0.500057 -0.263187 -0.0985068 0.121699 -0.943768 
-0.389283 0.511353 -0.613172 0.155295 -0.664653 -0.729345 0.215807 0.56692 -0.134199 -0.713342 -0.01969 0.270482 0.7013 0.539351 -0.915265 -0.403142 -0.288524 0.33081 1.19378 0.473843 1.29025 0.389593 -0.398722 -0.315962 1.00511 -0.73616 0.298548 -0.00954263 -0.293983 0.584227 0.118234 -0.142706 
0.512384 -0.152917 -0.645573 -0.00480464 -0.699592 0.607659 0.00793895 0.614773 0.511896 -0.404925 0.0954377 -0.164722 -0.0320579 -0.725167 0.893315 0.801309 -0.347523 0.539024 0.676045 0.913293 0.159864 -0.273035 0.405443 -0.310781 0.505232 0.126031 0.00462344 -0.294061 0.377311 0.770904 0.652896 0.708078 
-0.0665864 0.559811 -0.351316 0.765342 0.441847 -0.751828 0.980802 -0.457207 -1.02002 0.910869 0.939111 -0.313678 0.0639175 0.484183 0.522053 0.526757 -0.475558 0.934595 1.15062 -0.28587 1.10791 -0.476311 0.774015 0.0559135 0.530678 -0.678917 0.236048 0.781341 -0.10038 0.556434 -0.40766 -0.519546 
1.00136 -0.844782 -0.131964 -0.718734 -0.622154 1.00201 -0.113235 0.898657 -1.36145 0.791362 0.907079 0.568724 0.155243 -0.106736 0.15421 0.242911 -0.21974 0.0633501 -0.137143 -0.172134 0.802331 -0.106032 0.304505 0.46763 1.55955 -0.0760034 0.338352 0.753888 -0.0136535 0.742001 -0.043289 0.280913 
-0.133742 0.126845 0.913581 0.0380881 0.42366 0.00297721 0.033924 0.262942 0.361772 -0.233517 0.502508 1.16871 -0.0272262 -0.408908 0.535496 -0.267628 -0.644602 -1.28503 -0.42743 0.284223 1.649 0.684352 0.741784 0.353651 0.817054 0.916934 -0.329054 0.0907082 -0.228792 -0.328874 1.12164 -0.112469 
0.861692 -0.575614 0.222579 -0.321147 -0.154424 -0.432742 0.110961 0.904867 -0.309199 1.20684 0.985642 0.427688 0.570358 -0.761061 0.234582 0.765312 -0.394142 -0.983189 0.911751 0.294406 1.30795 -0.0435009 1.02348 0.15406 1.37923 1.43941 -1.16074 -0.0645424 0.0834905 -0.9054 0.795531 0.15681 
-0.640749 0.582642 0.62553 0.328424 0.566136 -0.465152 0.551905 0.694281 0.967315 0.423085 0.0560546 0.85303 0.70807 -0.50311 0.370724 0.339064 -0.625041 -0.469022 -0.568637 0.765647 0.383041 0.981064 0.0959839 0.68091 -1.2665 -0.0774282 -0.0569158 -0.271241 0.942739 -1.76486 0.953573 -0.379129 
-0.521402 0.0807075 0.154615 0.275838 0.89576 0.874136 -0.383809 -0.468264 1.03747 0.470296 0.31971 -0.596921 0.201436 -0.811421 -0.632937 -0.105402 -0.859906 0.357074 0.652075 -0.225108 0.647361 0.0522941 0.83478 -0.0434486 -0.713335 -0.301545 -0.573359 0.594168 1.23705 -0.66497 0.817626 0.209815 
-0.0835727 0.23041 -0.442488 -0.691317 -0.231023 0.13172 -1.42883 -0.295983 -0.334214 0.568439 -0.607738 -0.585915 0.869527 -0.0564048 -0.678987 0.645552 -0.407797 -0.725848 -0.694005 0.456481 -0.115365 0.211047 -0.710937 0.587797 -1.24978 -0.664573 -0.713424 0.195273 0.324301 -0.694897 0.904218 0.247841 
-0.126215 -0.509115 -0.243405 -0.395144 0.661189 0.173771 0.00374375 -0.314286 0.144262 0.379717 -0.270982 0.124735 0.292553 0.754854 -0.916542 -0.649718 0.624917 -0.264743 0.224781 -0.548522 -0.617584 1.07877 0.820055 0.126115 -0.886467 0.24582 -1.12268 0.371773 0.721463 1.35032 0.149646 0.196974 
-1.42124 0.419785 -1.08277 0.1243 0.16095 -0.0542108 -1.24823 -0.512046 0.0508827 0.741362 -0.448303 -0.79174 -0.255038 -0.430994 0.426612 -1.39738 -0.952151 -1.06261 -0.724699 -0.380762 0.280661 0.883853 -0.175637 -0.324083 0.04902 -0.47764 1.03845 0.441317 0.0343183 1.44557 0.72017 -0.236222 
-0.656946 -0.415927 -0.249976 0.515916 0.056767 -0.00796066 -0.362567 0.413897 0.572379 -0.230058 0.536606 -0.0066075 0.381405 -0.217814 -1.01441 -0.561351 -0.510274 -0.823229 0.885748 -0.0564953 -0.418579 0.655037 0.842658 0.714742 -0.937051 0.0748681 1.52547 -0.604763 -0.578734 0.152483 -0.521653 0.161541 
0.505154 -0.0126849 -0.559458 0.593753 0.531135 -1.08159 0.604747 0.275578 -1.18224 0.891418 -0.229962 -1.00354 0.998418 1.03241 0.656581 -0.249247 -0.348348 -1.49708 0.514256 -0.414714 -0.19616 0.122614 -0.0253731 0.179228 -0.43147 -1.00667 1.19946 0.323901 -0.845483 -0.0601207 0.291612 -0.439778 
-0.856067 -0.634108 -0.58896 -0.480855 0.497557 0.225684 -0.4656 -0.228574 -0.614172 -0.516707 -0.0439711 0.653935 -0.875423 1.19885 -0.730142 -0.772511 -0.7032 -0.150016 -0.372467 0.403745 -0.177829 0.869005 0.723235 1.1441 -0.589944 -0.916452 0.030016 -1.16283 -0.34262 0.609762 0.717844 0.383041 
0.230364 -1.02776 0.773275 -0.538614 0.788541 -0.0700199 -0.339744 0.331186 0.374643 -0.745603 -0.141904 0.181 0.285141 0.902503 0.032466 -0.810789 -0.564081 -0.861533 0.55407 -0.335499 -0.272677 -0.00577287 0.416971 1.17025 0.671576 -1.19371 -0.642119 -0.756541 0.0455272 0.275816 -0.235901 0.678482 
0.734312 0.228619 -0.620612 -0.119282 0.550052 -1.50469 -0.680113 -0.886795 -0.467895 0.170702 -0.826806 0.987177 0.122029 -0.0498598 -0.115275 -0.414389 -1.05584 -0.172179 0.275385 0.563471 0.349858 0.538872 -0.841643 0.823686 0.396258 -0.548466 0.558844 -1.18934 -1.1663 0.341616 1.0648 0.646746 
0.868949 -1.41066 -0.583196 0.717814 -0.413972 -0.803218 -0.0135769 0.288025 0.115868 -0.0634607 -0.287318 1.03458 -0.455556 -0.4832 0.517457 -0.30449 -0.348014 -0.283186 -0.331888 -1.17407 -0.59271 0.49323 0.306855 -0.693757 0.560423 -0.683339 0.717735 -0.865101 -0.973842 -0.411476 -0.345184 0.885921 
0.460502 0.266075 -0.107049 -0.510599 0.883492 -0.00705906 0.10377 -0.359863 0.342235 1.02724 0.39183 0.243351 0.574503 -0.22042 -0.336542 -0.405317 -0.524399 -0.0674887 -0.79761 -0.580121 0.370055 -0.344554 0.0674577 -0.0454219 -0.42501 -0.00967007 0.552962 0.21424 -1.03623 -0.580609 0.013551 0.392483 
-0.913755 -0.914447 -0.522276 -0.0116832 0.0498967 -0.93615 0.937504 0.285837 -0.664161 -0.634316 0.131661 -0.537523 -0.00878479 -0.318935 -0.029917 0.813836 -0.376746 -0.525921 0.340516 -0.465589 0.588599 -0.81961 -0.43491 -0.0226001 -0.379522 -0.670479 -0.00674262 0.831538 -0.537756 0.0465412 0.316371 -0.588354 
-0.416943 0.237411 0.125493 -0.703265 -0.588341 0.50489 -0.809123 -0.932577 0.117873 -0.0541512 -0.781767 -0.0440315 -0.26716 -0.959505 -0.422133 -0.458336 -0.689823 0.958974 0.043112 -0.982295 -0.546222 -0.809429 -0.253629 0.640207 0.972153 -0.540964 -0.596087 -0.910528 0.49862 0.653337 -0.535228 0.296655 
-0.202854 0.318676 -0.8279 0.742609 -0.123057 0.502886 0.51306 0.866188 -0.513015 -0.404621 -0.757506 0.613376 -0.144304 0.0293916 -0.565699 -0.843377 -0.729611 0.805521 -0.66702 0.247776 -0.439823 -0.0972134 0.0490942 0.572637 0.84091 -0.0603684 -0.505656 -0.161735 -0.119257 0.609766 0.712339 0.326 
-0.526636 -0.871627 0.301269 -0.625491 -0.198988 -0.544069 0.537487 -0.370603 -0.290624 -0.0187477 0.138439 -0.898199 0.528368 -0.978585 0.0534813 0.878761 -0.890501 0.533829 0.419268 -0.400822 -0.405989 0.539309 -0.97352 -0.405072 -0.540123 0.430574 -0.96079 0.808838 -0.456561 -0.728988 0.279469 0.733641 
0.477186 0.264326 0.191073 0.739078 -0.875473 -0.809382 -0.171529 -0.211217 -0.417594 0.582236 -0.187097 0.0362523 -0.271682 -0.120254 -0.867415 0.848095 -0.209174 0.280334 0.59182 -0.252575 0.367385 -0.748034 0.475551 0.421288 0.228447 -0.985426 0.273855 -0.512913 0.0161921 -0.595098 0.842407 -0.0244091 
-0.395601 -0.517192 0.363306 0.260413 0.805676 -0.0916264 -0.522675 -0.21896 0.667969 1.07936 -0.531929 0.417794 -0.70782 -0.0168058 -0.66737 -0.2398 -0.216135 0.818841 1.02098 0.583994 0.860336 -0.592239 -0.671184 0.352953 -0.178901 0.434993 0.0456453 0.535642 0.0230951 -0.706267 1.01874 -0.201561 
-0.193335 0.183738 0.195303 -0.896399 -0.726214 -0.0430488 -0.17546 -1.04114 -0.169561 0.620801 0.206511 -0.29427 -0.849155 0.74258 1.0403 -0.893721 0.55261 0.427488 -0.067142 0.149679 0.136563 0.691071 0.351381 0.594604 -0.527496 0.196905 0.649105 -0.128159 0.294957 -0.811624 -0.130419 -1.20405 
-0.522443 0.467549 -0.110274 -0.703713 0.178151 -1.06292 -1.2856 0.121619 -0.186954 -0.124696 0.477853 -0.840634 0.432175 -0.112691 -0.71845 0.849477 0.451223 -0.534476 0.631373 0.352996 0.718887 0.226037 0.146641 -0.724355 -0.506026 0.194415 0.859728 0.450357 -0.360494 1.13 0.744042 -0.36926 
-0.911348 0.0672172 -0.333083 -1.01386 0.446286 0.0780773 -1.02733 0.197852 -0.331267 0.482771 0.13863 0.955478 0.766465 0.184567 -0.149304 -0.905224 0.432004 0.495877 0.841171 -1.1131 -0.0599354 -0.571471 0.583889 -0.0252161 0.363827 0.769345 0.217173 0.152067 0.287453 -0.330047 -1.06144 -1.03198 
-0.0194858 -0.625575 -0.825047 0.433195 0.181545 0.143855 -0.276035 -0.46821 0.0875942 -0.813446 -0.0370699 -0.148866 0.746561 -0.506971 -0.0215276 -0.380532 -0.34605 -0.207864 -0.655995 -0.562931 0.225637 -0.656967 0.412611 -0.0374865 0.565812 0.3845 1.12225 -0.695034 0.250038 0.940173 -0.395098 -1.46915 
-0.511653 0.254453 0.466276 0.378759 -0.388609 1.08486 -0.280843 0.036712 -0.95437 0.832896 0.586648 -0.210455 0.757235 1.09445 1.06447 0.131142 0.171885 0.45538 -0.111283 -0.627619 0.557088 -0.125482 0.198543 0.907817 0.928333 -0.214927 0.442818 0.892358 -0.113113 0.186089 -0.581248 0.0645403 
-0.397883 -0.790668 -0.326885 -0.0700621 0.420284 -0.365566 0.682523 -0.294687 -0.356485 -0.904962 0.601158 0.433091 1.04823 0.677002 0.863988 -0.576892 -0.257985 0.842413 1.00097 0.285122 1.10237 -0.0671787 -0.487762 0.806591 1.22043 -1.03152 0.846198 0.0987686 0.574442 1.00314 0.886202 0.0880935 
1.02101 -0.386966 0.0190867 -1.1887 -0.509809 0.526259 0.57533 0.456835 0.382592 0.640878 0.192311 0.777491 -0.507682 0.645369 0.319743 0.651424 0.312224 0.481433 0.569093 -0.209833 0.386768 -0.0212036 -0.67344 0.118241 0.803683 0.0426163 0.45859 0.073142 0.387202 -0.221905 0.664729 -1.04678 
0.857183 0.759077 -0.888151 0.610759 0.0822948 -0.76135 -0.340332 0.0244695 -0.116372 -0.154341 0.782152 -0.13239 0.488368 0.0392202 -0.785776 -0.107701 -1.10047 -0.594561 -0.417354 0.0929451 -1.15412 0.347525 1.16787 1.19612 0.863943 -1.46147 -0.473643 -0.0820191 -0.702437 -0.442057 0.237899 0.393592 
0.81947 -0.443479 -0.7911 -0.47008 -0.679429 -0.56698 0.684741 -0.506321 -0.291319 0.758243 -0.17828 1.71096 0.539461 -0.565906 -0.38905 0.555585 -1.00605 -1.52504 0.568019 0.812718 0.904233 0.433861 0.100522 1.22754 1.46402 0.040433 -1.16112 0.256736 -0.160314 -0.0974773 0.422015 0.245742 
-0.319172 0.580041 -0.39785 -0.983289 0.908171 -1.27563 -0.626706 -1.14125 0.0720216 0.444567 0.0594213 1.49179 0.0401525 -0.264961 -0.438756 0.139357 -0.0512614 -1.17684 -0.336765 -0.533536 0.178418 -0.183186 -0.56 -0.738086 1.23845 1.46243 -0.114885 0.658554 0.27236 -2.0086 0.214566 0.517639 
-1.42431 0.474134 0.828818 -0.239509 -0.426211 0.305604 -0.590126 -0.714823 0.554932 0.763928 0.237115 0.0991578 -0.952632 0.226285 0.83291 -0.146617 -1.08273 -0.0592217 -0.680292 -0.907573 -0.47691 -0.0426095 -0.571772 1.16723 0.125586 0.56366 -1.13467 -0.128864 1.01462 -0.345765 0.460506 0.885961 
-0.469886 0.173271 0.66763 -0.565505 -0.674582 0.198806 -1.38934 0.14817 0.50165 1.65916 -0.731419 -0.57061 1.3431 -0.391803 0.658421 1.529 -0.228814 0.36538 -0.579928 -1.34162 0.651954 0.46825 0.107679 0.84044 -0.733322 0.274572 -0.706897 0.0335567 -0.0858818 -0.996772 -1.04198 -0.358607 
-0.520463 0.544812 0.0714798 -0.640631 -0.809546 0.6275 -0.815959 -0.174155 1.34831 -0.213283 -0.540725 -1.0013 0.584684 0.319823 -0.297237 1.1037 -0.462188 -0.450882 0.755307 -0.12566 0.375417 0.687245 0.113023 0.15973 -0.382144 -0.359516 -0.108661 -0.141293 -0.106695 0.421497 -0.407283 0.861752 
-1.34235 0.176741 0.384364 -0.298475 0.335354 -0.183104 -0.95619 0.5619 -0.24748 -0.335131 0.635599 -1.01879 0.530493 -0.452964 -0.854553 -0.225234 0.34963 0.1418 0.784844 -1.55908 -0.21787 -0.429693 -0.506222 1.06223 -0.443669 -0.0283963 -0.87839 0.0776935 0.216499 0.899918 0.589209 0.0559623 
-1.04276 0.794215 0.177876 0.516702 -0.12372 -0.565952 -0.384348 0.240016 -0.0656813 0.537933 -0.364222 -0.0061024 0.561632 0.57288 -0.4451 -0.347721 -0.467015 0.553245 0.879159 -1.19788 -0.241989 0.926663 -0.0552607 -0.298771 -0.172871 0.475467 0.473937 1.09187 0.0896082 0.73817 -0.110196 0.233501 
-1.07821 0.269102 -0.660699 0.0178295 -0.25548 0.53286 -1.24879 -0.764804 -0.461074 0.125291 -1.00331 -0.17867 -0.0397125 -0.786731 -0.510286 -1.00076 -0.689861 0.146572 0.495998 -0.174069 -0.275192 -0.756863 -0.828405 -0.890205 -1.0127 -0.606627 1.48359 -0.176439 0.376394 0.82956 0.70326 -0.0627267 
0.00673677 -0.117567 0.347705 0.119265 -0.334751 -0.164484 -1.64533 0.0355917 0.353145 0.83771 -0.0527785 -0.0553524 -0.559616 -0.563445 -0.28154 -0.667482 -0.0656224 0.150266 0.0576513 -0.808603 0.265495 0.98958 0.517528 -0.156066 0.370152 0.309237 1.00515 -1.32019 -0.204578 0.272441 0.00485479 -0.514267 
-0.792714 0.719677 0.420793 -0.0612296 -0.941605 -0.967917 -0.712045 -0.379758 0.61857 0.207866 -0.383234 -0.628431 -0.583709 -0.374872 0.997618 -0.179332 -1.37354 -1.13483 0.402955 0.696957 -0.236043 1.22437 -1.09674 1.02896 -0.518543 -0.538661 0.0181973 -0.751192 -0.265387 1.1624 1.17554 0.724071 
0.204101 -0.626684 0.278919 -0.274432 0.326692 -1.20105 -0.884839 -0.864698 -1.19996 1.05405 -0.701632 -0.29713 0.865968 -0.978458 0.482554 0.235449 0.321589 0.392902 0.203032 -0.370753 -0.652635 0.432611 0.606588 0.562018 -0.534031 -1.22457 0.544586 -1.24936 -0.279527 0.887628 0.43957 -0.968821 
-0.602003 -0.271707 0.211128 0.578924 0.0336411 0.111281 -0.0375871 -0.59047 -0.113116 0.245294 -0.943241 0.326729 0.254793 -0.0802199 0.858303 -0.372389 -0.71586 -0.61076 -0.59685 0.010062 -0.717833 -0.622595 -0.271879 -0.485631 1.17231 -0.809423 0.851089 -1.00482 -0.303465 -0.0297468 0.625372 0.878452 
0.631898 0.413557 -0.100631 -0.613932 -0.678018 -0.343717 -0.401605 0.0681036 -0.12826 -0.277898 -0.92966 0.465815 0.271235 0.804472 0.961681 -0.166414 0.065719 0.422356 -0.996105 0.377985 -0.651531 -0.167194 0.648984 0.865567 0.984956 -0.516759 -0.751644 -1.55678 0.0131457 -0.656677 1.24258 0.994119 
-0.144819 -0.390595 0.544136 0.991829 -0.442373 0.470905 -0.45435 -0.232136 -0.0858505 0.170638 0.673121 -0.313211 -0.048947 -0.386484 0.239181 0.556458 0.0512744 -0.47051 -0.915784 -0.0779629 0.972545 -0.0563704 0.107806 -0.336636 -0.351323 0.195812 0.526551 0.162565 0.121042 0.219334 1.08882 -0.064744 
0.861617 -0.0668817 -0.175613 0.39872 0.0282769 0.945511 0.478945 0.48544 -0.17066 0.36391 -0.0668705 -0.914566 0.324142 0.511324 0.374865 0.500918 -0.810409 0.0767978 -0.473638 0.213307 0.298572 0.838352 0.863789 -0.583245 0.7399 0.392475 -0.806253 -0.91157 -0.224927 -0.212535 0.326274 0.660256 
-0.877898 0.127821 -0.169191 -0.688156 -0.758379 -0.94814 -0.184231 -0.41442 0.677515 0.759451 -0.00348376 0.816006 -0.918109 0.127755 0.344434 0.713657 -0.327307 -0.391052 -0.685444 -0.00853661 0.173417 -0.191091 -0.745358 0.821605 -0.962799 0.865188 -0.819768 0.245704 -0.0387278 -0.541688 0.47218 0.421631 
-0.945874 -0.278165 0.972216 -0.586064 0.916995 -0.543378 0.210885 0.523963 0.955029 0.373222 -0.698094 0.982201 0.479121 -0.124579 0.845147 0.441485 0.42484 0.13707 -0.486085 0.30636 -0.309388 -0.258786 -0.672512 0.404234 -0.303884 0.55361 0.418602 0.6762 -0.0948597 -0.71687 0.1713 0.538045 
-0.622654 0.532969 0.446138 -0.702568 0.961445 0.579207 -1.01435 -0.247217 0.0199987 -0.613296 -0.455003 -0.317238 0.881582 0.490767 -0.0253377 -0.0148972 -0.115519 -0.033344 0.876668 -0.154145 -0.683066 -0.575146 -0.31731 0.853886 -0.235243 -0.211705 -0.960758 -0.563481 -0.922288 -0.138979 0.755303 -0.43623 
0.344456 0.480039 0.471762 -0.679545 0.357169 0.0866244 0.0373714 -0.953214 -0.641181 1.0744 0.731633 0.583682 -0.0714439 0.991325 0.0030205 0.501631 0.387417 0.441041 0.652756 0.749245 -0.416513 -0.577315 -0.91537 -0.784095 0.948594 -1.00494 -0.105847 -0.509159 0.267777 0.114161 -0.536827 -0.925601 
0.565167 -0.391309 -0.72393 -0.666049 -0.34219 -0.800204 -0.534738 0.546798 -0.758841 0.811837 0.567819 0.16544 -0.559692 -0.0712488 -0.153689 -0.911609 -0.35579 -0.387232 -0.228438 0.265038 -0.879674 -0.752644 0.149665 0.925704 0.921297 0.231193 -0.577629 -0.572757 0.352185 -0.764596 0.95234 -0.866025 
0.407312 -0.178824 -0.0846123 0.2034 0.26211 -0.0164591 -0.700887 0.728405 0.269092 -0.333132 0.499856 -0.0100727 0.312086 -0.664013 -0.25293 0.753251 0.450269 -0.465303 -0.264167 -0.231771 0.625819 -0.209858 -0.63877 0.828911 0.885489 -1.29024 -0.306423 -0.417183 -0.200226 -0.515604 0.455423 -1.62178 
-0.179531 0.569925 -0.0418605 0.832287 -0.0131395 -0.376003 -1.0845 -0.759742 -0.526904 1.08346 -0.727614 0.0885861 -0.209312 -0.0825298 -0.739965 0.0777513 0.506238 0.841627 1.02223 0.147008 -0.635968 -1.26089 0.408806 -0.502257 -0.0901472 0.904283 -0.0129001 0.410072 -0.633878 1.07072 -0.856713 -1.125 
0.554068 -0.509395 -0.453004 -0.948548 -0.411053 -0.735395 -1.09712 -0.592498 -0.34834 0.182674 0.303254 -0.51645 0.365095 0.603463 0.898546 0.196877 0.701778 0.867721 -0.0480372 0.903524 0.279352 0.78229 -0.0623047 0.88953 2.03763 -0.536079 -0.236969 0.837731 -0.157699 0.54354 -0.233082 -1.28962 
0.324324 -0.541271 0.813199 0.699883 -0.619644 -0.420117 0.0928023 -0.265738 0.559741 -1.03935 0.123943 -0.753512 0.539566 0.745544 -0.666912 0.588638 -0.463104 -0.0671391 0.162083 0.475949 0.0682763 -0.34315 -0.586985 0.746711 0.3059 0.523019 0.586727 -0.27369 0.607222 0.169704 0.771913 -0.182432 
0.940219 -0.668474 -1.05609 0.317799 -0.261116 -0.325977 0.891364 -0.658522 -0.694745 -1.1867 0.193142 0.209835 -0.559475 0.752129 -0.758616 0.434591 -0.805991 -0.165987 0.346788 -0.594943 -0.587286 0.312053 -1.03238 0.0424247 0.7096 -0.153909 0.654966 0.197151 0.421697 -0.373437 -0.563675 -0.215118 
0.517922 0.1031 -0.262213 -1.03854 -0.219079 0.289763 0.0310057 -0.256821 -0.136679 0.244486 -0.430725 0.295465 0.133237 -0.00124016 -0.245525 -0.754266 0.707155 0.353792 0.253604 -0.37762 -1.14866 0.366955 0.154156 0.757482 0.789142 -0.161214 0.403282 -1.03595 -0.00826724 0.622145 0.0131708 0.00447432 
1.12972 0.185694 -0.889006 0.123841 -0.205741 0.566595 -0.495481 -1.64249 0.0599348 -0.907354 0.292693 0.998956 -0.104083 0.0290624 0.349608 0.396939 -0.817073 -0.514235 0.916392 -0.503325 -0.852802 1.15282 0.556124 0.783824 1.20044 -0.867642 -1.13515 -0.422985 1.15201 -0.296431 0.265927 -0.370854 
0.584548 -0.641933 -0.718093 0.220776 -0.709225 -0.193379 0.141543 -0.422026 -0.912356 -0.124283 0.72221 1.07013 0.0336539 -0.0151159 -0.659258 0.152087 -1.25461 0.579184 0.13246 -0.524747 -1.19054 -0.096473 0.833972 0.345743 0.54892 -0.859521 -0.550692 -0.648971 0.0910762 -1.19482 -0.0691494 -0.420998 
-0.809834 0.394986 0.969671 0.194189 -0.242231 -1.49528 -0.589132 -1.4791 -0.0209821 1.17389 0.743457 1.40577 -0.960589 -0.0908837 -0.304651 0.0445138 0.00470885 -0.760585 0.781691 -0.628605 -0.568406 0.446931 -0.64125 0.603334 0.331804 0.316678 0.50539 -0.982469 -1.12811 -0.580566 1.15856 -0.465634 
-0.80892 -0.214074 0.430778 -0.618469 -0.155633 -0.683457 -0.271202 -0.517887 0.065095 0.957593 0.377921 -0.591138 -0.661174 -0.941682 0.854227 0.678983 -1.21193 -0.324811 0.145618 0.0591972 -0.14545 0.862907 0.19616 0.123655 1.66594 0.279523 0.285166 -1.25864 -0.490151 -0.124204 0.543815 -1.0373 
-0.66947 -0.306953 1.32308 -1.27833 -0.0574381 -0.579434 0.155771 0.108125 0.692633 0.746618 -0.126788 -0.965757 -1.44689 0.109464 0.477819 0.134553 -0.79437 -0.96731 0.773779 -0.893369 -0.776454 0.712681 0.758222 -0.350285 0.657056 0.921919 0.264619 0.082211 1.1255 -1.48269 -0.292512 0.0812936 
-0.0485095 0.146782 -0.414607 -0.165272 -0.122124 -0.814604 0.237681 0.675961 0.449437 0.25446 -0.366213 -1.04619 -0.442007 0.629476 0.433629 1.74333 -0.593226 -0.152971 0.519961 -0.544155 -0.513042 0.249583 -0.188988 -0.365912 -0.677659 -0.29937 -0.487451 -1.21153 1.08254 0.905434 -0.5144 0.413003 
-0.13672 0.277522 -0.628756 -0.386933 -1.34834 0.384324 -0.721398 0.123051 -0.0175687 0.838135 -0.664819 -0.736308 -1.03626 0.481825 -0.791632 1.46789 -0.171875 0.888811 -0.355635 -0.383144 -0.254554 -0.537566 -0.307757 -0.306053 -0.954574 0.556596 0.881719 0.602409 0.412862 0.714916 -0.519827 -1.31524 
-0.500964 0.289744 -1.19544 0.0623856 -1.22488 0.719655 -0.992926 0.10925 0.787036 1.06092 0.428452 0.160601 -1.11492 0.209202 0.567069 -0.880324 -0.868818 0.0404236 1.11206 0.421875 1.01692 0.261646 0.460833 0.431529 -0.709013 0.55806 1.13129 0.596134 -0.0426244 0.449036 -0.159401 -0.138683 
0.193499 0.794475 -0.0768953 -0.810312 -1.03411 0.48999 -1.19094 -0.453981 -0.0790992 -0.0660852 -0.619215 -1.07045 -1.06659 0.55386 0.0171855 -0.171909 0.555064 0.131509 0.497836 0.149717 -0.0734272 -0.190179 0.401096 -0.682919 -0.740098 -0.604737 -0.349231 0.0203361 -0.295763 0.81287 -0.0912839 -0.39551 
-0.205446 -1.01754 -0.50526 0.191113 -0.544145 0.388993 -0.229356 -1.17452 -0.71726 -0.71683 0.301164 -0.94748 -0.688564 0.0823903 -1.05669 -1.11248 -0.397671 -0.172213 0.68035 0.299007 0.572629 -0.676707 0.430106 0.179888 -0.775452 0.00117711 0.470933 1.27437 0.791847 0.90116 0.517448 -0.872308 
