0.141459 0.757273 -0.58049 -0.467722 -0.498094 -0.921991 0.661163 -0.692984 -0.443849 0.584633 -0.611852 0.267103 -0.307272 0.384057 -0.560873 -0.639648 -0.224402 0.723778 0.482322 -0.386194 0.700209 0.584813 -0.185383 -0.752079 -0.864431 0.255211 -0.412363 -0.645251 0.789756 0.830719 -0.254443 -0.524372 
-0.680172 -0.35345 0.420585 0.595703 -0.820911 -0.416515 0.485648 0.753513 -0.0863733 0.435194 0.355323 0.559893 -0.237245 -0.784928 -0.755882 -0.7137 0.821426 0.359654 0.102114 -0.576426 -0.655295 0.229719 -0.380639 0.350082 -0.921033 0.12136 -0.81806 -0.959544 -0.0875752 0.247893 0.23017 0.411924 
-0.234382 0.400562 0.396895 0.467434 -0.748031 -0.0166311 0.299881 -0.84157 0.441546 -0.762772 -0.43493 0.780258 0.933996 0.466909 -0.112662 -0.466356 0.3139 -0.397529 -0.921229 0.79526 0.877993 -0.845364 0.0431518 0.899657 0.616944 -0.871929 -0.525654 0.0136843 -0.864699 0.872475 -0.713166 0.312647 
0.972434 -0.0973103 -0.728205 -0.126844 -0.854193 0.93557 -0.912287 -0.172864 0.503973 -0.990711 -0.0518983 0.292511 0.346334 -0.401535 -0.47615 0.738458 0.657441 0.301966 -0.279094 -0.896341 0.0731998 0.972498 -0.243383 -0.0329692 -0.916551 -0.347687 -0.815736 0.716333 -0.592666 -0.809124 0.648675 -0.0613711 
0.31702 -0.907112 -0.360269 0.646683 -0.194577 0.202106 -0.0806215 -0.897041 0.727644 -0.249905 -0.847361 0.901496 -0.896438 -0.384099 0.465978 -0.180424 0.334851 0.0834579 0.574835 0.702808 -0.854021 0.279887 0.0257648 0.629871 0.0299237 -0.910832 0.595582 -0.314379 -0.855981 0.771078 0.78962 0.56174 
0.802355 0.018385 -0.217477 -0.260917 0.0820225 -0.58727 0.000131324 -0.449668 0.458381 -0.0359988 -0.97397 -0.1203 0.432487 -0.56131 -0.587184 -0.966682 0.0783951 0.467436 -0.977247 -0.573417 0.634043 0.90969 0.0628266 0.578453 0.620614 -0.205456 -0.140496 0.169959 0.942778 0.510556 -0.32207 0.495707 
0.219047 0.941063 -0.948123 -0.900582 -0.815688 0.154232 -0.105677 0.846662 0.166251 -0.17999 0.265497 -0.245326 0.391724 0.190161 0.544247 -0.469315 -0.553357 0.316866 0.544332 -0.508449 0.158622 -0.298756 0.0515487 0.986381 -0.67824 0.83396 0.268565 -0.599681 0.725883 0.972108 -0.32523 0.731527 
0.954367 -0.397465 0.0658691 -0.641519 0.271513 -0.497056 0.858878 -0.928327 -0.544131 0.827262 0.827449 -0.668847 0.898938 0.592654 0.436162 0.32591 -0.906386 0.373737 -0.102322 0.423125 -0.143843 -0.0277304 -0.330068 0.326331 0.406618 0.803393 -0.745983 -0.906374 0.498064 -0.27117 0.0567997 -0.483774 
0.333397 -0.609019 0.55457 0.607911 -0.471323 0.137278 0.271471 -0.642299 -0.348972 -0.319692 -0.728618 0.629617 0.493639 -0.892714 -0.618534 0.145236 -0.472004 -0.201334 0.526511 -0.0095109 -0.304964 0.0716971 0.702051 -0.0679387 0.487607 0.0721323 -0.599793 0.656535 -0.958739 -0.475343 0.567188 0.188069 
0.896251 -0.649027 0.70002 -0.485806 -0.515166 -0.00757143 0.494901 -0.7219 -0.681314 0.146775 -0.575047 -0.918992 -0.515228 0.438858 0.025757 0.983619 0.0726193 0.457547 0.0398105 -0.573464 -0.825514 -0.55163 -0.0666896 -0.128207 0.645884 -0.596961 -0.728966 0.519158 -0.896249 0.0858845 0.38272 -0.0488893 
0.82339 -0.295785 -0.324682 -0.645077 0.289325 0.329183 -0.74296 0.894443 -0.771945 0.924605 -0.609097 0.743841 0.86611 -0.689378 -0.811439 -0.90121 -0.112046 0.981486 -0.305805 0.695596 -0.881024 0.862856 0.362872 0.498981 0.16204 0.533782 -0.487815 -0.652758 0.321541 0.791507 0.17797 -0.690172 
0.669559 0.983595 0.390941 0.743806 -0.817782 -0.0554124 0.787622 -0.308506 0.430507 0.9641 -0.301897 -0.384825 -0.629597 -0.0811257 0.882896 -0.115033 0.243997 0.696079 0.337329 -0.70939 0.629507 0.0390629 0.473376 -0.833761 0.101033 -0.778578 -0.278545 0.932498 0.621388 -0.394844 -0.125769 -0.482735 
-0.827648 -0.885474 -0.4839 -0.691541 -0.425733 0.140745 0.544016 -0.357334 0.946126 -0.382896 -0.652022 -0.844557 -0.591406 -0.571518 -0.0853833 -0.582782 -0.772027 0.468488 0.961112 0.793274 -0.432098 0.67489 0.878076 0.992218 0.445249 0.544302 0.563322 0.949222 0.755135 -0.524455 -0.648914 0.442081 
0.36358 -0.456985 0.866436 0.824571 0.629972 0.866456 0.989647 0.379552 -0.817709 0.314627 -0.706113 0.209487 -0.363654 0.115774 0.948884 0.762005 -0.847042 0.317812 -0.792242 -0.26354 -0.917518 0.387228 -0.0821588 -0.628913 0.140318 -0.484914 -0.733134 -0.0103278 -0.838015 -0.303817 0.858515 -0.0586538 
0.342681 -0.288723 0.468474 -0.614002 0.945153 0.154294 0.524996 -0.467853 -0.669525 -0.668153 0.119474 -0.0393793 0.221644 -0.664045 -0.574657 0.874885 -0.707405 -0.147348 0.984554 -0.174026 -0.02543 -0.833113 -0.314818 -0.121792 -0.466738 0.566078 0.162058 -0.75453 0.271988 -0.612984 0.616 0.538766 
-0.12625 -0.843371 -0.0778642 -0.0657342 -0.859837 0.953859 -0.452575 -0.631729 -0.95974 -0.558701 0.00336715 0.761696 -0.400394 -0.234481 -0.531076 -0.635717 0.255322 0.83661 0.0297724 0.458108 -0.91439 -0.188381 -0.920232 0.368812 -0.215251 0.528508 -0.37376 0.323876 -0.0694785 -0.701635 -0.820439 0.417678 
0.0557576 0.410828 -0.0957476 0.394167 -0.672607 -0.518499 -0.0477033 0.846807 -0.646149 -0.291692 -0.43621 -0.229885 -0.0874505 0.0931081 0.201944 0.234826 -0.0666082 0.977836 0.00749484 0.484193 0.125639 0.216971 -0.00261762 0.61567 -0.254777 0.43744 -0.563427 0.255477 0.274952 0.429252 -0.15368 -0.261101 
0.343711 0.087141 0.657293 -0.156664 0.455822 -0.862603 -0.114898 -0.875907 0.610479 0.0670598 0.982965 0.538658 0.0322864 0.593224 0.755478 -0.451827 -0.951993 -0.127194 0.0392725 0.864356 -0.39874 0.679154 -0.805463 -0.408206 -0.431119 0.432152 0.576117 0.0298213 0.00164484 0.654518 -0.289735 0.0152048 
0.921691 -0.412282 0.746123 -0.263232 0.285789 -0.381959 -0.471104 0.14587 0.815991 0.0712321 -0.433178 -0.319238 -0.218656 0.388212 -0.0297689 -0.964278 0.195687 0.018237 0.360027 -0.338631 0.15525 0.672647 -0.45073 -0.464943 0.595087 0.42058 -0.620894 -0.96395 0.480417 -0.881297 -0.951917 -0.0553742 
-0.884115 0.572688 -0.832053 0.237743 0.012698 -0.331627 0.0440081 -0.0902695 -0.462725 -0.440698 0.906817 -0.151159 0.840936 0.76613 -0.452708 0.676356 0.0559519 -0.356932 0.0856517 -0.496296 0.164223 0.704504 0.492388 -0.611252 -0.85823 0.719999 -0.431411 0.832957 -0.110071 -0.699995 0.604148 -0.650335 
-0.538972 -0.448464 0.617153 0.377623 -0.608762 0.791173 -0.227466 -0.911173 -0.627905 0.0716112 0.346409 0.298693 0.464783 -0.902723 -0.777144 0.437158 0.255801 -0.712731 -0.623522 -0.865759 -0.384462 0.0942567 0.729228 0.789544 -0.773738 0.01195 -0.882179 0.555112 0.0789167 -0.816458 0.429263 0.951796 
0.611848 -0.222313 0.273533 -0.96992 -0.711791 0.902479 -0.345782 0.0825994 -0.979085 -0.0668484 0.713816 -0.449096 -0.905304 0.383502 0.168921 -0.848255 -0.377695 0.469264 -0.398157 0.71434 0.802251 -0.355169 0.534494 -0.707412 -0.622112 -0.00542634 0.683167 0.861347 0.613319 0.378042 -0.956927 -0.0436207 
0.185351 0.72699 0.921597 -0.409954 0.653493 -0.354334 -0.783206 -0.821551 -0.082845 -0.699845 0.684107 0.419 0.148207 0.640245 0.516806 0.0620011 -0.497803 -0.118028 -0.308797 -0.786584 0.758425 -0.911328 -0.835937 0.600249 0.289255 -0.882383 -0.950564 0.0522123 0.942337 0.963671 -0.299943 -0.711947 
-0.382242 0.893455 -0.349087 -0.922034 -0.259054 -0.0749216 -0.508085 0.0620861 0.352012 -0.772425 0.0252312 -0.0874461 0.904834 0.369532 0.929086 0.358554 0.543878 0.559814 -0.665922 -0.859017 0.696503 -0.953998 -0.403434 0.535702 -0.963627 0.813855 0.722232 -0.949361 0.592847 0.713094 0.398838 0.0541159 
-0.00776208 -0.699794 0.748965 0.290244 0.00811612 -0.942243 0.284521 -0.503395 0.173583 -0.0160202 0.0194063 0.0898883 0.947388 0.422634 0.670576 0.786104 0.934443 0.379117 -0.816259 0.0362112 0.737776 0.476356 -0.558378 0.278159 0.171419 0.08829 -0.869485 -0.480532 -0.483371 -0.259628 -0.94043 -0.718867 
-0.477549 -0.986364 -0.67816 0.514412 -0.679345 0.186365 0.25195 0.496457 -0.882511 0.238157 -0.327777 -0.233646 -0.779384 0.821645 -0.450334 0.135986 0.724147 0.256196 -0.637238 -0.405201 0.563657 0.238402 -0.13936 0.48153 0.39493 -0.391248 0.158454 -0.534449 -0.199611 0.82612 0.199639 0.366567 
0.676491 -0.45978 0.394555 0.541093 -0.439525 0.0338966 -0.580843 0.438852 0.996486 -0.443484 -0.682656 0.66532 0.251191 0.0444472 -0.451645 0.340795 0.585013 -0.357272 -0.729253 -0.960336 0.807533 0.27012 -0.483817 -0.753489 0.864786 0.0549602 0.204311 -0.327369 0.996582 0.225453 0.21193 -0.819104 
-0.750627 -0.841169 -0.471597 -0.498763 0.909257 0.110893 0.614156 0.0963788 -0.833351 -0.329107 -0.81928 0.5254 -0.954462 -0.948948 -0.242301 -0.511618 -0.88058 -0.266523 0.591828 0.88172 -0.475207 -0.0867882 -0.829518 0.970861 -0.120728 -0.47775 -0.851349 -0.466123 -0.248617 -0.42086 0.0567226 -0.233382 
-0.119945 0.371353 0.880476 0.36505 -0.599458 0.803965 -0.153722 -0.449572 0.676957 -0.931989 -0.388796 -0.801032 0.158175 -0.616027 0.415216 -0.635653 -0.0718359 0.963223 -0.511929 0.0996047 0.410138 0.669029 -0.867709 0.950777 -0.723285 0.897328 0.12866 -0.192236 0.776666 -0.0533854 0.572069 -0.534813 
0.768253 0.140136 0.322189 -0.728941 0.500042 0.465439 0.344562 0.0857889 -0.908146 -0.357807 -0.680412 -0.977295 0.0314672 0.33959 0.450383 0.368944 0.453498 -0.135151 -0.876897 -0.0685333 0.482839 0.20998 0.666726 0.806584 -0.740651 0.565549 -0.610096 0.623394 -0.472295 0.136594 0.90567 0.0467796 
0.803463 -0.679043 -0.15034 0.546127 -0.842415 0.568337 -0.875711 -0.504883 -0.0683191 0.433753 0.79991 0.32192 0.92 0.5212 -0.535681 -0.701349 0.0747547 0.649124 0.520289 0.352742 0.868353 0.67212 0.575857 0.731092 0.364601 0.0499408 -0.557502 -0.600059 0.78071 -0.169708 -0.928071 -0.254835 
-0.43153 0.373433 0.203422 -0.652075 0.919329 0.679509 0.891906 0.819271 -0.3668 -0.414286 0.900942 -0.74035 -0.161341 -0.33854 0.12762 -0.977741 -0.604588 -0.97294 0.624586 0.165848 -0.950865 0.40179 -0.408505 0.953895 -0.94196 0.855226 -0.0850663 0.108393 0.724456 -0.370867 -0.646777 -0.0651634 
0.811648 -0.689974 0.715466 0.438736 0.20161 0.756738 0.496717 -0.940112 -0.931266 -0.148425 0.248041 0.514117 -0.262479 0.856896 -0.111305 0.264602 0.374282 -0.162368 0.834344 0.869001 0.763406 -0.167027 -0.00518994 -0.977889 -0.948846 0.520809 0.175525 -0.492126 0.150282 -0.47794 0.226742 -0.724093 
-0.413987 -0.775574 0.320317 -0.0142263 0.0921975 0.720753 0.397177 0.350609 0.474147 -0.515505 0.159235 0.619315 0.870489 0.124305 0.416606 -0.654143 0.313622 -0.85111 0.0735072 0.441293 0.87917 0.100547 0.13648 0.53367 0.551696 0.666609 -0.200172 0.794107 0.574307 0.706747 0.829012 -0.243828 
-0.279568 0.226 -0.765656 -0.903363 -0.561141 -0.22071 0.30173 -0.469032 0.0307761 0.536619 0.559848 0.123978 -0.16315 0.548097 -0.133436 -0.618938 -0.430183 0.356324 -0.557979 -0.152756 0.624191 -0.644475 -0.120947 -0.915297 -0.218782 -0.876305 0.900772 -0.42029 -0.224634 -0.156002 -0.0995453 -0.425568 
0.805105 -0.466867 0.276913 0.0479291 0.561974 -0.857295 -0.231315 -0.154658 1.06308 -0.923912 0.663659 0.0555613 0.56463 0.100984 -0.661911 -0.0138676 -0.741447 0.107006 -0.2394 0.448072 0.707457 0.640056 -0.0594431 0.320571 0.326881 -0.727219 0.0142267 -0.826408 0.728613 -0.169771 -0.238713 0.0843618 
0.259565 -0.645419 0.619968 0.243385 0.642851 -0.222984 -0.676845 -0.313789 -0.181684 -0.591539 -0.309992 0.127802 -0.898632 -0.71935 0.99427 0.781403 -0.23884 0.0551879 -0.279911 -0.405678 -0.551235 -0.032018 0.176166 -0.344019 0.764306 -0.0330729 0.603513 -0.759437 -0.0233079 -0.132327 0.756036 -0.910229 
0.548583 0.393952 0.735316 0.688228 -0.733043 0.707924 0.567472 -0.880831 0.6414 0.763653 0.728878 0.231161 -0.684961 0.394296 -0.26598 -0.305472 0.529757 0.632248 0.0550367 -0.88721 -0.107427 0.865915 -0.107666 -0.259952 0.57164 0.0495725 0.157093 0.484536 -0.106767 0.790679 0.915959 -0.234752 
0.918888 -0.577685 -0.914322 0.195493 -0.505896 0.914161 -0.340723 -0.30302 0.272386 0.285785 0.968596 -0.874532 0.00517854 0.63528 0.375967 0.434936 -0.440952 -0.42866 0.0841041 0.591695 -0.501296 0.663851 0.511818 0.96224 -0.987585 -0.561919 -0.24731 0.783938 0.98094 0.713163 -0.471274 -0.707717 
0.0685667 0.882786 0.964043 0.454166 0.0274742 0.979858 0.134379 -0.445417 0.0534508 -0.403118 0.0523206 0.178341 0.628359 -0.528426 0.783744 0.679788 -0.333054 0.740513 0.22518 -0.782159 -0.0163566 -0.640821 0.968363 0.238506 -0.486673 0.21095 0.952335 0.132434 0.405137 -0.72121 0.528395 0.692729 
-0.36643 0.318403 0.789159 -0.767627 -0.518847 0.61524 0.0107112 -0.806955 0.331168 -0.227991 0.782704 0.646158 0.584297 -0.379505 -0.741251 -0.238572 -0.510228 -0.385403 -0.357808 0.978658 -0.315358 -0.764138 0.418384 -0.322282 0.959281 0.407184 0.0220385 0.199342 0.108671 0.068314 -0.338022 0.811502 
0.0395967 0.350086 0.757266 -0.276827 0.321201 0.840969 -0.781871 -0.676727 0.792712 0.95287 0.162208 0.0523132 -0.531005 0.556791 0.445357 -0.569642 -0.213925 0.980711 0.682384 -0.966068 0.437621 0.228005 0.777746 0.672599 0.90746 0.313441 -0.520303 -0.555786 -0.600109 -0.419247 0.057745 0.473915 
-0.634159 0.662275 0.353603 -0.785236 -0.101368 0.568593 0.503287 -0.176986 0.322437 -0.906057 -0.974723 -0.79032 0.538109 0.201041 0.863596 -0.369503 0.316822 0.651506 -0.65812 0.817652 0.675299 -0.828464 -0.295675 0.775194 -0.901555 0.0683588 -0.660386 -0.548029 -0.720264 -0.58338 -0.769269 -0.851459 
-0.661405 -0.530068 -0.665909 -0.872466 -0.162325 -0.47834 0.798401 0.295805 -0.0922739 -0.55537 -0.329048 -0.300607 0.392964 0.219495 0.535636 -0.161893 0.742002 0.300736 -0.269997 0.485477 -0.414752 -0.45347 -0.843063 0.0845296 0.0221292 -0.221846 0.343682 -0.071506 -0.394546 0.239232 -0.774053 -0.730394 
-0.971802 0.318586 0.130689 0.137135 0.0977439 0.597522 -0.972465 -0.560259 -0.489757 0.726807 -0.765312 0.118247 0.0572231 -0.355808 0.964884 0.192275 0.445806 -0.674234 -0.219029 -0.996707 -0.757667 0.559687 0.876765 0.637076 -0.609229 -0.481556 -0.0716314 0.492017 -0.166773 -0.116999 -0.905292 0.388083 
0.82326 0.441673 -0.565813 -0.696981 0.60465 -0.0364199 -0.266838 -0.990156 0.315244 -0.818284 0.252221 -0.386225 0.752115 0.573444 -0.259571 0.778127 0.772132 -0.0255973 -0.10906 -0.0217113 0.175489 0.030536 0.822868 -0.26885 0.681081 -0.618132 0.612126 -0.841188 -0.634349 0.0678095 0.721887 0.440773 
0.886817 -0.701649 0.164226 -0.265725 -0.084453 0.0982324 0.631807 -0.0447096 0.133575 -0.450754 0.653114 0.605272 -0.223646 0.805653 -0.613551 0.00301657 -0.862829 0.884941 0.61059 -0.715465 -0.0343911 0.145806 -0.802663 0.147771 -0.674501 0.960852 0.162226 -0.935317 -0.699577 -0.546521 0.365332 -0.60851 
-0.00339081 -0.939505 0.743782 0.311309 0.668924 0.125909 0.393294 -0.893858 -0.277008 0.423097 -0.48538 -0.0913864 -0.763386 0.719976 -0.0339112 0.749083 -0.787054 -0.132119 -0.205458 0.887034 -0.357614 -0.355377 0.687734 -0.475146 0.968931 -0.805855 -0.743831 0.69491 0.655067 0.0785933 -0.655332 0.946723 
0.710787 -0.90054 -0.226377 0.105492 -0.630429 -0.493409 0.826036 0.896785 0.428355 -0.108401 0.303219 -0.0115566 0.245665 -0.0766979 0.84709 -0.668297 0.41846 0.115312 -0.0561142 0.895871 0.166679 0.39678 0.0281684 0.887541 0.70646 -0.588086 -0.170596 -0.448124 0.0793234 -0.0590451 0.267959 -0.222816 
0.336103 -0.643783 0.817219 -0.472077 -0.187382 0.0324284 -0.149188 0.092471 -0.707583 0.207422 0.494138 -0.944891 -0.0879162 0.244835 0.874882 -0.891424 -0.659096 -0.183004 0.0494471 -0.915063 -0.134334 0.224604 0.803524 0.0387268 -0.228359 0.285088 -0.0705407 0.629796 0.545148 -0.472482 -0.37602 -0.486855 
0.181852 -0.0253764 0.158678 0.41355 0.82576 -0.394458 -0.488985 -0.943009 0.734991 0.661492 -0.856145 -0.91322 0.625468 0.049886 -0.861177 0.413537 0.93231 -0.0629009 -0.456575 -0.0060459 0.109769 0.413456 0.370064 0.668127 0.592204 -0.216659 -0.812946 0.871454 -0.969929 -0.41287 0.892981 0.837676 
0.576401 -0.175358 0.634944 0.0265583 -0.433624 -0.786239 0.236457 0.246127 0.51809 0.657989 -0.410488 0.217426 0.874756 -0.439664 0.0890068 -0.773706 0.472733 -0.0250739 0.221275 0.288424 0.909091 0.0346423 -0.532558 0.765235 -0.337597 0.29659 -0.122748 -0.20567 0.564203 0.749671 -0.545505 0.0499414 
0.340225 0.846074 0.520604 0.115052 0.817796 -0.22689 -0.486769 -0.876707 0.180905 -0.728193 -0.830792 0.768351 0.142523 0.13357 -0.871816 -0.0886267 0.424908 0.941894 0.991371 -0.806334 0.139645 0.44541 0.306392 0.204791 -0.664888 0.757104 -0.242808 -0.866364 0.00461395 -0.549504 0.578057 -0.73498 
-0.528874 0.00237795 -0.401796 -0.625465 -0.321333 0.78857 0.952251 -0.295439 -0.0907008 -0.344162 -0.360057 -0.250815 -0.260827 -0.916121 -0.345123 0.640876 -0.911737 -0.677843 -0.838433 -0.187081 0.685694 0.158141 -0.08298 -0.377111 0.705885 0.351169 0.5959 -0.798457 0.130307 0.686393 0.463913 -0.787682 
0.77645 0.458314 0.0774926 0.0496786 0.929023 -0.780373 0.237142 0.499788 -0.686509 -0.409124 0.928113 0.134246 0.0299939 -0.78053 -0.961656 -0.538538 0.191389 -0.136651 -0.147641 -0.774873 0.0377495 -0.849691 -0.504076 0.949853 -0.642844 -0.400726 -0.0292253 0.537881 -0.426166 0.574248 0.877 0.0406736 
-0.208345 -0.722227 0.773715 -0.702192 -0.829149 0.296265 -0.186171 -0.291707 0.35595 0.545458 -0.500508 -0.389783 0.589786 0.533458 0.465788 0.289841 0.267894 -0.300503 0.469668 0.493095 0.47075 0.419305 0.130052 -0.40704 0.0498215 0.533381 0.124906 -0.293006 0.854919 -0.617868 0.151157 0.366701 
-0.230236 -0.23432 -0.40829 0.0102416 -0.523295 0.886597 0.539731 0.164973 0.952797 -0.610151 0.162637 0.118853 -0.918018 -0.999525 0.915633 -0.85198 -0.664963 0.801515 -0.766046 -0.0712117 0.0614558 -0.38182 -0.192721 -0.837332 -0.920349 -0.669129 0.726897 -0.785047 -0.651172 -0.0943706 -0.536305 0.915678 
-0.446867 -0.395981 -0.613518 -0.922493 0.902995 0.956422 0.586604 -0.0785242 0.945417 0.529628 0.662403 -0.729688 -0.671423 -0.0673237 0.915352 -0.132346 0.735731 0.953553 -0.65605 -0.105439 -0.0378448 0.795222 0.570109 0.975769 -0.0336552 -0.568079 0.185103 0.400854 0.518855 0.251242 -0.346793 0.369435 
0.676605 0.811892 0.731117 -0.0904962 0.736148 0.01315 -0.483732 -0.27549 -0.579239 0.87502 0.77655 -0.337177 -0.40423 0.887748 0.242104 -0.514956 -0.203933 0.0844558 0.482814 -0.657111 0.926777 0.754618 0.731138 0.964837 -0.426248 -0.314278 -0.668852 -0.860386 0.34779 -0.939336 0.961211 -0.960512 
-0.935043 0.706871 -0.245553 0.783213 -0.669232 -0.769491 0.201974 0.633462 0.0857051 -0.579896 -0.370244 0.82859 -0.320137 -0.473541 -0.0503554 0.495203 0.113972 0.256715 0.422949 0.46816 -0.655851 -0.587992 0.735704 -0.0502208 -0.895596 0.527349 0.515184 -0.141345 -0.227155 0.218487 0.925146 -0.998064 
-0.89316 0.598349 -0.593998 -0.313056 -0.582695 0.555474 -0.789987 0.403531 -0.896273 0.229857 0.685172 0.392854 0.312039 -0.328138 0.999502 0.907376 0.597973 0.862248 0.0419297 -0.0356169 -0.347115 0.364091 -0.677227 -0.413912 0.956021 -0.32672 0.116826 0.174125 -0.790471 -0.615869 0.250005 -0.640413 
-0.554965 -0.0331377 0.51255 0.744006 -0.797281 0.604081 0.816829 0.456627 0.580519 0.887686 -0.107913 -0.153608 0.0610999 0.890648 -0.52375 0.865166 -0.419416 -0.628688 -0.106133 0.488518 -0.451795 0.614063 -0.526805 0.656164 -0.265734 0.502167 0.504776 0.482147 0.509186 -0.623801 0.430252 -0.394523 
-0.889741 -0.407872 0.471506 -0.391326 -0.137591 -0.4492 0.326751 0.0528327 -0.224054 -0.761825 0.767535 -0.468446 -0.725526 -0.474258 -0.0802112 0.172442 0.993503 0.38354 -0.812912 0.040024 0.849376 0.615849 -0.0490863 0.723815 0.592973 0.864899 -0.784387 0.439605 -0.0450059 0.886104 0.919338 0.438345 
0.304019 0.840783 0.195888 -0.0399614 0.239474 -0.609379 0.794823 -0.369521 0.677712 -0.871599 -0.0167414 0.145894 0.311181 -0.676409 0.313575 0.740458 -0.0800936 0.44183 0.703118 -0.366138 -0.17594 0.509564 -0.408354 -0.336518 0.24431 0.977469 -0.0434725 -0.642431 -0.110257 0.617981 -0.77065 -0.21598 
-0.421878 -0.795186 -0.660787 0.503587 0.112827 -0.650175 0.553799 -0.548475 1.07504 0.551497 -0.291782 -0.281942 -0.515672 -0.704421 0.938408 -0.0616296 0.587729 0.313974 -0.765328 -0.154037 0.0960885 -0.366877 0.336106 -0.0063484 0.0225017 -0.729689 0.00527293 0.0388397 -0.692168 -0.228184 0.359107 -0.103625 
-0.715065 -0.388544 0.0253495 -0.518471 0.096456 -0.658145 -0.276762 0.81188 0.0146791 -0.454505 0.621655 -0.423913 0.109704 -0.659884 -0.131219 -0.771662 0.118498 -0.0297861 0.283583 0.792257 -0.839591 0.256849 -0.455741 -0.186087 -0.280698 0.669348 -0.868734 -0.336676 -0.507333 0.770104 -0.285041 -0.918141 
0.700189 0.890442 -0.588173 -0.714295 -0.15163 -0.869511 -0.622497 -0.853211 -0.329687 -0.363948 0.478417 0.029378 0.868155 0.561572 -0.358612 -0.514072 -0.853245 -0.344035 -0.40768 -0.836841 -0.303352 -0.0215373 0.467892 -0.516799 0.0229196 0.504419 -0.688324 -0.989129 -0.376174 0.0504702 0.209986 0.440566 
0.441525 -0.126302 0.207599 0.789408 0.900464 0.747975 0.127343 0.197377 -0.627779 -0.305712 0.40987 0.902474 -0.784324 0.106078 -0.432205 -0.196759 0.911397 -0.453354 0.0773539 0.623482 -0.353007 0.427994 -0.273095 0.0174605 -0.869945 0.0102336 -0.739277 0.874276 0.660091 -0.117945 0.164374 -0.231358 
0.341906 0.109743 0.602301 0.417314 1.04888 -0.908454 0.423274 -0.119165 0.168532 -0.29449 0.930736 0.22982 -0.105332 0.826526 -0.304288 0.215783 -0.0718947 -0.678824 -0.700018 -0.532261 -0.784928 0.822563 0.201537 0.636244 0.630307 -0.395852 0.701179 -0.57483 0.124086 -0.291964 0.798469 0.448989 
0.349259 0.0234666 0.746685 -0.81791 -0.623443 0.20324 -0.790399 -0.342 0.720802 0.67615 0.348606 0.979575 0.163913 0.142228 0.919654 -0.28855 0.395024 0.565501 -0.639438 0.541619 0.212065 -0.262277 0.0785201 -0.67267 -0.866985 -0.453317 -0.540836 -0.427795 -0.507517 0.590906 0.0963841 0.0765831 
0.755805 -0.715712 0.250961 0.00229162 -0.351386 -0.160566 0.350673 0.313066 0.491673 0.280166 -0.58759 -0.868508 0.23332 0.828633 -0.275669 0.411404 -1.03151 0.322871 0.32924 0.113715 0.345091 0.681732 0.529372 -0.123343 -0.269764 0.791644 0.0226362 -0.413144 -1.05165 -0.114658 -0.0842502 -0.513256 
0.722664 -0.535461 0.942014 0.0735768 0.450913 -0.696429 0.677874 0.39568 -0.182955 -0.882753 -0.892242 0.695067 0.204706 -0.958921 -0.088424 0.877048 0.643358 -0.243683 0.214661 0.485693 -0.693573 -0.307897 0.657006 -0.0253334 -0.53136 0.453059 -0.522444 0.821944 -0.959817 -0.958364 0.138944 -0.0750185 
0.548381 1.10718 -0.102143 0.355757 -0.316557 0.887769 -0.500264 0.706164 0.945452 -0.828208 -0.723421 0.144403 0.927834 0.424 0.250831 -0.403387 -0.946157 0.909858 -0.819022 0.0549732 0.554019 -0.519064 0.355374 -0.696459 0.416748 -0.561182 0.40429 0.299335 0.513426 0.511484 -0.320273 0.65771 
-0.351541 0.320016 0.782157 -0.484378 -0.797554 0.283605 -0.814112 -0.131805 0.0523842 0.744755 0.961812 0.244413 -0.689745 -0.371369 0.0333399 0.534834 -0.334373 0.944748 0.633727 -0.691017 0.290257 0.786927 0.575844 0.725651 0.254544 -0.294952 -0.521175 0.0692761 -0.30698 0.883797 -0.802384 0.441884 
0.60477 -0.341511 0.495694 1.01567 0.318306 0.090452 -0.23146 0.976296 0.754157 0.325521 -0.9371 -0.15701 0.64871 -0.0259921 0.384513 -0.698292 0.831097 -0.532504 -0.848204 -0.651765 0.387884 -0.924156 -0.766471 -0.22054 0.152234 -0.942207 0.356843 0.187678 -0.793599 -0.118114 0.488846 -0.439168 
-0.032003 -0.104181 0.5033 0.86162 0.803727 -0.18956 -1.01788 -0.168418 -0.371033 -0.631504 0.146843 -0.441128 0.392065 -0.9838 -0.305593 -0.569058 0.472272 -0.587709 0.836653 0.55224 -0.53948 -0.286707 -0.768586 0.847681 0.140408 0.301179 -0.939879 -0.121609 -0.334418 -0.371284 -0.44531 0.102354 
0.204157 -0.337647 0.239948 -0.710609 -0.742787 0.368441 -0.762478 -0.667792 -0.669896 0.674286 -0.390335 0.279025 0.361503 0.415594 -0.18239 0.33138 -0.273179 0.507538 -0.798777 0.354999 0.543791 -0.585629 0.892203 -0.00522769 0.825982 -0.430355 0.925427 0.486504 0.756497 0.0917709 0.658937 0.364307 
-0.0787413 -0.293195 0.640007 -0.213926 0.629058 -0.551439 0.480047 0.86533 -0.600167 -0.71405 0.0415474 -0.0182103 -0.919954 0.379547 -0.35022 0.769039 0.889021 0.0985665 0.554702 0.723671 0.632854 0.243993 -0.351781 -0.664817 0.826325 -0.0420275 0.78207 -0.735398 -0.763484 0.500177 -0.250596 0.278307 
-0.75619 -0.275934 -0.786127 0.971802 -0.975708 -0.0465249 -0.0475238 0.805827 -0.587046 -0.368032 -0.352344 -0.153293 0.634866 -0.563415 -0.000152111 -0.495462 -0.565961 0.3086 -0.625442 -0.00876577 0.943148 -0.629248 -0.38184 1.04546 0.277771 0.684367 0.641448 0.261009 -0.305397 -0.196181 0.714531 -0.765939 
0.28526 0.453992 0.223706 -0.257213 -0.216839 -0.58735 0.0775584 -0.379299 -0.65011 -0.346146 -0.540785 0.490445 0.443617 -0.0034205 -0.272103 0.395195 0.685711 0.764735 -0.719818 0.461535 0.814039 -0.195994 0.796575 0.0623333 -0.702073 0.282697 0.766279 0.818505 -0.786674 -0.618871 -0.918293 -0.63043 
0.862754 -0.123918 0.749624 -0.879102 0.913631 -0.926789 -0.866916 -0.41916 -0.936872 -0.233873 0.594831 0.541119 0.690603 0.905273 -0.693343 0.27368 0.551208 0.606506 0.557545 -0.68203 -0.213065 0.115332 0.976541 0.588186 -0.644572 -0.601099 0.326169 -0.52654 0.502247 0.0366038 -0.621664 -0.701092 
-0.420614 -0.325448 -0.792952 -0.572725 0.783138 -0.961239 0.244392 0.85054 -0.752311 -0.697015 -0.903314 -0.722065 0.8379 -0.502435 -0.32265 -0.555268 -0.145183 -0.407468 0.414959 0.424078 0.603251 -0.910088 0.507113 0.159713 -0.0342223 0.101966 -0.227692 0.779673 0.595408 0.173525 0.425541 0.699509 
0.390966 0.741476 0.344717 -0.971372 -0.137427 0.447727 -0.654907 0.2099 0.732543 0.0102025 0.658029 0.525602 -0.6611 -0.145944 0.869387 0.125139 -0.647585 0.946177 0.688276 -0.133726 -0.571029 -0.967996 -0.357321 -0.566486 0.00424176 0.587882 0.110211 0.784962 -0.806819 0.729508 -0.497027 0.663925 
0.331549 0.523543 -0.770501 0.381613 0.922052 -0.495785 -0.38736 0.750036 0.801438 -0.586366 0.645714 -0.350073 -0.927663 -0.245343 0.555192 0.818114 0.839713 0.881887 0.576675 0.360337 0.0111581 0.139102 -0.202639 0.0560001 0.340486 -0.646439 -0.423114 -0.246871 0.681859 -0.786699 -0.310287 0.746 
0.519657 -0.174881 0.683328 0.93197 0.504823 -0.763352 0.591226 -0.0471349 -0.172573 0.383936 -0.0821916 -0.219587 -0.0743093 -0.328012 0.478095 -0.377067 0.853509 0.543206 0.178688 0.851512 -0.995672 0.850867 -0.305249 0.678091 -0.0392412 -0.878956 0.833931 0.297927 -0.739519 -0.805357 -0.575181 -0.00393474 
0.362083 -0.711049 0.257553 -0.757516 -0.0845961 0.35994 -0.152132 -0.211506 -0.562727 0.868432 -0.291977 -0.125581 0.856826 0.45874 0.14593 0.346386 -0.0583481 -0.322177 0.66938 -0.627155 -0.258381 0.455721 -0.358034 0.863304 -0.596235 -0.936618 -0.476279 0.854065 -0.5999 0.0719893 -0.999268 0.783446 
-0.51892 -0.0329936 -0.730854 0.487273 -0.258819 -0.210164 -0.269987 0.21676 -0.315919 -0.592123 0.443665 -0.316845 0.65807 0.649329 -0.883991 0.547198 0.0188896 0.384209 -0.79584 0.23752 -0.937855 0.901376 -0.651205 0.781531 -0.827494 -0.914654 0.864968 -0.592502 -0.432439 -0.817679 -0.491282 -0.98237 
-0.364782 -0.832474 -0.873788 -0.612199 0.609187 -0.900047 -0.58906 -0.456963 0.878344 0.123313 -0.260713 -0.662831 0.0199392 -0.351553 0.412431 -0.0918248 0.328988 0.240805 -0.261444 0.824401 -0.315557 -0.956903 -0.0748667 -0.222397 -0.422532 -0.352045 0.342961 -0.422922 -0.702614 -0.217319 -0.969151 0.445978 
0.53362 -0.117063 0.689048 -0.149233 -0.00561832 -0.228874 -0.523862 -0.647739 0.896772 0.68054 -0.3482 0.795775 0.969232 -0.166114 0.945554 -0.60634 0.246274 0.04751 -0.613597 0.755722 0.336034 -0.453346 -0.979467 -0.366287 0.829277 -0.579198 -0.833451 0.768878 -0.854388 -0.756628 0.277987 -0.678689 
0.346595 0.291738 0.919604 0.814824 0.834511 0.931589 -0.65996 0.920575 -0.464633 0.193554 0.580337 0.744282 0.812794 -0.987458 0.399681 0.334305 -0.0525569 0.728483 0.808021 -0.793992 0.887131 0.48925 0.195854 0.0872234 -0.820218 0.807849 0.571779 0.135298 0.310081 -0.322201 -0.819298 0.449364 
-0.913548 0.980809 -0.968009 -0.52946 -0.513371 0.0581797 0.89115 -0.911756 -0.286352 -0.987081 -0.467847 -0.987349 -0.823087 -0.579242 0.822321 0.489953 0.136436 0.208164 0.815933 -0.499333 0.391293 0.860269 0.107681 -0.388829 -0.217548 -0.136987 0.61939 0.937036 -0.430363 0.597704 -0.0427186 0.960365 
-0.345894 0.220892 -0.869911 -0.000989672 0.103618 0.0225336 0.76105 0.194491 -0.637748 0.0919726 -0.845186 0.839353 0.719355 -0.41696 -0.438171 -0.547537 0.242377 0.11492 -0.74688 -0.752156 0.594663 0.731689 0.259922 0.435938 -0.119602 0.532351 0.247625 0.213674 0.59367 -0.339393 -0.259738 0.442808 
0.407325 0.621157 -0.473584 -0.694688 0.138158 0.394704 -0.336707 -0.946428 -0.500864 0.0331153 0.107769 0.269713 0.375637 0.702855 -0.256712 -0.503387 0.622099 -0.34661 -0.227084 -0.650703 0.136941 0.7026 -0.826252 0.134957 0.988701 0.79705 0.758753 0.957046 1.01677 0.0468613 -0.00429753 -0.566579 
0.675918 0.82603 0.252279 0.704049 0.974538 0.0763937 -0.504513 0.39177 0.35264 -0.323354 0.472584 0.358648 -0.241582 0.765415 0.265284 0.288324 0.519114 0.430744 0.0644832 0.0706215 0.169752 -0.673853 -0.555768 0.916833 -0.276394 0.751013 -0.0159889 -0.930793 0.496768 -0.240331 -0.401697 -0.00756234 
-0.608998 0.440582 0.171267 -0.386562 1.04188 -0.556989 -0.800654 -0.158226 0.310336 -0.231302 0.691328 0.0739478 0.746887 0.558823 -0.560535 -0.773007 0.705754 -0.0907161 -0.421741 0.512759 1.04959 -0.113817 0.498238 0.144135 -0.531625 0.83092 0.979438 -0.148182 0.203837 -0.339582 -0.470414 -0.0200648 
-0.210852 0.306064 0.0626325 -0.995503 -0.279312 0.617245 0.510879 -0.388483 1.19919 -0.392652 0.0670589 -0.66214 -0.607077 -0.537849 -0.396654 0.666674 0.439967 -0.466704 0.0147422 -0.148191 0.611045 -0.0606522 0.408306 0.658259 0.665938 -0.617279 0.77257 0.665652 -0.870394 -0.764313 0.0098529 -0.834562 
-0.164759 0.706274 0.25427 0.701752 0.0806747 0.37175 0.605655 0.718803 -0.312987 0.671487 -0.0631305 -0.898815 0.43798 -0.0841341 0.247955 0.025529 -0.76548 -0.222991 -0.0518982 -0.627982 -0.293843 -0.261177 0.28802 0.835177 0.021241 0.374483 0.600114 -0.0464341 0.690532 0.0807581 -0.598973 -0.780129 
-0.590767 1.24654 -0.322165 0.404941 0.887496 0.27513 -0.709914 0.230058 0.139598 -0.897782 0.0458221 -0.286379 0.474782 -0.0946435 0.113052 0.633335 0.96958 0.21533 0.803527 0.205258 -0.483563 0.417631 -0.380406 0.39357 0.817586 0.0920172 -0.564832 0.893626 0.525237 0.321731 0.300815 -0.257054 
-0.183832 -0.231898 0.487906 -0.496164 -0.56008 -1.14174 0.293279 -0.324331 1.34345 -0.482658 -1.14502 -0.772495 -1.05769 -1.09902 0.0892856 -0.202028 0.158739 -0.365842 0.9782 -0.40572 0.586302 0.676106 -0.108423 -0.0353174 -0.981631 0.246956 0.000132849 -0.64103 0.645073 -0.509599 0.795238 0.593729 
-0.14474 0.810402 0.596651 0.487635 0.19112 -1.00152 -0.115743 0.277753 -0.451156 -0.42953 -0.157057 -0.7011 0.142704 -0.0965545 0.917909 0.499965 0.398137 0.376629 0.42555 0.414942 0.981152 -0.0931343 -0.136968 0.961483 0.469714 0.123973 0.14354 -0.240982 -0.0769737 -0.965838 0.990583 0.0170919 
0.590482 -0.545892 0.5646 0.0978767 -0.305899 0.715513 0.051672 -0.675472 0.52962 0.438902 -0.0991208 0.54684 0.795238 -0.733269 0.699209 0.0363268 -0.342716 0.167354 0.305879 0.337408 -0.765407 0.690049 0.436166 0.00791849 -0.145635 -0.279815 0.336013 -0.658033 0.317242 -0.375545 -0.0377238 -0.412725 
-0.297626 -0.46006 -0.1376 0.142758 0.595066 0.371024 0.116617 0.397845 0.467057 -0.501663 -0.650656 0.408949 -0.772736 0.64366 0.0770724 0.202812 0.190804 0.770189 0.0196054 -0.45827 0.119239 0.481137 0.158632 0.369861 0.74498 0.528649 0.856828 0.574309 -0.339376 0.6361 1.06508 -0.442502 
0.0748542 0.44387 -0.614631 0.731177 0.2274 -0.0844909 -0.22045 -0.369391 -0.423211 -0.111949 -0.215268 0.417733 0.409193 -0.060635 -0.450127 0.410314 -0.0628177 0.238611 0.43539 -0.886352 0.360091 -0.884095 -0.650462 0.764295 -0.0391077 0.571773 -0.212735 0.0826323 -0.687859 -0.856938 -0.456965 0.543224 
-0.450048 -0.396474 0.344564 0.361549 1.10378 0.0731908 -0.118952 -0.640772 0.05434 0.792989 0.296333 0.203666 0.926953 -0.0706377 -0.840026 0.140714 -0.999302 -0.416387 0.473766 0.750386 1.08423 -0.594222 0.311263 0.195509 -0.757845 -0.982916 -0.13763 0.164992 -0.927533 -0.853465 0.192461 0.233934 
0.169974 0.728843 -0.5728 -0.630701 0.560272 0.684679 -0.765204 -0.750974 0.837702 -0.152252 -0.543782 -0.605024 -0.843966 0.675669 -0.704862 -0.967686 -0.0615574 -0.779879 0.568817 -1.05639 -0.538741 0.502683 -0.947195 -0.179409 -0.25587 0.403608 0.881412 0.212459 0.130293 0.836716 -0.254092 0.354339 
0.953717 0.0668974 -0.29542 1.04858 0.993412 -0.366311 0.746356 -0.141148 -0.218456 -0.678334 0.0880625 -0.430236 -0.012513 -0.423303 -0.214094 -0.233226 0.589885 -0.0713944 0.264639 0.723001 -0.774799 0.754977 -0.601766 0.508439 -0.245357 0.613051 -0.473617 -0.356363 -0.602881 0.852088 -0.160998 0.585366 
0.882474 0.56772 0.460443 -0.198295 -0.236205 -0.820073 0.599476 -0.891847 -0.960533 0.925851 0.140974 -0.486843 -0.299917 -0.974169 0.234378 -0.867957 0.816001 0.283184 -0.291914 0.477048 0.374015 -0.523637 -0.891502 1.25011 -0.190905 0.880493 -0.12837 0.0935326 -0.779047 -0.676331 0.516142 -0.261173 
0.359669 -0.846702 0.172709 0.373044 0.855078 -0.604446 -0.615454 -0.0392024 0.430461 -0.326316 0.153175 0.0889189 0.855818 -0.402578 0.834515 -0.944952 -0.279169 0.190793 0.807731 -0.0187947 0.728618 -0.576937 0.122904 0.528803 0.511796 0.992616 -0.671355 -0.961212 0.596958 -0.798191 0.683949 0.118056 
0.907264 -0.358371 0.722827 -0.349473 0.817528 0.995044 -0.154225 0.973869 0.887955 -0.909112 -0.354871 0.342702 -0.839584 0.726691 0.460013 -0.0908352 0.495758 -0.110775 0.0892729 -0.690482 -0.287955 -0.385228 -0.528741 -0.669445 0.499211 0.498922 0.280679 0.660483 0.741306 -0.604115 -0.070726 -0.751494 
-0.0689551 -0.311303 -0.530296 0.26782 -0.209632 0.523564 0.0944459 -0.982379 -0.193687 0.529656 -0.76364 0.0889596 -0.405821 0.623279 0.0897345 0.672549 0.484213 0.858374 -0.254631 -0.921935 -0.104904 0.795992 -0.718468 -0.0283684 0.732316 0.579529 -0.74291 0.681623 0.777477 -0.659104 -0.0291507 -0.776774 
-0.167499 -0.624292 -0.387227 -0.052241 0.991076 0.988356 -0.172364 -0.511961 -0.260922 0.913763 0.548103 0.42723 -0.815891 -0.335337 -0.00517239 0.354849 0.948649 0.541498 0.275226 0.421526 0.635408 -0.0756982 0.160766 -0.0255817 -0.814319 0.676487 0.650793 -0.122252 -0.287412 -0.482321 -0.44093 -0.177782 
0.781907 -0.739471 0.440525 0.137469 -0.19268 -0.904891 0.66767 -0.971487 -0.760931 -0.551626 0.501506 -0.595849 0.970725 0.296887 0.337406 0.274981 0.349115 -0.747991 0.0868143 -0.946515 0.895823 0.28298 -0.160319 -0.467226 0.287293 -0.200508 -0.23078 -0.688202 0.239678 0.325363 -0.806291 -0.961707 
0.189605 -0.106886 0.267259 -0.608839 0.814034 0.948419 -0.384096 -0.0923579 -0.131821 -0.812191 0.788726 -0.525899 -0.252507 0.672846 -0.2102 0.569128 -0.133457 -0.857858 0.438851 -0.0212188 -0.653976 0.757082 -0.574277 -0.268117 -0.674762 0.268634 -0.433351 0.23322 0.160423 -0.556036 -0.56871 -0.244976 
-0.12472 -0.421683 0.890897 0.000517775 -0.500402 0.796276 0.776752 0.70484 -0.132954 -0.120232 -0.339679 0.132066 0.486428 -0.934832 -0.59356 -0.13836 0.570218 0.0357663 -0.338962 0.732364 0.508092 0.679543 -0.787664 0.676446 -0.153512 -0.356406 -0.416466 -0.917448 0.744916 0.886112 0.807791 -0.695385 
-0.0209413 0.300636 0.853952 -0.560612 -0.323709 -0.163274 -0.887936 0.915521 0.826059 -0.820552 -0.347741 0.514142 0.0352622 -0.298997 0.449068 0.614053 -0.956573 0.933577 -0.140849 -0.283606 0.0437273 -0.142693 0.154898 -0.591216 -0.731451 -0.646136 -0.837958 0.721198 -0.551867 0.519696 0.549158 -0.121025 
0.647868 -0.955309 0.0741479 0.408919 0.252867 -0.789367 0.0297318 0.0962261 -0.774644 -0.710326 -0.0916928 0.715008 0.21361 -0.49946 -0.666273 -0.0665609 0.178343 -0.54468 0.270198 0.500567 -0.987096 0.946127 0.487644 0.646047 0.0203508 -0.230003 0.90316 0.667181 -0.53087 0.96038 -0.883031 -0.521567 
0.480228 -0.124711 0.453 -0.176382 0.543959 -0.522142 -0.524135 -0.709656 0.647402 -0.109977 -0.282066 0.987484 -0.885161 0.658121 0.0366567 0.404741 0.231482 0.901427 0.981195 0.656415 0.582095 0.609784 0.903463 0.317464 0.820795 -0.886738 -0.823341 0.153163 0.767373 0.0679364 -0.338834 -0.310058 
0.655551 -0.509259 0.342725 -1.02011 0.0465321 0.106903 0.627843 -0.599528 -0.442875 0.777759 -0.947067 0.713627 -0.360228 -0.426746 0.230911 0.576293 0.381724 -0.213888 -0.628317 0.904049 -0.300466 0.731216 -0.76284 -0.407636 -0.358184 0.59712 -0.0446182 0.752436 0.592748 -0.982601 -0.0921747 0.290926 
0.0278993 0.563865 -0.215585 -0.83728 -0.399398 -0.641421 0.106473 0.169223 -0.305909 -0.64583 0.641859 -0.399142 -0.513952 0.271295 -0.0392419 0.486883 -0.225543 0.287612 0.280702 -0.767773 -0.111842 0.0509588 0.925198 -0.377024 0.375784 -0.748111 -0.768756 0.314405 0.887982 -0.190454 -0.200164 -0.0614874 
0.370645 0.859036 -0.79026 0.331438 0.513699 -1.01597 -0.193716 -0.00261653 -0.363554 0.775154 -0.448808 0.931139 -0.835163 0.0621845 0.834409 -0.603957 -0.320121 -0.353732 -0.388468 -0.604967 0.339306 0.640682 -0.639731 -0.129578 -0.560323 0.48686 0.652104 0.391852 0.68754 -0.65649 -0.409902 -0.477807 
0.913759 1.01592 0.3375 -0.174754 -0.387656 -0.0782906 0.224737 -0.647124 -0.339857 -0.671722 0.0564206 -0.685497 0.0708133 -0.725469 -0.015146 0.32424 -0.758707 0.389889 0.284342 -0.740325 0.458591 -0.324197 -0.609875 0.249224 -0.255241 -0.400424 1.12028 -0.446148 -0.182312 -0.803892 -0.0171072 0.371443 
-0.939991 0.822775 0.257227 -0.0679509 -0.665398 0.487093 -0.909014 0.571791 0.831106 -0.200632 -1.01836 -0.158922 -0.394402 -0.0744323 0.773373 -0.0888994 0.281761 -0.723183 1.07767 -0.887825 0.876507 0.746772 0.542244 0.663299 0.0446998 0.664426 -0.115107 0.72234 -0.286304 -0.327389 0.337252 -0.31022 
0.45222 -0.0662373 0.77158 -0.467368 -0.137572 -1.12622 -0.515026 0.0985842 0.331019 -0.470622 -0.490212 0.410671 0.0579842 0.579776 0.814827 0.957524 0.452101 0.0103222 0.296 0.017447 0.472237 -0.337701 0.046801 0.0899152 -0.5575 0.544053 -0.547036 0.728572 0.782256 -0.803079 0.256545 0.428468 
0.270576 0.791003 -0.675115 -0.101279 -0.104955 0.392413 -0.0427945 -0.58202 0.862793 -0.696919 0.559032 -1.12163 -0.31369 0.264244 -0.627688 0.586352 0.104018 -0.744713 0.542484 0.316894 -0.680314 -0.0456468 0.425983 -0.944716 0.984282 -0.203733 0.294925 0.725111 -0.800879 -0.208345 -0.926743 -0.205703 
0.228142 0.283925 0.0730328 -0.310822 -0.158621 0.368271 -0.788214 0.119377 0.712492 -0.208801 0.166379 -0.271681 0.738872 -0.416172 0.856361 0.194293 0.101293 -0.00452689 -0.187492 0.271162 0.606369 0.0901715 -0.0353937 -0.485448 -0.0550345 -0.743781 0.318787 -0.473294 0.154362 -0.190334 -0.604825 0.195569 
0.0705055 -0.0910084 0.255019 -0.394892 -0.661326 -0.546241 0.353388 0.597244 0.943201 -0.0619671 0.660149 -0.7088 -0.496112 -0.132083 1.10031 0.961331 0.0689205 -0.615656 1.06589 -0.31002 -0.0540172 -0.532614 0.194031 -0.148533 0.842345 -0.667083 -0.403835 -0.688689 0.745695 -0.0948714 -0.668499 -0.18967 
-0.356308 0.703916 0.204466 0.539032 -0.740368 0.593188 0.385287 -0.583356 1.09473 -0.733297 -0.0725216 0.517891 0.459918 -0.711241 -0.277452 0.520773 -0.544438 0.619105 0.10408 -0.715615 -0.696852 0.821616 -0.630232 0.209004 1.02519 0.740823 -0.392034 0.502662 0.316611 -0.635971 -0.642528 0.953857 
0.71408 0.308538 -0.604945 -0.0717814 -0.0637305 -0.58855 -0.567769 -0.243849 0.990846 0.224441 -0.567987 -0.63142 -0.0314792 1.03519 -0.197714 0.73457 0.124155 -0.890164 0.318451 0.161351 0.184549 -0.806375 0.543097 -0.312649 0.969936 -1.08857 -0.800015 0.806135 0.1389 0.123206 0.0971078 0.484746 
0.205152 0.555965 -0.550425 -0.355441 -0.376065 -0.249539 -0.407829 -0.181834 -0.423094 0.711128 -0.700892 -0.403464 -0.124447 -0.868645 -0.679068 -0.156049 -0.189972 0.227264 -0.382629 -0.806701 -0.241488 -0.268229 0.774584 -0.267575 -0.383123 0.140996 0.582288 0.597444 -0.755531 -0.167076 -0.00591702 -0.291192 
-0.611356 0.730857 0.472419 -0.956438 0.536653 0.278545 -0.477116 0.393704 -0.315756 0.652053 -0.0392368 -0.613494 -0.0496788 -0.622272 -0.000629385 0.15795 0.710868 0.457454 0.386406 0.325809 -0.575912 -0.756534 -0.686723 0.250992 0.62221 -0.504592 0.942181 0.680424 -0.796531 -0.0599039 0.587485 0.121627 
0.762625 0.9832 0.243656 0.309406 0.555099 -0.657152 -0.323313 -0.218492 0.36911 -0.591347 0.458073 0.024027 0.896996 0.0425995 -0.299233 0.180569 -0.491868 -0.59763 -0.716301 0.254521 -0.561616 0.577837 0.205333 0.0419267 -0.570954 -0.769617 -0.215747 0.771539 0.819371 0.458984 0.147428 0.473237 
-0.146077 -0.388395 -0.161058 0.481776 0.368077 -0.31931 0.197827 -0.939263 -0.176828 0.605613 0.697559 -0.481719 -0.400296 -0.525783 -0.0066007 0.260951 -0.832103 -0.598782 -0.754356 0.219682 -0.061028 -0.834863 -0.130079 -0.160814 0.0474025 0.890449 0.251312 0.949851 -0.25128 -0.25262 -0.705291 -1.047 
-0.588226 -0.21544 -0.268627 0.528518 0.923642 0.661782 -0.332049 0.771832 -0.00131501 0.0425779 -0.71484 0.0444788 -0.497678 0.122755 -0.739579 -0.451327 -0.908506 0.45023 -0.25159 -0.128216 -0.243951 -0.0715092 0.362118 0.418095 0.826822 0.908831 0.621587 -0.0522421 0.100423 -0.920988 0.249327 -1.1905 
0.0119859 0.962287 -0.873792 0.806688 0.0722832 0.18812 -0.822539 -0.469566 0.489707 0.860835 0.82477 0.0294542 -0.0191152 -0.493905 -0.884154 -0.358433 -0.0962976 -0.401399 -1.25324 -0.58038 0.609442 -0.532108 0.506204 0.789246 0.812353 -0.419084 -0.222092 -0.0752102 0.405567 -0.646407 0.980509 0.513875 
-0.974076 0.689787 -0.625434 -0.688023 -0.115284 -0.621797 0.506448 -0.708229 -0.742605 0.459722 -0.913167 -0.422229 0.713879 0.546313 -0.839471 -0.689451 -0.0515452 -0.478196 -0.536749 0.21304 -0.686853 -0.504301 -0.680959 -0.421099 0.763708 -0.197184 -0.283969 -0.301139 0.739939 0.739813 -0.343903 0.342642 
-0.780052 0.743062 0.439302 0.0388605 -0.31057 -0.968475 -0.346992 0.31298 -1.09152 0.855969 0.212209 0.246872 -0.370425 0.51671 0.261128 -0.482276 -0.637473 0.554197 -0.745737 0.746307 0.511122 0.338158 0.211672 -0.316869 0.491318 0.761824 -0.151376 -0.695117 0.675217 -0.184677 0.0574231 -0.517428 
0.459104 0.680205 0.342549 -0.374175 -0.563975 -0.380712 -0.93771 -0.26435 0.264006 0.985542 -0.723904 -0.289818 -0.273091 -0.965653 0.73946 0.324051 -0.174532 -0.812256 -0.707762 -0.42179 -0.877307 -0.285658 0.887129 -0.213583 -0.756893 -0.0873393 0.311006 -0.804462 0.845201 0.629758 0.145818 0.142902 
0.900661 -0.364494 -0.972987 -0.631552 0.980985 -0.285489 0.803757 0.978549 0.440154 -0.0127616 0.754524 0.996187 -0.728242 0.495 -0.555848 -0.980032 -0.942935 -0.138712 0.414903 -0.79133 -0.644903 -0.493576 0.292631 0.32026 0.983663 0.810186 0.476419 0.774662 -0.964006 0.639062 0.283868 -0.808813 
0.0295298 -0.110144 0.362059 -0.490604 0.979532 0.0269478 0.0752236 -0.162479 0.138377 -0.884022 -0.923652 -0.509991 -0.714153 0.942239 -0.929814 0.12667 -0.399774 -0.782005 -0.17178 -0.941688 -0.975739 -0.551923 0.190285 0.423925 0.457971 -0.0195682 -0.128256 -0.718894 -0.37001 -0.614602 -0.560339 -0.201 
0.729711 -0.466733 0.149098 0.442489 0.803652 -0.911639 0.146387 -0.980892 -0.586613 0.135071 0.728614 -0.32253 -0.821639 -0.467332 0.86472 -0.198094 0.441542 0.837932 -0.0699629 -0.0951112 -0.789258 0.368086 0.334086 -0.158918 -0.611229 0.636174 -0.0983251 0.289606 -0.955758 0.447929 0.398698 -0.694397 
0.740409 -0.804456 -0.166484 0.38948 -0.837969 0.769326 -0.982018 0.247341 -0.646331 0.960234 -0.613863 -0.346511 0.630443 0.94179 0.101783 0.152492 0.511881 -0.347879 0.0873643 -0.694583 0.659967 -0.704118 -0.194382 0.782965 -0.344944 -0.807231 0.816174 0.550018 0.188601 0.578168 0.915164 0.281352 
-0.0893747 0.474395 0.0199053 -0.570755 0.517214 -0.850409 0.981518 -0.635554 0.179495 -0.89134 0.424857 0.18501 -0.518488 -0.251852 0.927961 0.884998 -0.619166 0.5879 0.641398 -0.381414 0.816571 -0.113825 0.257687 0.939469 -0.515273 0.660417 0.182978 -0.706315 0.757676 0.155046 0.404736 -0.766973 
0.639267 0.52609 0.734752 0.673528 -0.938152 -0.112695 -0.617401 -0.2432 -0.108035 0.893767 0.917347 0.413481 0.249823 -0.478878 -0.755336 -0.95578 -0.322854 -0.0838349 -0.102987 -0.119463 0.168023 0.538351 -0.614207 -0.576319 0.519103 0.695562 0.574622 -0.346767 -0.12641 0.197718 -0.728764 -0.333968 
0.902758 -0.956361 -0.996578 0.347333 -0.0310953 -0.16502 -0.552129 0.0397784 -0.73013 -0.23146 0.446321 -0.688376 0.427976 0.586933 -0.153785 -0.220191 0.343935 0.260089 0.424155 0.742959 -0.214188 0.54265 -0.329774 -0.93399 0.176737 -0.332919 -0.944643 0.845776 0.302739 -0.923403 -0.541914 0.525861 
0.144092 -0.802309 0.635407 -0.870646 -0.240496 -0.694161 -0.538987 -0.319814 -0.573261 -0.983302 -0.930756 -0.223422 0.702774 0.545405 0.583072 0.799562 -0.987121 0.428904 0.00709308 0.865123 -0.748209 0.499971 -0.045777 -0.135783 -0.545081 0.154899 0.771267 0.156735 0.694835 0.104708 -0.598511 0.47446 
0.790823 -0.646419 -0.8327 -0.0379314 0.405901 0.0659908 -0.170397 -0.651996 -0.48895 0.391326 -0.895368 0.418701 0.535631 1.02118 0.261193 0.905268 0.976246 0.902875 -0.291536 0.51926 0.722831 -0.8798 0.55963 -0.649197 -0.03857 -0.254945 0.926795 0.810976 0.00794792 0.0410229 0.676243 -0.726269 
0.344169 0.742534 -0.733437 0.608128 -0.0664929 0.058233 -0.29577 -0.450623 -0.263441 0.28617 0.414045 -0.539477 0.648325 -0.0677989 -0.764364 0.527882 1.02146 -0.562992 -0.387192 0.570775 0.128182 0.458019 -0.765226 0.315723 -0.707984 0.389758 -0.63018 0.593372 0.235819 0.389496 0.807652 -0.173356 
-0.311402 0.425918 0.159465 -0.745974 -0.667276 -0.303801 -0.197713 0.505185 -0.0105683 -0.396769 -0.359148 0.0468051 -0.0976713 -0.169478 0.061564 1.23163 -0.175825 0.0804309 0.489779 -1.19524 -0.24845 -0.118051 0.874639 0.49125 -0.527976 0.0658252 -0.296506 -0.703271 -0.433556 -0.286595 -0.047137 0.647391 
0.308842 0.431921 0.343179 0.696888 0.116537 -0.588784 0.490247 -0.401629 0.710352 0.461608 0.0455944 0.221436 -0.757683 -0.672808 -0.596356 -0.188043 0.513522 -0.725753 0.272613 -0.0239272 0.595871 0.542177 0.497068 -0.887216 0.63323 -0.527022 -0.556339 -0.457926 0.375664 -0.184515 0.33882 -0.788629 
0.788116 -0.154855 -0.345834 -0.691567 0.552098 -1.18474 -0.720603 0.755492 -0.0787685 -0.517904 -0.713014 -1.01078 -0.356608 -0.0739754 -0.46406 0.112914 -0.158879 -0.0213716 -0.361747 0.67595 0.178675 0.461709 -0.898162 0.0637907 0.327507 -0.874187 0.901625 1.05089 0.479272 -0.358491 0.0410963 0.112452 
0.978683 0.852145 -0.106817 0.34113 0.256467 0.00623453 0.179646 0.746775 -0.500399 0.227625 -0.593698 0.825929 -0.14106 0.441591 1.06859 0.887621 0.785686 -0.325894 0.154303 -0.7719 0.0386425 0.478165 0.533813 -0.0762473 1.03336 0.132702 0.235725 0.730078 0.483764 0.038577 -0.819747 0.0442056 
0.0115327 0.185968 -0.797142 -1.00697 -0.44866 0.223432 -0.459407 -0.266295 0.976501 0.184615 0.707548 -0.5376 -0.336145 -0.594675 -0.0725724 0.348754 0.882038 -0.994496 0.371848 0.610081 0.983167 0.132626 -0.165816 0.410077 1.00009 0.202253 0.81373 0.105742 0.232637 0.0128223 0.411272 -0.996499 
0.494527 0.93031 0.676287 -0.35729 0.220339 0.0952277 -1.12575 0.575462 0.40752 0.0971593 -0.0681449 0.346787 -0.809253 -0.064803 0.342912 0.109417 -0.112031 -0.691155 0.866046 -0.25693 -0.48729 0.737895 0.612666 -0.158114 0.214469 0.105312 0.464734 0.486736 0.680838 -0.238317 0.664117 -0.84667 
0.732982 0.48575 -0.00897454 -0.409272 0.265935 0.408879 0.199033 0.0672146 0.761535 0.630771 -0.788181 0.341114 0.689351 0.391603 -0.617115 0.397296 -0.0113463 -0.00895073 0.922807 0.533967 0.174477 -0.919867 -0.015489 -0.241133 0.669073 -0.371131 0.952374 0.617208 0.714578 -0.285977 -0.0366648 -0.507051 
0.938197 1.03409 -0.240228 -1.11575 0.161661 -0.9811 0.547999 -0.53368 0.215145 -0.433093 0.382909 -0.35955 0.117654 0.184977 0.380553 -0.258132 -0.957472 -0.254367 -0.222779 0.670787 0.505258 0.574653 0.218328 0.0689227 -0.148699 -0.719185 0.0489422 -0.19967 0.572223 0.159861 -0.114875 -0.39728 
-0.183046 -0.492159 -0.0557833 0.190936 -0.021396 -1.01236 -0.116553 -1.44633 0.620446 -0.286991 -0.138209 -0.50518 -0.352648 0.165197 0.481768 0.64633 0.83253 0.179636 0.106334 -0.753874 -0.149792 0.397614 0.638315 -0.511552 0.837638 -0.521233 0.83321 -0.413405 -0.467656 -1.18458 0.685204 0.379982 
0.573464 0.622355 -0.65837 -0.682735 -0.612753 -1.00126 -0.147573 0.121577 0.0597392 0.345984 0.708901 0.400038 0.245796 -0.557408 1.39843 0.224914 -0.102488 0.109579 0.40524 0.27184 0.606505 -0.685317 -0.33432 0.164754 0.475049 -0.316622 -0.336486 -0.524881 0.626286 0.49422 -0.761166 0.61662 
0.643737 -0.485621 -0.097572 0.128078 -0.626929 -0.386702 -0.116987 0.185367 0.575492 -0.0839556 -1.03449 -0.0903792 -0.350294 0.164709 -0.360543 -0.207868 0.376076 -0.0199002 -0.00716509 -0.352644 0.606392 0.609119 -0.588572 0.430222 1.03247 -0.375011 0.633653 -0.394955 0.897373 -0.306338 -0.0861557 -0.482175 
-0.303014 -0.606397 -0.224828 -0.899931 0.663573 -0.832418 0.8052 -0.721629 0.973751 0.20183 -0.803606 0.535704 -0.69196 -1.02315 0.761128 -0.294343 0.461861 -0.669056 -0.0347611 -0.102476 -0.585283 -0.379688 0.478303 -0.00487192 -0.115773 -0.710347 0.831237 -0.423536 0.737775 0.404839 0.0699033 -0.0786272 
0.977296 0.482342 0.13718 0.441808 -0.595131 -0.0867183 0.350613 -0.708417 0.29787 -0.351718 -0.510914 -0.912967 0.333097 0.305632 -0.647317 0.175911 0.794538 0.989787 -0.600489 0.5858 0.888296 0.383619 -0.694339 1.29811 0.319587 0.649 0.15956 -0.405208 0.263935 0.97752 0.572454 -0.227627 
-0.246503 0.417626 -0.4481 0.382406 -0.583014 -1.01987 -0.811139 -0.654902 -0.887361 -0.0381155 0.758612 0.704756 0.0534031 -1.00823 0.330913 -0.679236 0.483641 0.395229 0.57434 -0.570786 0.382923 0.886358 0.318201 -0.0434785 -0.332189 0.490767 0.635434 -0.495842 -0.00517876 -0.0468734 0.726647 -1.16924 
0.148519 -0.224843 -0.550856 -0.076895 -0.0224259 -0.846968 0.277332 -1.00383 0.550984 0.620327 -0.137863 0.392435 -0.448112 -0.0420084 -0.497949 0.327096 -0.308848 0.676474 -0.321347 -0.554687 0.0974766 0.162047 -0.315859 0.462631 -0.00575803 0.386157 -0.496025 0.850212 0.16379 1.35492 -0.412834 0.445158 
0.234136 0.556293 0.409937 0.00214011 0.283361 -0.639969 0.508887 -0.980187 -0.851129 0.866705 -0.175785 -0.570307 -0.676818 0.494514 -0.288848 0.401987 -0.551413 1.09712 -0.831585 0.384988 1.09196 -0.323517 -0.114331 -0.919103 0.696576 -0.31923 -0.963861 -0.579168 -0.0323026 -0.272803 -0.413563 -0.820519 
0.29313 -0.181693 -0.901257 -0.380484 0.236751 -0.714839 0.671956 -0.873815 0.144858 -0.524353 -0.406532 -0.226045 0.0563394 -0.405302 0.0787653 -1.07739 -0.663045 -0.123418 -0.457284 0.313111 0.60276 -0.143197 -0.458092 -0.280569 0.736461 -0.546134 0.63666 0.361255 -0.900746 1.19369 0.182403 -0.487897 
0.547097 -0.578244 -0.716896 0.499855 -0.941402 -0.888614 -0.426972 -0.00616434 0.705488 -0.127412 0.234116 -0.138175 -0.537405 0.0138423 0.438151 -1.11748 0.536316 -0.537312 0.488233 0.190725 -0.24273 0.514093 0.79682 -0.393322 0.880184 0.610243 -0.812941 -0.659176 0.717472 0.110834 0.872818 -0.232843 
0.218788 0.594567 -0.424689 0.639794 -0.942946 0.00930543 0.112847 0.537036 -0.140961 -0.0982834 -0.514698 0.916664 -0.230402 -0.555073 -0.834339 0.815569 0.0310995 0.294723 0.349639 -0.963358 0.32473 -0.036452 -0.927986 0.536256 0.535275 -0.427807 -0.559176 -0.25803 -0.230952 -0.608991 -0.702852 -0.982268 
0.143406 -0.657539 0.377428 0.825532 0.335465 -0.592006 -0.996872 0.112999 -0.110166 0.287026 0.599122 -0.0821364 0.900646 -0.829954 -0.472745 -0.956748 0.833383 -0.15636 0.115523 0.534953 -0.417482 -0.543897 0.486299 -0.850491 -0.278787 -0.394348 0.69829 -0.481818 -0.382748 0.244254 0.000264343 -0.391986 
-0.390509 0.57503 -0.558597 -0.814221 0.0945094 0.764503 -0.339381 0.220389 -0.265744 0.800159 0.601393 -0.546583 0.866435 0.222558 0.948788 0.630112 0.525366 0.562127 0.145009 0.496711 0.177202 -0.434476 -0.701582 -0.124383 -0.431398 -0.873498 0.581916 0.94545 -0.221372 -0.16923 -0.42119 0.181459 
0.578835 -0.884942 -0.457799 0.477068 0.374455 -0.990104 -0.693547 0.556721 -0.931673 -0.00577942 0.478448 -0.240424 0.547663 -0.94579 -0.74144 0.0286014 -0.462577 -0.932707 -0.71312 -0.236431 -0.014504 0.496405 0.567892 0.438006 -0.138649 0.228144 -0.732449 -0.424632 0.00129908 0.0499111 -0.46988 -0.575944 
0.171686 -0.241196 0.417394 0.693731 0.361554 0.656125 0.498321 0.878368 -0.724167 -0.816391 0.804513 0.981 -0.995238 -0.0369011 -0.363271 0.120595 0.85065 0.164693 -0.708341 -0.797246 -0.460868 0.248512 0.278913 0.0758471 0.430826 -0.774682 -0.518689 0.701927 -0.40967 0.749023 0.160437 0.836109 
0.657691 -0.730364 -0.266368 0.034661 -0.592723 0.590406 1.00098 -0.856304 -0.216686 -1.01868 -0.232169 0.791036 -0.956207 0.898687 -0.173779 0.642106 0.971011 -0.741605 -0.051736 0.558508 -0.784453 0.174996 0.530271 0.954174 0.526017 -0.796439 -0.921373 -0.816651 0.376083 0.0116519 0.0518428 0.155861 
-0.880253 0.714022 -0.771335 0.71656 -0.271824 0.131783 1.01124 -0.112966 -0.795143 -0.56556 0.665178 -0.49894 0.847729 -0.520552 -0.39349 -0.295308 0.825874 0.826163 0.739557 0.295487 0.0992767 -0.880079 -0.742624 0.335215 -0.754726 -0.0103818 0.684639 -0.604211 -0.0825774 0.133162 -0.526417 -0.650611 
0.309296 -0.846345 -0.653773 -0.845106 0.772072 0.199749 -0.39007 -0.694217 -0.511366 0.420498 -0.68752 0.360327 -0.168421 0.318791 0.688606 -0.467077 0.673136 0.487203 0.480938 0.477159 -0.450185 0.0848656 -0.293615 -0.166224 0.506193 0.314414 -0.501726 -0.477044 0.443026 0.766015 0.170971 0.459842 
0.837804 0.806593 0.103058 -0.58366 0.524727 0.0607409 0.786715 -0.0813728 0.932329 0.502418 0.0562797 0.340234 -0.543655 0.479056 0.579922 -0.0510807 0.146353 1.05526 0.616695 -0.464555 0.872686 0.00342661 0.0357887 -0.290111 -0.412945 0.333145 -0.225911 -0.548288 -0.163411 -0.603937 -0.0355345 -0.755253 
-0.687162 -1.01434 -0.887804 -0.688753 -0.630141 0.879723 0.107531 -0.696798 0.681118 -0.650775 0.441322 -0.0612055 -0.32137 -0.662779 -1.04789 -0.158801 -0.224025 -0.169743 0.996109 0.446792 -0.682011 -0.743525 0.322945 0.552494 0.636662 -0.572869 -0.111811 0.745212 0.944449 0.0812685 0.14026 -0.454337 
-0.221715 0.489895 0.400978 -0.570359 0.155247 0.671626 0.808008 -0.77591 0.444779 -0.704762 0.548978 0.511475 -0.660609 -0.507292 -0.831539 -0.46083 0.0895731 -0.994711 0.354469 -1.24345 0.182782 -0.43208 -0.0425677 0.370789 -0.013776 0.602887 -0.267629 0.766849 -0.631696 0.020667 -0.944996 0.818441 
0.451307 -0.328458 -0.645392 0.508744 0.0958833 0.0806933 0.29063 -0.31669 -0.589439 0.348459 0.654579 0.796361 -0.260845 -0.480969 -0.325413 0.905464 0.0934835 0.723986 0.225655 -0.560585 0.218116 0.304907 -0.306666 -0.0236285 -0.641817 0.509212 0.711539 -0.177712 0.124862 0.350458 -0.16068 0.527514 
0.956052 -0.493714 0.32534 0.448066 -0.794844 -0.710378 -1.23018 -0.0264465 -0.465367 -0.768709 0.615879 -0.156331 -0.27115 -0.59725 0.396981 -0.123532 -0.0716529 -0.11439 -0.404962 0.323325 -0.505573 0.162241 -0.248044 -0.146223 -0.074429 -0.660985 0.537673 0.350081 -0.578724 -0.955023 0.0556221 0.386227 
-0.142683 1.00266 -1.24732 -0.227404 -0.900663 -0.800173 0.520795 0.893533 0.155503 0.391618 -0.688777 0.853649 0.338586 -0.871309 -0.887748 1.30221 -0.361982 -0.455784 0.534434 -0.707626 -0.523926 -0.360751 -0.140003 -0.596364 -0.474702 0.723989 0.266474 -0.104409 0.7472 -0.686469 -0.624721 0.37698 
0.49638 -0.0965227 0.265812 0.559076 -0.053511 -0.237779 -0.714071 0.0875972 0.150063 0.0398663 -0.875245 0.179882 0.384908 0.321684 -0.0388653 0.709573 -0.387912 -1.3079 -0.318788 -0.849915 -0.667736 0.0600613 0.955811 -0.767488 -0.539606 -0.298672 -0.505521 -0.39792 0.145176 -0.728301 -0.129459 -0.282813 
-2.82825e-05 0.877147 -0.634063 -0.617189 -0.618613 0.284375 0.729132 -0.269733 -0.145685 -0.0533406 0.642923 0.023269 0.734139 -0.636878 -0.884224 -0.0270611 0.288416 0.545244 -0.607633 -0.30976 0.698105 1.09665 -0.410863 0.717231 0.0198266 0.161619 0.432052 -0.206397 0.57157 0.403505 -0.809833 0.140325 
0.487987 0.995484 -0.584214 0.303651 -0.522554 0.0900486 0.414648 0.0472061 -0.489932 -0.281535 0.398527 0.520374 -0.4624 -0.561627 -0.218396 0.923939 0.566535 0.485338 -0.0548304 0.655998 -0.130425 0.649346 -0.438266 -0.193999 -0.231309 -0.691538 -0.354662 -0.515258 0.343661 -0.701385 0.792361 -0.0591454 
-0.668166 0.967057 0.507594 -0.940188 -0.473173 -1.16126 0.376067 -0.0346412 0.256259 -0.21639 0.402859 -0.132272 -0.018182 -0.368979 -0.15661 0.426037 0.278232 0.856369 -0.505529 0.508022 0.658184 -0.434807 0.322169 0.648646 0.0306286 -0.213207 0.568473 -0.544485 0.121907 -0.700979 -0.660198 -0.758718 
1.13117 1.06817 0.702917 -0.174516 -0.0152096 -1.05976 -0.668693 0.0543967 -0.389995 -0.259356 0.418353 -0.752071 -0.477719 -0.303268 0.0492999 0.1057 -0.480264 0.394025 -0.40786 0.775081 -0.706774 0.408962 -0.377858 -0.120476 -0.420003 -1.26248 0.069464 -0.170126 0.774371 0.30958 -0.551504 0.160886 
0.117968 0.197665 0.196052 -0.460509 0.229296 -0.814931 0.303307 0.596823 0.164331 0.567696 0.0897605 -0.0335813 0.464189 0.553147 -0.127692 0.751602 0.751037 0.207025 0.517301 0.0742655 -0.0087541 -0.665614 0.981229 -0.287402 -0.864179 -0.325724 0.295597 -1.13365 -0.231683 -0.38749 0.413737 0.470865 
0.719922 0.247916 0.165161 -0.694933 -0.45462 -0.839055 0.126319 0.746188 -0.276678 -0.272902 -0.136973 0.120941 -0.620389 0.363348 0.264141 0.140304 -0.291794 -0.487536 0.0763333 -0.270328 -0.520037 -0.388607 0.388202 0.519543 -0.561152 0.2463 1.03156 -0.65265 0.42028 0.529382 0.498511 -0.494269 
0.886158 0.509356 0.686891 -0.770786 -0.514162 -0.946548 0.0699103 0.115681 0.602952 0.31286 0.920496 -0.00681421 -0.774727 0.0354884 0.0086521 0.578795 -0.178106 0.582157 0.221294 0.68104 -0.834214 -0.411559 -0.320656 0.0732845 0.880647 0.242602 -0.159916 -0.726869 1.1028 0.0394276 -0.123605 0.439594 
-0.441904 0.139526 -0.475204 -0.857635 -0.105471 0.510496 -0.621949 -0.288488 -0.747195 0.548247 -0.330008 -0.506199 -0.53807 -0.162963 -0.234297 -0.211541 0.534835 0.0911809 -0.413498 -1.03223 0.631219 0.159988 0.712025 0.254107 0.500838 -0.330218 0.432961 -0.0877743 0.167075 0.356537 -0.587926 0.447814 
0.61775 0.291112 -0.901322 -0.919378 -0.478985 -0.340274 0.356932 0.969485 0.172993 -0.140145 -0.719438 -0.992678 0.464256 0.15846 0.141747 -0.640577 -0.768745 0.05157 0.0128456 -0.149479 -0.269244 0.0877754 0.219776 -0.599331 0.000378465 -0.0795462 0.450493 0.658641 -0.885073 -0.321501 0.743006 0.686415 
-0.431796 -0.317529 0.049946 -0.398732 -0.0644376 -1.15197 -0.895219 -0.488178 -0.834595 0.515458 0.336912 -0.701978 0.671081 0.389637 0.69624 0.555653 0.29549 0.422082 -0.975801 0.68638 -0.639574 0.716908 0.697414 -0.965047 0.935383 -0.462796 0.171186 -0.51819 -0.808049 0.240831 -0.601378 1.05805 
0.252167 0.0130016 -1.00974 1.01234 -0.490966 0.313924 -0.0704479 0.0990626 0.0463112 0.824295 -0.0839283 -0.572572 0.810981 0.343804 -0.605665 -0.0717566 -0.0444255 0.254002 -0.695737 -0.164129 -0.122684 -0.538464 -0.973726 0.220308 0.276567 0.902725 -0.17507 0.669079 0.216543 1.24969 0.332277 -0.158705 
-0.265493 -0.859853 0.551453 -0.528795 -0.0772469 0.209043 -0.482598 0.0790134 -0.809898 0.338335 0.502878 0.37832 -0.506835 0.286532 0.294675 -1.32353 -0.0954185 -0.30273 -0.508235 0.0708911 0.276577 0.39658 -1.01059 -0.955683 -0.455552 0.575707 -0.384415 1.01344 0.0748444 -0.450339 -0.387946 0.503605 
0.97738 0.513931 -1.40241 0.498457 0.0915293 -0.284011 0.0580942 0.447571 0.223323 -0.435657 -0.799402 0.01353 0.30008 0.853123 0.371836 -0.137762 -0.753639 -0.834459 -0.816215 0.69519 0.450723 0.24976 -0.884999 0.0556845 0.163021 -0.604867 0.454714 0.326219 0.668095 -0.288107 -0.521194 -0.782272 
0.453994 -0.804579 -0.343741 -0.0450396 0.136784 -0.960447 -1.10342 -0.11711 -0.315442 0.917346 0.0509891 0.912021 -0.448409 0.860507 0.113182 0.481298 -0.493449 0.295513 -0.378536 0.376952 -0.144615 -0.871432 -0.38674 0.346049 -0.757606 -0.83362 -0.0766028 -0.36047 0.688948 0.223498 -0.0306117 0.408054 
0.969841 -0.737042 -0.855674 0.0278588 -0.584276 -0.678347 -0.0417895 0.940877 -0.985005 -0.176467 -0.717743 0.530761 0.838005 -0.464408 -0.989857 0.453756 0.601674 0.532098 -0.537021 0.609994 -0.714971 -0.649302 -0.428659 -0.173221 0.724744 -0.715214 0.443784 -0.620268 0.0428146 -0.623372 0.0920135 -0.314787 
0.705127 -0.0139538 -0.39749 -0.140686 -0.66966 0.59407 -0.235786 0.880188 0.83623 0.179293 0.404053 0.938344 -0.0656699 -0.528387 0.392892 -0.867943 0.277976 -0.765765 -0.585171 -0.267377 -0.92593 0.0798371 0.985645 -0.57246 0.058629 -0.594344 -0.991473 -0.194096 0.505993 -0.218959 0.682414 0.930668 
0.764716 -0.517163 0.726608 0.246746 0.193011 0.611969 -0.996462 -0.58684 -0.682129 -0.0234789 -0.409141 0.826891 -0.621772 0.712481 0.200861 0.512683 -0.222674 -0.178582 -0.977112 0.0820534 -0.532792 -0.413318 -0.303813 -0.519668 0.651223 -0.703723 -0.106355 0.706869 0.567313 -0.718054 -0.0691364 0.519731 
-0.895058 -0.461033 0.943864 -0.849881 -0.355388 0.528495 -0.467168 -0.682836 -0.0565632 0.273545 -0.197861 -0.00299251 -0.277937 -0.661369 -0.994003 -0.929386 -0.279636 -0.286019 0.245198 0.185235 -0.23513 -0.116513 -0.433866 -0.640253 0.691592 0.546982 0.244069 -0.45363 0.0588149 -0.851151 0.322685 -0.912297 
-0.316894 -0.0359002 0.747466 -0.904091 0.170545 0.462479 -0.962491 0.231351 0.446301 -1.00043 0.884548 -0.542587 0.0558728 0.439018 0.985895 -0.343129 -0.834088 -0.213507 0.171627 -0.630895 0.846871 -0.724426 0.268462 -0.0447002 0.328339 0.257429 -0.609835 0.436772 0.956693 0.858626 0.713218 0.454424 
0.843566 -0.252471 -0.737619 -0.833798 0.299505 -0.158985 -0.0429232 0.00239267 -0.705952 0.704937 -0.685835 0.398186 -0.298753 -0.325693 -0.25356 -0.270863 -0.81492 0.377406 -0.89145 -0.0103923 -0.586478 -0.658702 -0.392254 -0.749516 0.235118 0.290099 0.363048 0.208237 0.802745 -0.0971263 -0.733605 0.344679 
-0.18506 -0.87757 0.861438 0.641673 -0.765817 0.65754 -0.0589936 0.529878 0.984402 0.0576698 0.508173 -0.385359 -0.591193 -0.143103 0.172619 -0.578805 -0.110361 0.795935 0.914592 -0.632557 -0.113538 0.384026 -0.995116 0.66882 0.449473 -0.233635 0.383913 -0.439747 0.314941 -0.856894 -0.448077 -0.88531 
1.00464 0.123508 -0.306099 0.232989 -0.398855 -0.548098 -0.933467 -0.619343 -0.680272 -1.08937 -0.541326 0.209349 -0.157302 -0.657535 -0.293713 -0.30035 -0.441707 0.741259 0.742384 0.611455 -0.388826 0.222853 -0.933655 0.199505 0.94988 0.634454 -0.80451 0.137224 -0.911406 0.665144 -0.930268 -0.796933 
-0.781302 -0.861664 0.342282 -0.536425 0.238986 0.551624 0.424541 -0.798423 -0.620608 0.623715 0.753301 0.301538 0.578559 -0.719878 -0.882701 0.870542 -0.281156 0.363616 0.642117 -0.54113 -0.00325519 -0.491238 -0.874173 -0.422919 0.492355 0.325179 0.0623661 1.06898 0.223356 -0.91086 -0.671793 0.869899 
0.0114651 0.396042 -0.403385 0.395827 0.0466013 0.125234 -0.269745 0.139081 0.680285 -0.264267 0.253251 -0.781186 -0.28487 0.44141 -0.954311 0.58927 0.663966 -0.968153 -0.289331 -0.621588 0.627793 -0.478946 0.716244 -0.460088 -0.585607 -0.271 0.473828 0.25526 -0.556578 0.0408262 -0.439077 0.0130262 
0.858993 -0.157004 -0.64699 -0.145063 0.728415 -0.307635 0.2955 -0.397543 -0.203643 0.124023 -0.175898 0.680889 -0.533163 0.482493 0.343737 0.368108 0.531666 -1.03984 -0.013812 -0.999308 0.21244 0.150896 0.151547 -0.435445 0.544209 -0.291431 -0.819478 0.467257 0.131 -0.904516 -0.200633 -0.481792 
0.670556 -0.54344 0.395739 -1.20404 0.412023 -0.629873 -1.00075 1.36118 -0.92406 -0.387046 0.369851 0.846397 -0.580548 0.162773 -0.734951 0.969642 -0.653015 -1.09794 0.481611 -0.183123 0.966248 0.154512 -0.21869 0.308798 -0.0739581 0.440468 -0.513662 0.705786 0.512751 0.0811047 0.188951 0.965753 
-0.0530551 -0.0420519 -0.266366 -0.384055 0.272481 0.298492 0.341427 1.30019 0.109176 0.00651432 0.45358 0.224357 -0.165664 0.576418 0.196454 -0.468851 0.447645 -0.448771 0.443186 0.216804 0.805575 0.0496878 -0.184241 -0.04363 -0.489669 -0.433765 0.713535 0.0690833 -0.0944131 0.191694 -0.645683 0.389151 
-0.640278 0.830137 -0.353995 -0.485392 -0.258771 -0.0425105 -0.0632905 0.667009 -0.818441 -0.371564 0.0938214 0.865693 -0.0491728 -0.534463 -0.196251 0.590534 0.804847 0.242265 -0.348992 -0.331934 -0.793355 -0.282219 -0.461559 -0.250647 0.536775 -0.520815 0.728787 -0.407507 0.357937 0.363381 0.213874 0.0626245 
-0.191278 1.16544 -0.598397 1.1052 -0.251609 -0.44495 -0.238012 0.300789 0.189223 0.699583 -0.0832537 -0.190551 -0.161814 0.720941 -0.469713 0.831445 0.77942 0.402238 0.698889 0.880887 -0.0321881 0.155948 -0.070996 -0.470941 -0.497998 -1.05022 -0.258195 -0.308014 0.342477 -0.78913 -0.471852 -0.114789 
0.497893 0.116518 0.0667688 -0.345994 -0.459821 -0.457944 0.154837 0.225513 -0.430563 -0.963396 -1.00222 -0.545244 -0.381048 0.473318 -0.314032 0.0615949 -0.231865 0.540843 -0.276508 0.460691 0.646758 -0.0420723 -0.610344 0.154941 -0.199899 0.170031 1.28668 -0.744328 0.232201 0.150045 -0.783346 -0.012791 
0.684844 1.11391 -0.261086 0.782814 -0.0750645 0.0902465 -1.17399 0.111031 0.319755 -0.197086 0.0227042 1.03271 -0.132537 -0.0207801 0.0704796 -0.156071 -0.0102581 -0.938586 -0.200726 0.478849 -0.215273 -0.212465 0.929047 -0.912238 -1.26171 -1.27984 0.83386 -0.246139 -0.0559415 0.204642 0.0500936 -0.552113 
0.107955 0.573876 -0.469735 -0.698178 0.0866636 -0.423824 -1.07 0.284224 -0.226667 -0.058239 0.119303 0.24312 0.273534 -0.111138 0.153627 0.717639 -0.101808 -0.178993 0.579624 -0.415345 -0.315646 0.261967 0.0795571 0.52421 -0.625964 0.340462 0.844081 -1.32843 0.961762 -0.865796 0.363827 -0.484755 
-0.117736 0.715948 -0.0392183 -0.0476574 -0.661677 0.130074 0.0257828 0.354512 0.0666152 0.53026 -0.620614 0.549206 0.374746 0.714981 0.259059 0.389973 0.278966 0.19366 -0.840769 0.52783 0.813018 -0.88342 -0.0618275 0.00310003 0.891879 -0.546759 0.889348 -1.5182 0.838448 -0.398675 0.160075 -0.0974421 
0.586453 0.33711 -0.156809 -0.131033 1.02278 0.683189 0.493319 -0.169233 -1.27608 0.00425275 -0.507448 -0.435216 0.0130044 -0.301571 0.941784 0.902232 0.322431 0.109509 0.242474 -0.254949 -0.736548 0.250753 -0.677283 -1.09415 -0.275537 -0.246117 0.406389 -0.456406 0.906229 -0.471342 0.391048 -0.312329 
0.158311 0.447173 -0.439731 -0.865915 -0.130064 -0.472497 -0.00701727 -0.380614 -0.72224 -0.0270303 0.751661 0.636584 -0.971305 0.0636751 -0.621547 0.514593 0.573618 0.438317 -0.271439 0.700734 -1.08135 0.577383 -0.350943 0.558437 0.502097 0.71564 0.0289977 0.0490119 1.13892 -0.117452 -0.488768 -0.77951 
-0.0612123 0.420859 -0.6874 -0.209587 -0.583362 -0.440492 -0.331446 1.12843 0.396197 -0.399337 0.414376 0.576937 0.54779 -0.128343 -0.3592 0.359734 0.372078 1.01406 -0.618719 -0.152322 -1.31272 -0.454567 0.289856 0.202018 0.0426836 0.527043 -0.252617 0.307891 0.981201 0.751921 -0.0512849 -0.203422 
0.425911 -0.0915118 0.191324 -0.541802 -0.488244 0.13647 -0.55309 -0.123706 -0.357996 0.207507 0.172206 0.170302 -0.226091 0.263549 0.909315 1.02879 -0.598716 0.912309 0.400609 0.105135 -0.616674 -0.817653 0.291147 -1.51705 0.669661 0.235241 0.242884 0.542242 -0.295742 0.0765697 -0.101393 -0.223368 
-0.226752 0.955075 -0.813347 -0.95976 0.295832 0.693947 -0.311381 0.0134695 -0.573698 -0.790776 0.473229 -1.29961 0.308374 -0.108094 -0.846455 -0.515533 -0.387918 -0.0247492 -0.0558775 0.76774 -0.097945 -0.485382 -0.0569932 0.102879 -0.588663 0.282037 -0.761485 -0.20108 -0.216801 0.382038 0.481505 -0.0233775 
0.376836 -0.828418 0.184264 0.281844 -0.429367 0.00354772 0.0349116 0.128838 0.299493 -0.461458 0.525086 -1.00351 -0.501384 -0.683695 0.370096 0.242689 -0.111657 1.05653 -0.0849577 1.12414 0.78642 -0.119634 0.657908 -0.695394 0.619143 0.7221 0.046712 -0.0280666 0.427409 1.4078 -0.466095 0.265397 
1.1542 -1.22941 -0.364767 0.435237 -1.23286 -0.332434 -0.103437 -0.42561 -0.627908 1.33113 -0.536765 0.854913 0.413515 -1.15187 -0.491396 -0.486915 0.401347 0.628083 -0.0800647 -0.160931 0.428812 -0.203348 -0.465614 -1.27104 0.885839 -0.557272 0.403271 -0.771906 -0.821323 0.473395 1.41407 -0.087913 
-0.316193 0.0392373 -0.274779 -0.264003 -0.000139405 1.06904 -0.784917 0.962127 -0.348485 -0.0461336 0.203027 -0.208547 0.389559 -0.285746 0.491671 0.00950244 -0.783879 0.97725 -0.160595 0.983797 0.146248 -0.540674 0.0196313 0.573516 1.02103 0.0212692 -0.654378 0.712565 0.835889 0.188672 1.27663 0.212643 
0.761958 -0.463288 -0.182241 0.047031 -0.616637 -0.748129 0.0185948 -0.711607 -0.233961 -0.0993194 0.993982 -0.0723533 -0.434107 -0.0312261 -0.570481 -0.451279 -0.553373 -1.01052 -0.703849 0.167026 0.274564 -0.595334 0.387255 0.609882 -0.639219 -0.765297 0.711975 0.388923 0.788208 0.478486 -0.627884 0.0536534 
-0.598066 -0.443227 -0.15782 -0.491198 -1.06626 -0.285106 -0.97228 0.796327 0.873124 -0.125546 0.118589 0.624198 -0.916465 0.340053 -0.544017 0.230186 0.387595 -0.113348 -0.564792 -0.846567 -0.811959 0.66175 -0.692408 0.859253 0.977072 0.752037 -0.654708 0.968579 0.657897 -0.687121 -0.820364 0.163013 
-0.156546 0.380907 -0.618876 -0.982994 -0.314299 -0.745204 -0.591298 0.124367 0.837352 -0.494265 0.0378436 0.293606 -0.865966 0.712554 -0.193489 -0.285713 -0.242418 0.917078 0.429115 -0.758958 -0.0975288 -0.17656 0.177069 0.0842272 -0.419245 0.654819 -0.82752 0.512429 -0.50115 -0.213178 0.93699 0.139238 
0.895679 -0.605111 -0.107083 -0.291087 -0.391218 -0.993628 -0.238197 -0.268366 -0.0393497 0.521393 -0.852213 0.324479 0.246554 -0.469419 -0.702703 0.26358 -0.223877 0.513785 -0.397241 -0.268402 0.781542 0.694754 0.17105 0.980863 0.453214 0.428724 0.226042 0.392303 0.0303506 0.519255 0.421703 -0.577013 
0.152184 0.572803 -0.249355 0.500293 -0.414083 -0.131225 -0.948034 -0.119106 0.573452 0.923776 -0.856413 -0.838547 -0.157113 -0.882906 -0.255383 0.988666 0.718735 0.98893 0.160129 -0.28722 0.319848 -0.615493 0.170346 -0.212297 0.0465023 0.177603 -0.872101 0.870783 -0.730592 -0.901077 -0.0805245 -0.36087 
0.0747556 0.173315 -0.704702 0.72055 -0.600448 0.541169 -0.137169 0.192196 0.216418 -0.677794 0.420369 0.484384 -0.966791 0.688814 -0.012678 0.410763 -0.581517 -0.687767 0.804599 -0.578871 -0.116213 -0.241429 0.0747477 0.192483 -0.878618 0.806504 -0.469579 0.177244 0.633831 0.914398 -0.691439 0.772425 
-0.753532 -0.195076 0.363966 0.132009 0.572952 0.819701 -0.285617 0.427752 -0.744372 -0.802491 1.00895 0.613958 0.936458 -0.508032 -0.581168 0.716771 0.186158 0.0239336 0.0709625 -0.0574905 0.790833 0.682222 0.68599 0.449594 0.415066 0.521477 -0.634594 0.876136 0.782602 -0.627223 0.519357 -0.103638 
0.145645 -0.690574 0.0127738 -0.931255 0.244003 -0.342018 -0.000563164 0.898791 0.734567 0.595263 -0.389184 0.883376 -0.263161 0.255075 -1.04758 0.231647 -0.744096 -0.197146 0.439635 -0.390393 -0.587719 0.888857 0.368335 -0.853041 -0.722009 -0.925 0.348706 1.04332 -0.77153 -0.960347 -0.695939 0.778602 
-0.0116043 0.415697 -0.157014 -0.0543593 0.954924 0.866833 0.632365 0.325554 -0.306739 0.109098 -0.836819 0.959409 0.641334 0.623783 -0.21178 -0.234661 0.581346 0.35396 0.599035 -0.992205 0.118171 0.127449 0.840151 0.0454852 -0.314916 0.164854 0.709317 -0.215732 0.37356 -0.141667 -0.820372 0.384779 
0.563355 0.614187 0.732141 0.670477 -0.0342673 -0.857897 -0.0240642 0.348386 0.320887 -0.891158 0.611111 0.623423 -0.326144 0.258526 -0.141125 -0.385401 0.0904102 0.725024 0.230198 0.156105 -0.250889 0.608513 -0.244473 -0.970256 0.622745 -0.776071 -0.290049 0.701701 0.487484 0.87816 0.241195 0.274488 
0.112547 0.297587 1.14345 0.417206 -0.186996 -0.519095 0.819063 -0.0420252 -0.103389 -0.501832 0.648352 -0.0245108 -0.335516 -0.253062 -0.851863 -0.129258 0.575747 -0.28133 -0.332184 -0.582837 -0.130992 -0.421791 0.351711 0.725362 -0.470079 -0.857127 -0.129246 -0.91092 0.569498 0.266519 -0.17898 -0.305121 
0.600151 1.24574 -0.58608 0.119753 -0.34166 -0.624432 0.668861 1.17671 0.0521355 -0.304325 -0.521376 -0.237061 -0.913572 0.183672 -0.510303 0.163861 0.663406 -0.774754 -0.596054 -1.06371 0.509379 0.425784 -0.265676 -0.788913 -0.725425 -0.0510111 -0.116402 0.953605 0.166057 -0.0671628 -1.31884 -0.204217 
0.087074 0.443385 -0.024003 -0.281283 -0.530405 -0.573221 0.596625 0.985014 -0.285537 0.0218941 -0.663632 0.492495 -0.0375339 -0.0014231 -1.03769 1.12464 1.13336 -0.368085 -1.32992 0.201784 -0.290153 0.582129 -0.225259 0.476039 -0.489654 -0.332059 -0.131307 -0.117456 0.518838 -0.553759 0.716502 0.646768 
-0.0633525 -0.345402 -0.28224 -0.490766 -0.54734 0.167456 0.309484 -0.0653483 0.0698078 -0.288086 0.677245 -0.188643 0.600093 -0.37787 -0.602438 -0.244964 0.126504 -0.652552 0.497157 0.983795 0.963386 -0.0808392 -0.669926 -0.397989 -0.599836 0.0131664 0.0280069 -0.367378 -0.784424 1.12839 -0.767518 1.04794 
0.57075 0.476491 -0.251674 -0.0356127 -0.172045 -0.469962 -0.744278 -0.0111316 -0.711963 0.126796 0.356151 1.05584 0.0898251 -0.0678226 0.370569 -0.273015 0.0502145 -0.100668 0.326092 0.819888 0.489365 -0.00406195 0.59654 1.06343 -0.524008 -1.03856 0.166362 0.0337211 -0.137566 0.301055 -0.715779 0.151767 
0.176406 -0.285798 -0.10155 -0.100996 -0.419223 0.326117 0.482326 0.9293 0.142962 0.487371 -0.936637 -0.100472 0.675057 0.190017 -0.732783 -0.725439 0.826014 -0.0721286 -0.388557 0.669494 -0.0131835 -0.567653 0.488452 -0.710622 -1.37336 -0.842439 0.523605 -0.318818 0.173676 0.0920323 -0.0804707 1.28566 
-0.481886 0.765914 -0.62691 -0.204208 -0.325323 0.116029 0.479518 -1.01189 -0.307985 -0.160844 0.127154 0.0495849 -0.136384 -1.04337 -0.909736 -0.123892 -0.0913241 0.984603 0.128787 0.366967 0.435247 0.119721 0.221508 -0.813495 -1.39209 -1.14943 -0.0173974 -0.947071 -0.243176 0.750083 0.0927598 -0.145935 
-0.271249 0.555978 0.404159 -0.838995 -0.0889178 -0.0649169 0.586901 -0.139312 -0.902592 0.155947 0.978597 1.01708 0.0162304 0.941821 0.278124 0.645998 0.553901 0.732403 0.347816 -0.182059 0.127051 0.729662 0.690265 0.312556 -0.80973 0.123611 0.268727 -0.279512 0.663715 -0.153651 -0.505571 0.057469 
0.0930913 1.40503 0.0742861 0.294318 -0.293148 0.869766 -0.170085 -0.290969 -0.79066 0.331833 0.374086 0.248664 -0.591692 0.0295128 0.301623 0.0622078 -0.305991 -0.184368 0.927165 0.43196 0.119642 0.00226227 0.940553 -1.25925 0.460234 -1.0551 0.422028 -1.25032 0.908377 -0.158807 0.291259 0.229565 
0.982494 1.34656 -0.00100709 -0.418223 0.158728 0.679148 -0.067986 0.397664 0.069969 -0.446691 0.561654 -0.829019 0.525078 1.18549 0.284928 0.691948 0.573338 -0.288571 -0.731468 -0.936761 -0.324262 -0.046407 0.155733 -0.000876507 0.451286 -0.606096 0.837817 -1.02271 0.366615 0.0564155 -0.773872 0.895579 
0.103953 -0.484464 0.13778 -1.134 0.184482 0.0496352 0.208405 0.498877 0.160822 -0.736248 -0.0208069 0.450381 0.589838 -0.391625 -0.117478 -0.718037 0.34019 1.15792 0.0856972 0.745298 -0.181894 0.36188 0.838686 -0.572828 0.22025 1.16715 0.430747 -0.982688 -0.0819342 0.351032 0.599059 -0.453918 
-0.0132473 0.250059 -0.332778 0.0109799 0.36826 1.37726 -0.316569 0.594835 0.176525 0.677006 -0.383638 0.171712 0.804221 -0.26743 -0.127313 0.146304 0.939307 1.15471 0.783962 0.0435807 -0.336507 0.0150335 -0.139387 -1.23022 0.256244 1.03237 0.0667498 -1.08448 0.109582 -0.144039 -0.439407 0.299597 
0.251634 0.498257 -0.0661044 -1.55494 0.00801907 0.203055 -0.253229 0.388667 0.39534 -0.682793 -0.910558 0.0437305 0.502794 0.394134 0.109199 -0.451947 0.578295 0.0128863 -0.303402 0.799444 -1.34774 -0.459942 0.289738 -1.77475 0.506152 0.245056 -0.355926 0.183626 0.441335 -0.307814 0.947629 0.102801 
-0.152385 0.510687 0.134539 -0.0763381 -0.343777 0.939947 0.336621 0.465846 -0.717839 0.783835 0.548053 -0.272626 0.449716 -0.51835 -0.674448 0.309947 0.946554 0.480294 0.443943 0.0556827 0.154659 0.476438 -0.468592 -1.23081 -0.108466 -1.04833 0.23547 -0.714626 -0.603571 -0.437372 0.127276 0.398715 
-0.351078 -0.159363 0.423758 -0.431804 -0.924253 0.118854 0.449566 0.710524 -0.0650374 0.515965 -1.05233 0.310635 0.24852 0.30477 0.277079 -0.589667 0.865421 1.53584 -0.655872 -0.818791 -0.14275 0.325252 -0.351568 -0.588307 -0.334178 -0.615957 -0.250556 0.6142 0.580136 0.472101 -0.491229 0.52642 
0.0805888 0.37239 -0.771585 0.348225 -0.645212 0.961759 0.359165 1.26251 -0.0421577 0.058924 0.362117 -0.481108 -0.170118 0.458988 -0.0245715 -0.245188 -0.588322 0.172348 -0.288253 0.551524 -0.518889 0.33572 -0.496037 -0.135093 -0.103675 -0.589738 0.565221 -0.12244 0.326187 0.22689 -0.320912 -0.0522378 
0.446689 -0.207459 -1.26935 -0.551056 -0.267965 1.1845 0.995253 0.657606 0.813022 1.05592 0.914583 -0.721434 0.425764 0.0967507 -0.222195 0.0857267 0.533728 0.269019 0.0188773 0.765264 0.0943847 -0.0867377 0.544371 -0.104504 0.616325 -0.454211 -0.806823 0.766714 -0.516403 0.705424 -0.180834 0.990592 
1.00475 0.226684 -0.701047 0.167075 -1.59738 0.584346 -1.06985 -0.417496 -0.56316 1.0083 -0.273255 -0.386232 0.859684 -0.520136 -0.606011 -0.819135 0.623855 0.594429 -0.116541 0.144479 -0.663762 0.337667 0.8135 -0.261359 -0.0328044 -0.540247 -0.771297 -0.446743 0.216595 0.583471 1.11274 -0.60749 
1.08301 -0.600912 -1.03662 0.366343 -0.610957 -0.0512943 -0.0641772 0.824146 -0.0822916 -0.587627 -0.489112 0.284415 0.707351 0.705449 -0.620906 0.410149 0.237891 -0.917267 0.339487 0.988713 0.560187 -0.0313615 -0.821798 0.151798 1.03746 0.0946766 -0.66875 0.855663 0.767754 1.01998 0.0936111 -0.336643 
0.427132 0.602571 -0.161821 -0.153532 0.174455 -0.881194 -0.555728 -0.514647 -0.966337 0.411885 -0.286983 0.68205 -0.726411 0.460773 0.987307 0.841084 0.00150195 -0.750302 -1.01366 -0.201773 -0.908846 -0.955249 -0.48277 0.608042 0.931737 -0.191823 -0.669697 0.828153 0.918877 0.732703 0.935981 0.891851 
-0.20625 0.699974 0.486969 -0.637124 0.146752 -0.713484 -0.00187235 -0.296172 0.371562 0.623771 0.617653 -0.338211 -0.101677 -0.55863 0.251995 0.29674 -0.992687 -0.425947 0.973918 -0.882772 -0.230654 -0.198896 -0.357883 -0.578874 -0.907414 -0.329685 -0.60152 -0.0659502 -0.945473 -0.400186 0.314938 -0.469718 
-0.630749 0.197082 0.107933 0.740123 -0.895229 0.378762 0.128805 -0.658263 0.35995 -0.925659 0.0391868 0.540449 0.140237 -0.717593 0.316302 -0.174598 -0.33993 0.255555 -0.581392 0.0721717 -0.574317 -0.750979 -0.232002 -0.20234 0.257189 0.428204 0.286553 0.421788 0.501644 -0.749298 -0.279246 -0.868206 
0.530283 0.526131 0.632374 0.980704 0.0257883 0.722497 -0.367964 0.46418 -0.43407 -0.482722 -0.859149 0.877442 -0.226628 -0.694051 0.674752 -0.228325 -0.757782 -0.737103 -0.493502 0.565462 0.248634 0.26934 0.536479 -0.15301 0.894256 0.579113 0.891569 -0.345168 -0.988984 -0.672519 -0.589536 -0.167676 
0.865844 0.402074 -0.088988 0.311025 0.311554 -0.630985 0.862035 0.799982 -0.696042 0.464888 0.379475 0.260048 -0.539455 -0.829072 0.533003 -0.87453 0.255298 0.298563 0.0443877 -0.742763 0.685612 0.603253 0.960516 -0.58577 0.127345 -0.612291 0.661121 -0.404193 0.993137 0.191604 0.600582 1.00474 
0.067772 -0.386835 0.235926 0.866276 -0.00183595 0.384367 -0.223098 -0.773521 0.905705 -0.716111 0.905592 0.960375 -0.401299 0.208835 0.224466 -0.666355 -0.333522 -0.0873974 -0.0950872 0.209937 -0.499945 0.590839 0.431437 -0.994066 -0.762366 0.435018 -0.367071 0.0611002 0.207271 0.721199 0.523021 -0.615707 
0.688032 0.564598 -0.257187 0.711823 -0.588986 0.802278 0.182125 -0.473094 -0.362396 -0.508902 0.752482 0.259285 -0.595561 -0.561498 -0.106864 0.714147 -0.750696 0.953947 -0.0511766 0.575631 -0.373511 0.411333 -0.901076 -1.01631 -0.64767 0.689535 -0.60053 1.17549 0.92027 -0.0863093 -0.061348 1.1728 
0.331391 -0.308013 -0.347941 0.0788973 -0.899826 0.225806 1.11342 -0.421701 0.303468 -0.0270882 0.951795 -0.124623 0.417456 0.0628185 -0.366768 0.535592 0.12848 -0.760473 1.06998 0.596332 -0.726507 0.72735 -0.892129 -0.192711 0.125113 0.330188 -0.398316 1.03903 -0.0401277 0.533509 -0.650835 0.926063 
1.10742 -0.309271 -0.00735766 -0.715366 -0.0862075 -0.387181 0.845449 0.0549898 -0.883153 0.404847 0.91977 0.664788 -0.787964 -0.314265 -1.1159 0.279323 0.697472 0.818805 1.10319 -0.173009 0.399257 0.102625 -0.322125 -0.19266 -0.224229 -1.04857 0.167902 0.0687145 -0.647678 -0.136672 -0.128316 0.258307 
0.753129 -0.371821 0.749457 0.635794 0.347701 -0.425585 0.698173 0.0372125 -0.116184 -0.312923 0.0818759 0.372953 0.0256357 0.760818 0.546842 1.04238 0.702504 -1.03315 0.708534 -0.97066 0.425734 -0.844154 -0.414155 -0.503466 -0.128274 0.874288 0.265477 0.583065 0.960039 0.0196931 -0.252271 0.323206 
0.14794 0.00341289 0.874552 -0.346594 -0.592184 0.670412 -0.225792 1.12067 -0.571849 -0.0331878 0.975376 0.273576 -0.460666 -0.60191 0.614788 -0.430047 0.00340809 -0.419644 -0.403216 -1.19181 0.0798748 0.719319 0.522176 0.268178 -0.203632 0.329284 -0.265724 -0.218008 -0.35437 1.29628 0.150752 1.27611 
0.370407 0.107516 0.254364 -0.244901 0.176643 0.0658235 -0.277085 0.356696 0.234095 -0.145902 0.111088 -0.174259 -0.41724 0.769881 0.308858 -0.272691 0.478175 -0.00734979 -0.655832 0.472138 -0.716054 -0.600737 -0.984391 -0.645959 -1.22202 -0.14543 0.256723 0.336047 -0.312386 0.346136 0.00668012 0.685606 
0.181477 -0.376745 0.57196 0.806191 0.242731 -0.562193 0.591842 1.18222 -0.0468928 0.328648 0.16186 0.87814 0.18802 -0.270403 0.049129 0.844359 1.20168 -1.51321 -0.70033 0.0372166 0.0644623 0.18113 0.381803 -0.531277 -0.737957 0.200953 -0.357769 -0.53153 1.06447 1.19006 -0.716917 0.501562 
0.641239 0.77634 -0.128859 0.541397 -0.7322 0.780304 0.577159 -0.571493 -0.68121 0.95607 -0.813392 0.534585 -0.837598 -0.249604 -0.320532 -1.2494 -0.272644 0.491948 -0.693793 -0.477733 0.499771 0.852547 0.557138 -0.506654 -0.804201 -0.77205 0.357683 0.799241 -0.204943 1.36164 -0.585656 0.179793 
-0.0349341 0.493572 0.125009 -0.128231 0.680078 -0.883364 -0.857856 0.778757 -0.298669 0.86229 0.644368 0.0879423 0.130432 0.0484143 -0.485538 -0.123389 0.363686 1.00797 0.768872 0.748513 -0.0951058 0.622559 -0.360364 -0.742281 0.114797 0.057832 0.513896 -0.765745 -0.600995 1.36239 -0.57089 0.720149 
-0.061268 0.546339 -0.887397 0.66872 -0.408131 -0.667141 0.0408613 0.036046 -0.284456 0.265316 -0.631579 1.20128 -0.388314 0.187676 0.224535 0.25914 0.00212746 1.28287 1.02096 0.43345 -1.31746 -0.848295 0.657208 -0.896841 0.27309 -0.475922 0.370277 0.65753 0.194143 -0.379789 -0.560025 0.78541 
-0.160321 0.990528 -0.737084 -0.353085 0.17997 0.170704 -0.373501 0.117188 0.656885 -0.391759 0.810557 0.636885 0.884431 -0.445272 -0.174787 -0.245387 -0.774952 0.464513 1.15045 0.693165 0.33339 -0.793509 1.13144 -0.683464 0.244857 -1.05706 -0.400803 0.251933 0.657154 0.479202 -0.513479 0.806767 
-1.40563 0.491686 0.376026 -0.701533 0.544483 0.10435 -0.449899 0.337487 -0.355918 -0.890215 0.648992 -0.121281 0.0799215 0.703946 0.830671 0.566001 0.120694 0.373788 0.658238 0.471179 -0.0501202 -0.154834 0.155622 -1.58873 -0.277435 -0.213804 0.330935 -1.10388 -0.120784 -1.13576 -1.11578 0.0186669 
-0.321671 -1.0342 0.968534 -0.0534088 0.0131357 0.546486 0.405181 -0.179969 0.519505 -0.362165 0.337724 0.22058 -0.618501 -0.530526 -0.153845 0.908904 0.78903 0.371865 -0.455044 0.265193 -0.0339291 0.48183 -0.437183 -0.349382 -0.32878 -0.18487 0.422996 -0.838224 1.55317 -1.00439 0.413388 0.368642 
0.0206786 0.351008 -0.196586 0.382283 -0.587211 0.71905 0.180069 1.09035 -0.562577 0.0654077 -0.180466 -0.738964 0.995434 0.625495 0.317476 0.463351 -0.0412072 0.0692098 0.559419 -0.22833 0.661227 0.120787 1.07725 -1.60297 0.232591 -0.215864 0.75874 0.645159 1.07003 -0.415791 -0.483578 0.589377 
-0.407379 0.137799 1.19702 0.0664952 -0.193547 0.638954 0.376161 0.600478 -0.106776 -0.593688 0.425368 0.743678 0.510167 -0.910733 -0.90916 0.452043 -0.560384 -0.575139 0.940864 0.562917 -0.533261 -0.306995 -0.603194 -1.8866 -0.0493964 -0.111087 0.0781384 -0.692555 -0.398906 -0.767145 0.726197 0.996161 
-0.150729 -1.06373 0.126979 0.189391 0.533191 1.14682 -0.352496 0.0509417 -0.077663 -0.293506 -0.661914 0.723712 0.263149 0.202955 -0.386825 -0.663956 -0.742425 0.137394 0.24138 -0.828824 -1.61854 -0.539078 -0.114588 -1.24307 -0.282518 -0.548607 0.745085 -0.139706 0.0852367 -0.586326 0.00516516 0.767644 
-0.501433 -0.519166 0.66117 -1.06429 0.65714 0.752066 0.342128 0.644133 0.806929 -0.0914458 0.0444241 -0.889773 -0.035619 0.13747 0.0877735 0.832556 0.0242972 0.391759 0.221872 -0.285848 0.197681 -0.859251 -0.0355493 -1.01508 -0.424387 -0.222424 -0.797002 0.454735 -0.000939067 0.951238 -0.304145 0.725659 
0.758113 -0.619458 -0.531911 -0.444901 -0.26618 0.958809 0.0931376 -0.518672 0.28274 0.0940309 -0.0500494 0.412512 1.04568 -0.508649 -0.889028 -0.00527669 -0.179174 -0.219841 0.0664227 -0.581948 -0.209613 -0.442583 0.20498 -1.4408 0.543722 0.694362 -0.625283 0.727044 -0.442041 0.373197 0.489913 -0.14168 
-0.292996 0.172302 0.0890736 -1.04782 -0.43817 -0.453144 0.80483 0.752093 -0.740636 0.349864 -0.595119 -1.13053 1.00301 -0.82317 -0.975175 -0.578246 -0.343525 -0.715034 0.135331 0.976092 -0.120521 -0.01436 0.149552 -0.910331 0.681126 0.592557 0.190092 -0.077759 0.129389 -0.570959 -0.125599 0.678029 
0.522567 -0.781396 -0.346606 -0.489552 -0.106753 -0.144826 -0.61747 -0.537783 -0.426303 -0.0828704 -0.261179 -0.739934 0.821355 -0.824716 0.6748 -1.20338 -0.248397 -1.10398 -0.733714 -0.285901 -0.214007 0.0892768 0.122431 -1.4192 -0.119149 -0.393381 -1.18172 -0.607851 -0.396932 1.3994 0.440587 0.30063 
0.118227 0.233114 -0.0726839 -0.417705 -0.422179 -0.523589 0.539482 -0.869529 -0.837516 -0.18648 1.01537 0.222086 -0.0149133 -0.674899 -0.963102 -0.243764 -0.616827 -1.13114 -1.25589 -0.706393 -0.598841 -1.08388 0.806141 -0.415217 -0.203281 0.612747 0.020482 -0.231331 -0.443275 0.516657 0.760714 0.314189 
0.893099 -0.285058 -1.61608 -0.771281 -1.45747 -0.0961773 -0.675544 0.745964 0.131112 -0.470465 0.313049 0.921936 0.742101 0.807851 -0.273571 0.164084 -0.206646 0.445155 0.170631 0.664624 -0.137851 -0.181464 -0.411624 -0.00917992 0.960324 -0.610516 0.889758 1.00454 -0.450865 0.354235 0.621801 0.0717838 
0.331583 -0.10647 -0.806776 -0.216801 0.411813 -0.197531 0.658034 0.799257 -0.294039 0.98846 -0.448028 0.355728 1.00003 0.211161 0.364749 0.606216 0.815107 0.0174755 0.707366 0.634177 -0.951274 -0.420357 -0.339257 0.364316 -0.204889 -0.796278 -0.824589 -0.0800506 0.443106 -0.531161 -0.70188 0.143527 
-0.101798 -0.399064 -0.131171 -0.789446 -0.256239 0.86033 -0.709762 -0.562868 -0.274844 0.878123 -0.403589 0.54922 0.755923 0.0471322 -0.823432 0.20991 -0.87764 -0.940471 0.603631 -0.708285 -0.671719 -0.572611 0.33794 -0.49091 -0.0354427 0.459162 -0.260751 0.0478711 -0.761818 0.294422 0.220264 0.0218205 
0.619759 0.786549 -0.10469 -0.940533 -0.201561 0.292817 0.157813 0.27576 -0.191065 -0.0796043 -0.94044 0.510898 -0.7057 -0.616696 0.211205 0.357384 -0.801216 -0.688176 0.876209 0.354698 -0.405665 -0.518384 -0.417818 0.278122 0.104225 -0.873899 0.117042 0.659898 -0.96245 -0.389429 0.374323 -0.501102 
-0.508634 -0.424324 0.856605 -0.563445 -0.469066 -0.340762 -0.425542 0.152129 -0.386436 -0.73709 -0.969854 0.337235 -0.364917 0.405438 -0.599529 0.215822 -0.176962 -0.0500456 0.723392 0.523212 -0.255182 0.547972 0.806615 0.899076 0.639949 0.814188 -0.95256 -0.193945 0.0101216 -0.892429 -0.917203 -0.895057 
-0.841725 -0.709504 -0.232653 -0.017942 -0.551752 0.267336 -0.761053 0.515764 -0.959858 0.727202 0.943914 0.518436 0.597346 0.348211 0.535346 0.841087 -0.836841 0.408244 1.03942 -0.225932 0.0951534 -0.824541 -0.268375 -0.73815 0.706179 -0.0613958 -0.871292 -0.971017 -0.0616258 -0.94823 -0.339007 0.793736 
-0.186255 -0.520229 0.629305 -0.0836789 0.00947121 0.863048 0.587187 0.786567 0.633132 -0.50042 0.800743 -0.456754 -0.86535 0.43003 0.0177942 -0.00313362 0.239838 -0.706617 -0.0830637 -0.349397 -0.823531 -0.677231 0.321274 -0.439455 -0.0571329 -0.85706 0.54417 -0.858719 0.727694 0.0314844 0.296938 0.274979 
-0.39322 0.631786 0.78196 0.377019 -0.14881 -0.553076 -0.219891 -0.855058 -0.0920038 -0.373461 -0.846836 -0.396734 -0.907002 0.876686 0.694806 -0.258126 -0.508102 0.116499 0.588248 0.156771 0.416509 -0.664499 0.715336 0.00343744 -0.589862 0.440603 0.704954 -0.238328 0.388062 -0.925138 -0.969943 -0.119223 
0.704032 1.05135 0.536955 0.133944 -0.112626 -0.157449 0.54691 -0.104357 0.262231 -0.49636 0.574069 -0.781228 -0.795084 -0.312561 0.750955 0.115891 -0.931148 -0.832906 -0.100618 -0.271018 -0.198155 -0.374223 -0.561845 0.189922 -1.30424 -0.246681 0.61977 -0.107397 0.866841 0.196893 0.651332 -0.210682 
-0.167937 1.42401 0.715111 -0.428618 0.184543 -0.37381 0.468005 -0.734339 -0.0477063 1.08763 -0.417636 -0.705791 -0.872848 0.0410099 -0.109751 0.249095 -0.559226 -0.672643 -0.427787 -0.425856 0.0796648 0.492937 -0.941564 0.531572 0.286652 -0.645739 0.338631 -0.57786 0.329417 1.26807 -0.527896 1.07555 
1.12033 1.02408 0.251076 -0.128616 -0.887484 0.654958 -0.0681115 -0.244481 -0.210133 -0.057152 0.251967 0.481639 0.622276 -0.0175872 0.058017 1.15094 -0.912366 0.0388998 -0.044775 -0.774811 -0.304396 0.0726477 -0.448432 -0.260987 -0.212013 0.0403666 -0.240828 -0.542723 -0.167471 0.908106 -0.311192 -0.165505 
-0.0484045 -0.0521497 -0.407139 0.674973 0.289286 0.0689496 -0.338533 0.0943128 -0.965115 -0.0132526 0.150554 1.01183 0.59663 0.800271 0.177913 -0.720969 -0.831059 -0.152656 -0.377363 0.634109 -0.0477855 0.405226 -0.491152 -0.0522975 0.115076 -0.0314576 -0.509866 -0.357137 0.413757 0.55321 -1.21821 0.636755 
-0.57785 0.75103 -0.28053 -0.560061 0.103192 0.870439 0.86593 -0.138859 -0.0476861 1.58715 0.188192 0.0692253 0.692537 -0.59154 -0.252467 0.788971 -0.53329 -0.939718 -1.00202 -1.02953 0.8491 -0.0723498 0.217164 0.670116 0.429494 0.189841 0.525404 0.11913 0.993075 1.39673 -0.253543 -0.0129281 
-0.894757 0.230108 0.218385 -0.660393 0.327402 -0.105122 -0.64069 0.684652 -0.768266 0.473759 -0.0364749 0.832731 0.723737 -0.437942 0.281335 0.777092 0.24331 -1.54258 -1.12024 0.596643 -0.168379 -0.665825 -0.343805 -0.655528 -0.242538 -0.120023 0.506247 0.478104 -0.713625 0.886072 0.139931 0.0227456 
-0.612689 -0.134038 -0.409038 -0.820398 -0.206579 0.221805 0.698474 0.204161 -0.516609 0.878491 0.815487 0.831926 -0.47955 0.381265 -0.735462 -1.07377 -1.05839 0.859091 -0.659138 0.5301 0.75546 0.250539 -0.863085 0.200404 -0.412005 -0.19224 0.288557 0.559031 -0.181509 1.02284 -0.691099 0.37301 
-0.605163 0.925064 -0.47027 -0.49512 0.424686 0.68703 0.455951 0.239739 -0.635836 0.697438 -0.418011 0.149472 -0.156308 -1.1349 -0.194997 -1.07244 -0.312685 0.860111 -0.933599 0.504392 -0.323433 -0.564613 0.184838 0.507451 1.06308 0.541739 0.433594 0.493021 0.760958 1.09466 -0.349525 -0.412877 
-1.4275 0.94163 -0.413269 0.544077 -0.466361 0.127323 1.06052 -0.77025 -1.00104 0.343221 -0.474332 -0.289054 1.01738 0.0816354 -1.04043 -0.578509 -0.894541 1.03882 0.0318582 0.343812 0.129319 -0.215145 -0.185922 -0.560551 -0.0229742 -0.138129 -0.141946 0.642124 -0.388129 -0.0078715 0.323371 0.608296 
-0.375943 1.94912 -0.430713 0.619899 -0.691555 -0.485595 0.913731 -0.803906 0.952152 -0.0641151 0.696871 0.51333 0.531555 -0.512693 -0.0912853 -0.582397 -0.617407 0.951715 0.502041 -0.628478 -0.00227084 -0.971702 0.986123 -0.345931 1.00647 -0.379394 0.470186 -0.643571 0.335842 0.124918 -0.353641 1.40793 
-1.41322 0.225003 0.159862 0.264832 0.371197 0.195816 -0.00696213 -0.838517 -0.730134 0.0764319 -0.1027 0.775673 0.561197 0.750465 -0.298097 0.651909 -0.598767 0.153411 1.15096 -0.548812 0.980151 -0.741516 0.10288 -0.119514 -0.739347 0.909572 -0.578048 0.297363 2.00118 0.458861 0.43518 0.915956 
-1.03517 0.0360187 -0.155584 -0.212283 -0.145843 -0.359111 0.125761 -0.288154 -0.726336 -0.769146 -0.200909 0.971358 0.153113 -0.143553 -0.514796 0.440139 -0.839536 -0.386422 1.04306 0.154958 1.08458 -1.17817 -0.482465 -1.24251 0.0721585 -0.438428 -0.185107 0.0577481 0.0929814 -0.46888 -0.849829 0.525058 
-0.771909 -0.620448 1.13856 0.488295 0.834065 1.14882 1.40882 -0.147454 0.774019 0.268049 0.714342 -0.364008 -0.29998 0.585315 -0.793524 0.60392 0.450912 -0.150656 -0.616343 -1.33273 0.684706 0.24058 0.223163 -0.324458 -0.621589 1.09437 0.0292413 0.0421642 0.0372787 -0.732809 0.323623 0.953606 
0.360912 -0.19122 0.375265 -0.263651 -0.277534 -0.333008 1.07294 -0.000901406 -0.0735028 -0.516001 -0.159517 0.222281 -0.8326 0.108782 0.325352 -0.198757 -0.780066 0.47041 1.21345 0.00502222 0.223012 0.0418023 0.0773097 -0.926731 -0.596339 0.373959 -0.194078 -0.223386 0.161349 0.716215 -0.253986 0.109681 
-0.310525 0.490865 1.13909 0.368403 -0.584447 -0.223841 0.261507 0.382354 0.256966 0.413086 -0.345023 -0.513205 0.179022 0.227098 -0.417776 0.976824 -0.136846 -0.834716 0.423846 0.533064 -0.598431 -0.619299 -0.230302 -0.558148 -0.474465 0.491886 -0.926213 1.045 0.712879 -0.0958305 0.400181 -0.0520585 
-0.0381281 0.52343 0.750232 -0.281355 0.0241138 0.554562 0.76698 0.460933 0.471081 -1.0983 0.0228258 0.522242 0.899478 0.22288 -0.345686 0.10754 -0.786157 -0.506326 1.10303 -0.470713 0.360487 -0.167225 0.920796 -0.438952 0.0660711 -0.873578 0.365178 0.593215 -0.721123 -0.282338 0.0948034 0.711087 
0.808006 -0.481912 0.0411631 -0.738858 0.043688 0.861724 -0.305095 0.940346 0.839939 0.650827 -0.83995 -0.06089 -0.121802 0.15287 0.114265 -0.852248 -0.197062 -0.0165107 1.29158 0.759602 -0.757668 -0.874076 0.752778 -1.06931 -0.157898 0.460817 0.542557 0.071183 -0.572282 0.567629 0.151677 0.00463308 
0.208512 -0.0235021 -0.310201 -0.592097 -1.1105 0.448695 0.339321 0.0467727 -0.115183 0.00977107 0.448848 -0.984171 -0.57969 0.841678 0.358816 0.362594 0.588288 0.484185 -0.0966276 0.167597 -1.21647 0.242578 -0.346809 -0.062643 0.150545 -0.0204212 -1.15923 0.920108 0.14032 0.646446 0.691029 0.012512 
0.0476438 -0.690153 -0.538099 -0.3087 -0.97527 0.915474 0.972893 -0.584213 1.10184 -0.0248845 0.649227 -0.228013 0.156402 -0.672617 0.200089 -0.0355472 -1.12165 0.225788 -0.0856351 0.998984 0.536938 0.081112 0.510701 -0.0790311 0.699736 -1.15364 0.386916 -0.238263 0.869159 -0.539723 0.656549 1.07078 
0.701749 0.182189 -0.251195 -1.15397 -1.92683 1.30644 0.462701 -0.552233 -0.438397 0.555817 1.02263 -1.00457 -0.474609 -0.237204 -0.987233 0.0503862 0.0664245 -1.24133 -0.607896 -0.529389 -1.0463 0.49523 -0.609535 -0.463821 0.141117 0.133421 0.100944 0.30052 0.283421 0.572448 0.67119 0.800812 
-0.05139 0.674558 -1.05555 -0.835314 -0.456719 0.0850799 -0.639812 -0.0828055 -0.257595 0.800532 0.531748 -0.384369 -0.199591 -0.4936 -0.503822 -0.485199 0.729346 0.170696 -0.024536 0.479151 0.993728 -1.153 -0.537194 -0.713471 0.512452 -0.867422 -0.455203 0.70211 1.13784 0.769837 -0.64474 -0.454641 
0.0665392 0.672441 -0.503491 -0.240822 -0.847169 -0.0299666 0.0191954 0.517797 0.369407 0.464438 0.447006 0.633674 0.524604 0.916559 -0.0375447 -0.00542143 -0.909877 -1.06824 -0.0201062 -0.492464 -0.58505 -1.00482 0.22827 -0.676475 0.0764279 -0.590437 -0.196169 -0.434853 0.903032 0.288687 0.29663 0.0657266 
0.498006 0.00863158 0.566297 0.317895 0.221977 0.622903 -0.8094 0.688984 0.566744 0.932537 0.929965 0.198447 -0.781534 0.0847645 0.389673 -0.852656 -0.0171958 -0.546078 0.455377 0.897295 -0.892364 -0.868787 -0.485455 -0.167663 -0.277841 0.221435 -0.469561 0.9175 -0.181516 -0.21474 0.864859 0.297418 
0.590558 0.367842 0.720974 -0.797505 -0.283258 0.030517 0.202933 -0.10115 -0.993767 -0.40869 0.135449 -0.596805 0.293764 -0.519808 -0.372791 -0.43702 0.957611 -0.38405 -0.881281 -0.573465 -0.838245 0.875071 0.943934 0.358534 -0.94189 -0.669448 0.723097 -0.319917 0.627236 -0.760857 0.872534 -0.943547 
0.504264 0.364092 0.435375 -0.0544975 -0.766179 0.490131 0.188525 -0.027777 0.505199 -0.758396 0.588163 -0.082234 0.680951 0.304827 0.063855 0.895585 -0.516801 -0.386799 -0.916971 0.248919 -0.835125 0.208413 0.408145 -0.703435 -0.912691 0.682265 -0.433386 -0.759204 1.00793 -0.215815 0.66137 0.147416 
0.585565 0.0891786 -0.767645 0.70564 0.495432 -0.386502 0.156816 -0.398554 -0.822293 0.63584 -0.450053 -0.117407 -0.0397833 0.218393 -0.762254 -0.606978 0.885704 0.388168 -0.354985 0.839036 0.535523 0.067866 0.254728 -0.870372 -0.877155 -0.500181 0.89791 -0.590903 -0.822323 -0.345995 0.239116 -0.513994 
0.277095 -0.33508 -0.5162 -0.483939 -0.778588 -0.176452 -0.295331 0.673615 -0.229119 0.279652 0.290235 -0.598601 -0.873353 -0.829897 0.727918 -0.239964 0.0934061 0.657935 -0.179784 -0.557472 0.390695 -0.63233 0.594312 -0.863709 0.495681 0.16219 0.398059 0.14387 0.113569 -0.272127 -0.442522 -0.287292 
0.408211 0.316912 -0.196415 0.124943 0.00445241 -0.785445 1.04707 -0.288487 -0.688084 0.914495 -0.68408 0.00246236 -0.794357 0.90286 0.245283 -0.291857 0.564844 0.952237 -0.34845 0.297946 -0.0683983 -0.857397 -0.645375 -0.371421 0.0423739 0.457877 -0.185305 -0.316283 0.176956 0.932873 0.719123 0.284627 
0.830878 0.985125 0.0177716 0.506458 -0.13292 0.703746 0.16097 0.479853 -0.216458 0.569459 -0.196026 0.964868 0.511169 -0.333819 -0.458992 -0.0635271 -0.813885 0.0246354 -0.28737 -0.467493 1.01575 0.180425 -0.745926 0.182485 0.138936 -0.175308 -0.398383 -0.0428083 0.333338 0.962571 -0.503191 0.0902902 
-0.381771 0.366187 0.30078 -0.00652753 -0.904085 -0.236705 -0.0296835 -0.48304 0.50174 0.542627 0.0566847 -0.620201 0.100334 -0.381268 -0.825784 0.0095234 -1.07847 -0.0823341 -0.511474 -0.155663 -0.435365 0.11507 0.393595 0.0295191 -0.821802 -0.180336 0.16025 0.0751193 0.761998 -0.20781 0.423463 0.839204 
-0.158267 0.542732 0.278719 0.773901 0.396248 -0.617703 0.626207 0.7431 0.288944 0.716365 -0.130473 0.258973 -0.631572 -0.889586 -0.623175 0.05586 -0.759383 -0.878135 -0.0141594 0.0903688 -0.952829 -0.0504229 -0.524141 -0.326509 -0.700493 0.471083 -0.528425 0.210271 -0.0944491 1.7678 0.232994 -0.0137078 
-0.208245 0.367377 0.088767 0.317822 -0.0608107 -0.658456 0.496475 -0.657939 -1.17851 1.55025 0.97839 -0.733975 -0.0622265 -0.260193 -0.00438538 0.8935 -0.700772 -0.812608 -1.19214 -0.0363216 0.138414 -0.433604 -0.376799 0.396446 -0.9335 -0.817924 0.231226 -0.708199 0.688094 0.946459 0.411451 0.318709 
0.666061 0.0577746 -0.57743 0.77099 0.394859 -0.902315 0.289164 0.872584 -0.22838 1.50642 -0.228296 -0.616015 1.02712 0.146496 -0.0208092 0.833971 -1.1907 -1.22342 0.93109 0.407743 0.178807 0.492776 -1.04424 0.364629 1.24843 -0.031163 -0.305136 0.853027 -0.0400892 0.918784 0.245549 -0.619609 
-0.323601 0.546335 -0.213878 -0.647776 -0.198595 -0.680779 0.213826 1.03634 0.244372 0.300619 0.46397 0.849895 0.537663 -0.65061 -0.361375 -0.988358 -1.47746 -0.465434 -0.734722 0.97708 0.606335 -0.214374 0.372255 0.0910817 0.52924 0.0980301 -0.456041 0.146558 0.483327 0.555919 -0.182431 0.464024 
0.349803 0.23006 -0.639239 0.471187 0.302656 -0.538806 0.984987 0.63939 -0.169747 0.847269 0.926203 0.627957 1.05221 -1.05236 0.557931 0.448824 -1.97036 -0.212775 0.0603827 -0.637189 -0.386299 -0.580623 -1.03537 -0.60615 0.884884 -0.164063 0.23524 -0.32742 0.285067 0.0919808 0.366848 0.352096 
-0.411281 -0.26535 -0.422815 -0.855915 -0.588802 0.978963 0.282675 0.436077 -0.0724228 -0.139115 -0.370444 0.788176 0.243294 -0.410178 -0.512897 -1.0911 -2.12412 0.888301 -0.506327 0.114194 0.796938 -1.08188 -0.64046 0.451869 0.834956 -0.92454 -0.252095 -0.685026 0.811888 -0.0675261 -0.292836 0.862592 
-0.439168 0.297483 0.34212 -0.869674 -0.639251 1.15855 -0.0934396 0.560418 0.360551 -0.28435 -0.801638 0.278344 0.280258 0.439266 -0.0539748 0.152901 -1.3342 0.731906 0.0489325 -0.301587 0.218365 -0.396766 -0.105256 0.501238 1.32524 -0.853045 0.0622183 0.06426 0.244486 0.817125 0.495432 -0.0105055 
0.0137268 0.236284 0.492836 -0.0399354 -0.925474 -0.318238 -0.71205 -0.623422 -0.448676 0.720897 1.14519 0.491871 0.058395 1.01735 -0.895188 -0.676764 -0.673333 0.577107 0.545719 -0.290652 -0.955545 -1.02364 -0.0822016 0.164013 -0.388653 0.610939 -0.849869 -0.506154 1.87882 -0.717262 0.757825 -1.23565 
-0.930707 -1.06764 0.942296 0.0614117 -0.145573 -0.15796 0.311293 -0.183509 -0.532368 0.100058 0.420943 0.405983 -0.259609 0.940617 0.992755 -0.395047 -0.369678 -0.276363 0.943643 -0.473521 0.694923 -0.659323 0.102408 -1.29803 -0.12419 0.354125 -0.383963 -0.251423 1.39111 0.0897737 -0.507552 0.0620592 
0.580714 -0.101642 0.952619 0.306088 0.547015 0.441593 0.243638 0.213135 -0.284335 -0.264411 0.970931 -0.0849888 -0.240372 -0.202478 0.426036 0.26874 0.468497 0.587994 0.499908 -0.755659 1.45119 0.614592 0.663543 0.158435 -0.297876 -0.59886 0.746184 -0.767583 0.210558 0.615565 0.833886 0.0431647 
-0.679577 -0.22921 -0.167736 0.362355 0.183144 -0.498352 -0.586337 0.793277 -0.830872 0.0127099 0.0839624 0.204518 -0.330906 0.243997 -0.885562 -0.293297 0.0102602 -0.267882 0.113492 -0.594033 1.06889 -0.0636716 0.158351 -0.619496 -1.1677 -0.212675 0.232167 -0.106171 -0.161958 0.412379 0.419483 -0.316069 
0.306647 0.250333 0.813353 0.810406 -0.141029 0.35786 0.0800906 0.842056 -0.229923 -0.620874 0.960067 0.508784 -0.106344 0.53501 -0.693488 1.41177 -0.337405 -0.619948 0.474401 -0.976394 0.607038 0.745181 0.910757 -0.322341 -0.456831 0.119998 -0.529572 0.935959 0.306656 -0.198069 -0.165203 1.01556 
0.926228 0.0302649 0.616818 -0.0107158 0.0611865 0.638616 1.33818 0.877303 -0.396934 -0.91773 0.357591 -0.308047 0.153706 -0.750298 0.11634 0.233018 -0.00662448 0.540816 0.733782 0.580352 0.218101 0.0199377 0.637112 0.723477 -0.175032 0.00828519 0.478468 0.553031 -0.909918 0.455013 0.959826 -0.272836 
-0.301667 -0.300832 0.815877 0.647693 0.385245 -0.213082 0.508095 -0.397416 -0.565532 0.00249293 0.0585573 -0.294259 0.14298 0.116834 -0.832306 0.421039 -0.856141 -0.586679 1.66277 -0.575769 -0.597881 0.316585 -0.618082 0.213922 -1.34046 -0.192294 -0.554037 -0.315357 0.57873 0.609924 0.097824 0.266929 
